tree
version=v4
num_class=1
num_tree_per_iteration=1
label_index=0
max_feature_idx=139
objective=binary sigmoid:1
feature_names=xtrack_error__mean xtrack_error__std xtrack_error__min xtrack_error__max xtrack_error__median xtrack_error__q10 xtrack_error__q25 xtrack_error__q75 xtrack_error__q90 xtrack_error__range xtrack_error__first xtrack_error__last xtrack_error__last_minus_first xtrack_error__linear_slope xtrack_error__diff_mean xtrack_error__diff_std xtrack_error__diff_abs_max xtrack_error__lag1_autocorrelation xtrack_error__missing_fraction xtrack_error__stale_fraction alt_error__mean alt_error__std alt_error__min alt_error__max alt_error__median alt_error__q10 alt_error__q25 alt_error__q75 alt_error__q90 alt_error__range alt_error__first alt_error__last alt_error__last_minus_first alt_error__linear_slope alt_error__diff_mean alt_error__diff_std alt_error__diff_abs_max alt_error__lag1_autocorrelation alt_error__missing_fraction alt_error__stale_fraction gps_speed_residual__mean gps_speed_residual__std gps_speed_residual__min gps_speed_residual__max gps_speed_residual__median gps_speed_residual__q10 gps_speed_residual__q25 gps_speed_residual__q75 gps_speed_residual__q90 gps_speed_residual__range gps_speed_residual__first gps_speed_residual__last gps_speed_residual__last_minus_first gps_speed_residual__linear_slope gps_speed_residual__diff_mean gps_speed_residual__diff_std gps_speed_residual__diff_abs_max gps_speed_residual__lag1_autocorrelation gps_speed_residual__missing_fraction gps_speed_residual__stale_fraction roll_error__mean roll_error__std roll_error__min roll_error__max roll_error__median roll_error__q10 roll_error__q25 roll_error__q75 roll_error__q90 roll_error__range roll_error__first roll_error__last roll_error__last_minus_first roll_error__linear_slope roll_error__diff_mean roll_error__diff_std roll_error__diff_abs_max roll_error__lag1_autocorrelation roll_error__missing_fraction roll_error__stale_fraction pitch_error__mean pitch_error__std pitch_error__min pitch_error__max pitch_error__median pitch_error__q10 pitch_error__q25 pitch_error__q75 pitch_error__q90 pitch_error__range pitch_error__first pitch_error__last pitch_error__last_minus_first pitch_error__linear_slope pitch_error__diff_mean pitch_error__diff_std pitch_error__diff_abs_max pitch_error__lag1_autocorrelation pitch_error__missing_fraction pitch_error__stale_fraction airspeed_error__mean airspeed_error__std airspeed_error__min airspeed_error__max airspeed_error__median airspeed_error__q10 airspeed_error__q25 airspeed_error__q75 airspeed_error__q90 airspeed_error__range airspeed_error__first airspeed_error__last airspeed_error__last_minus_first airspeed_error__linear_slope airspeed_error__diff_mean airspeed_error__diff_std airspeed_error__diff_abs_max airspeed_error__lag1_autocorrelation airspeed_error__missing_fraction airspeed_error__stale_fraction path_dev_mag__mean path_dev_mag__std path_dev_mag__min path_dev_mag__max path_dev_mag__median path_dev_mag__q10 path_dev_mag__q25 path_dev_mag__q75 path_dev_mag__q90 path_dev_mag__range path_dev_mag__first path_dev_mag__last path_dev_mag__last_minus_first path_dev_mag__linear_slope path_dev_mag__diff_mean path_dev_mag__diff_std path_dev_mag__diff_abs_max path_dev_mag__lag1_autocorrelation path_dev_mag__missing_fraction path_dev_mag__stale_fraction
feature_infos=[-153.10479524174798:65.030737977160214] [-1.9893870014605126:180.87797768281439] [-83.617931007354173:17.245140837725661] [-102.10148541546117:93.07561122382333] [-213.93305038949333:121.74942629489057] [-120.40894924026017:32.002369125525007] [-113.49841771173386:44.588077779622971] [-186.54092315779911:116.79961698502684] [-141.17026827590868:95.437566701753568] [-1.9243412693149489:123.57933583928374] [-78.83997803046968:38.907219740786779] [-127.17556782185359:88.282540010079543] [-295.54304800583725:403.59158580988355] [-2098.9674711979492:810.9707947102562] [-3453.7563429154461:997.07756554453636] [-2.1008970683958648:589.81737164688343] [-2.598882076843025:604.19308917651722] [-162.62128888241872:1.9221194109941016] [0:1] [0:1] [-9.6298983902936151:6.1046583959436305] [-1.9689395401545216:102.07267821049415] [-13.015250709501418:8.6372555495606882] [-9.7969926115196539:6.0317462808951872] [-9.3875000618082787:5.9132815534673382] [-12.17209773204344:8.0203667994648011] [-10.055276349468766:6.5060838833438996] [-9.2297507883540924:5.784268187350186] [-9.6063819537651174:5.9639932557385045] [-2.2485558616469796:89.994246116959701] [-11.312965888894864:7.1991605397510217] [-10.078137745022225:6.0109315792343372] [-35.43589198621023:204.102535786864] [-83.249926645083548:182.07464135643212] [-92.23454632987827:196.54316267529771] [-2.8818357970358681:232.63502050036314] [-2.3600006100944086:466.91998109634346] [-173.06343283643099:2.2196720621189794] [0:1] [0:1] [-4.9071574735324548:24.111358568253003] [-0.8038378774091387:8.0385316397433453] [-1.1286072410343939:0.93542775530489175] [-0.83146227115243254:9.0161850533086554] [-5.6689749983693902:6.1520114095418785] [-1.3790239459190476:1.1018286347964972] [-2.094360781377691:1.8972767163147932] [-1.0718679645104716:3.8486435387343612] [-0.93895814376031206:9.9947108296367624] [-0.78697612629903568:4.2504362105190374] [-7.2000516726623376:44.37172329238593] [-7.5045819262521354:8.9813980774228011] [-30.06116542449973:7.1782115122159782] [-651.96618192164453:88.068552766568544] [-287.89560595093792:47.933453332882173] [-0.7812673108750835:4.8807466839247011] [-0.75678143540308696:4.809045328473573] [-1.2494981617897185:2.1955220614364421] [0:1] [0:1] [-48.809546518851008:19.675890134658029] [-2.2117616659012307:15.063444837612721] [-12.935068403462672:5.2974919751162668] [-15.955258452922246:10.496557915910559] [-65.707942289170873:29.44330420033441] [-21.479943566913526:7.5467262662058756] [-39.140137569552124:20.106629699756549] [-25.034456983222753:16.204388392535698] [-12.944452313958259:6.7279741108509938] [-2.2627794108013788:7.9972699498024848] [-21.584230438533279:13.100421972202824] [-23.221821938854635:14.097319559589559] [-22.332457451269139:38.119163213999087] [-87.122494312396014:419.62357983101805] [-102.7999590617553:374.36564530274967] [-3.2057750039994164:54.659489441306235] [-3.282289511019354:44.08929859612428] [-45.255617180166638:2.2344569699807533] [0:1] [0:1] [-16.45117276363694:58.181331215060176] [-2.6474378993765613:21.678839419350698] [-20.248904340552393:25.302934600090545] [-5.0970938327003719:14.533523492528184] [-13.637530589332634:53.284288257585949] [-18.279452641365129:27.576170013859731] [-17.99773019159117:42.313802814144395] [-11.868783897929312:46.355043628835922] [-5.9976016589437862:19.981304234844369] [-2.8575911250030797:18.98247218356537] [-9.9168845448963356:25.508843854029315] [-20.16969393573368:23.378647413145838] [-33.135498043089683:28.630000056955915] [-98.58410053648501:199.84370759601089] [-87.090255976842784:172.69180731358867] [-3.9037132619529715:17.786725704019585] [-3.8318246265988058:20.422702965947138] [-78.358768558941634:2.83577093061756] [0:1] [0:1] [-1.0024450438776715:24.014448563213058] [-1.3858368232314384:2036.1616991668664] [-1:23.9001235962] [-1.0101012436486605:25.062921327174415] [-1:24.060153961200001] [-1:23.9001235962] [-1:23.9001235962] [-1:24.598327636699999] [-1.0101012436486605:24.976473331307801] [-0.010000228899999186:12.52700519561] [-1.0101012436486605:25.062921327174415] [-1:23.9001235962] [-12.2962999344:11.09819793698] [-4.4547553232324981:3.1935113448404939] [-0.93496799468750025:0.70114755632499959] [-1.184907669120832:408.81938522289437] [-0.010000228899999186:4.0727519988000012] [-1.422880049762117:0.14620858376573342] [0:1] [0:1] [-0.33761325209373205:228.21730341781154] [-0.12582862195879504:3250.1929139365066] [-0.40727976264544002:305.70364478417105] [-0.31395872167429112:213.07465791360275] [-0.33671048832701467:227.81649039598136] [-0.40831480341129223:278.5003856047752] [-0.35775889853286685:242.08412659737817] [-0.3274999645503186:221.36039350637233] [-0.31824941923437311:215.36090078890132] [-0.13685463064620473:1985.5303700594843] [-0.33432393786648779:224.27267815975441] [-0.33925007848373046:228.15098344651136] [-22206.415751784243:107.35865032590391] [-28422.257263041203:93.270124626842076] [-22235.47891448301:102.38073134792398] [-0.29802350069232758:10064.566771149783] [-0.17163264753484647:14427.416095733359] [-75.937896914577536:0.43948829777294118] [0:1] [0:1]
tree_sizes=3443 3431 3449

Tree=0
num_leaves=31
num_cat=0
split_feature=127 123 47 138 125 3 123 127 96 125 16 86 47 41 24 28 76 123 43 60 130 127 77 14 75 76 69 4 42 58
split_gain=1309.25 616.782 348.349 336.38 261.993 155.961 155.819 140.515 103.852 94.1195 81.4831 75.5311 55.8692 128.384 127.336 163.986 54.1146 47.7772 45.6458 63.924 44.8206 36.2371 33.2685 25.6701 25.2383 23.4724 19.9632 18.7579 21.4997 15.2755
threshold=0.0025030982667156427 0.74222728707966512 -0.63530008042333452 0.92296918767507019 0.0046980152376709548 9.3874134453901785 1.6475793144136934 0.64225285227308249 -0.83467386441813163 0.31373415913949765 2.7818060052368629 -0.43520455656898155 0.010119179347257012 -0.7310176587937538 0.36562499816311039 -0.34288048803055166 4.638481327409985 1.2055966955502897 0.38651246848408255 -0.042241428374715929 0.23703422476585409 0.50608100576010318 -5.6495017418015641 -38.672762865606671 4.2813561201926449 0.76048497713701346 0.44652068920654464 -4.572426200129887 -0.25087072522508835 0.028594771241830068
decision_type=2 2 2 2 2 2 2 2 2 2 2 2 2 2 2 2 2 2 2 2 2 2 2 2 2 2 2 2 2 2
left_child=2 7 4 5 -1 12 10 9 29 11 17 20 13 -4 15 -15 -12 18 19 -3 26 -11 -18 -13 -22 -17 -2 28 -14 -5
right_child=1 6 3 8 -6 -7 -8 -9 -10 21 16 23 27 14 -16 25 22 -19 -20 -21 24 -23 -24 -25 -26 -27 -28 -29 -30 -31
leaf_value=-0.057177850632659524 0.012669660372470731 -0.049784258591997269 0.060000008057473762 0.060000008057473762 0.060000008057473762 -0.044862910369828632 0.060000008057473762 -0.059849653937356986 -0.055134640849016439 0.060000008057473748 0.060000008057473762 0.0087934490840926166 -0.025140653535285218 0.050965883593258487 0.060000008057473762 -0.057359831980291355 0.041899626149965688 -0.058932126601657309 -0.049784258591997269 0.046818044608687312 0.056599607163463433 -0.023737275504047639 -0.059999991942526247 -0.050793585047070697 -0.013182415147889778 -0.0019104753297644334 -0.045816333340943066 0.059039536077752044 0.060000008057473776 -0.011327210951500606
leaf_weight=64.282694399356842 7.4892960786819485 8.879188656806944 107.71506562829018 9.8266375660896284 23.43275111913681 16.479095652699471 58.203930199146271 301.6782868206501 41.947990879416466 14.362008750438692 24.18864631652832 6.9223746806383124 5.2041965126991272 24.523058980703354 34.393231481313705 34.356790870428085 4.8959048092365265 21.235688671469688 13.318782985210417 20.167954608798031 13.030485168099405 6.878839746117591 7.0155716240406019 108.37905296683311 7.2654943317174903 8.5883109271526319 17.586817488074303 276.79437412321568 5.4802401810884458 3.7272340655326834
leaf_count=178 32 26 570 52 124 50 308 818 118 76 128 29 18 125 182 95 24 58 39 101 68 24 19 315 27 34 53 1459 29 14
internal_value=8.2992e-09 -0.0304829 0.0297749 0.0383531 -0.0258744 0.045936 0.0209961 -0.0472921 -0.0318081 -0.0264673 -0.00177357 -0.0343132 0.0489463 0.0371665 0.0130209 -0.0109276 0.0342249 -0.0222062 -0.00379752 0.0172885 -0.00152369 0.0328817 -0.0181168 -0.0472161 0.0316192 -0.0462709 -0.0283488 0.0575339 0.0185295 0.0403854
internal_weight=1298.25 641.498 656.752 569.036 87.7154 513.534 157.906 483.593 55.5019 181.914 99.7017 160.674 497.055 209.576 101.861 67.4682 36.1001 63.6016 42.3659 29.0471 45.3721 21.2408 11.9115 115.301 20.296 42.9451 25.0761 287.479 10.6844 13.5539
internal_count=5193 2145 3048 2746 302 2562 703 1442 184 624 395 524 2512 1006 436 254 171 224 166 127 180 100 43 344 95 129 85 1506 47 66
is_linear=0
shrinkage=1


Tree=1
num_leaves=31
num_cat=0
split_feature=131 123 23 122 125 47 24 2 45 20 6 72 48 22 47 100 56 63 11 106 123 123 43 18 62 120 89 44 33 62
split_gain=1270.87 581.097 336.281 416.778 468.811 165.452 89.441 77.1845 92.6729 81.261 77.0193 71.3555 67.3091 88.9061 60.4468 53.514 46.0462 42.1124 37.2215 28.4679 26.9076 33.378 41.1986 51.0798 24.535 22.1186 16.0027 29.9268 14.7118 13.2734
threshold=0.0092304278435881692 1.6475793144136934 0.35213030489773484 0.041964481277465403 -0.39198852597380723 -0.4251129637895717 -0.58886720568064821 -23.295504588744667 0.81545475064050599 0.63795855744535246 13.320655175161223 5.0973214084547669 -0.030951724693100442 -0.093137249062173397 0.037498727573257722 15.905648109715878 0.18465654820676328 -1.4338298390772477 2.4466007435558788 -0.99874997138750021 0.74222728707966512 1.2055966955502897 0.38651246848408255 0.9883720930232559 0.29631477063269956 0.0075010690919987003 0.56524170235735494 0.56869023214516923 10.952752820516475 1.4713238879406767
decision_type=2 2 2 2 2 2 2 2 2 2 2 2 2 2 2 2 2 2 2 2 2 2 2 2 2 2 2 2 2 2
left_child=2 5 3 4 12 -2 28 11 9 20 -4 19 13 -1 -8 -11 18 29 -16 -7 -9 22 23 -22 -15 -5 -19 -28 -6 -18
right_child=1 -3 10 25 6 7 14 8 -10 15 -12 -13 -14 24 16 -17 17 26 -20 -21 21 -23 -24 -25 -26 -27 27 -29 -30 -31
leaf_value=0.058621080571738787 -0.057840055764126125 0.058252938934099205 0.057497341383615799 0.058286480841370746 0.059014352962537361 -0.037231159210137865 -0.054088287975031131 -0.051821869996818516 0.058252938934099205 0.059012845870847652 -0.045895884050465574 0.054242454576154057 0.054761251214847421 -0.059348064858198768 0.044109501876831173 -0.059400695041408408 -0.008995823209041515 -0.05787280437101433 -0.030286611056800621 0.041993339112809717 -0.058729122980596682 -0.058282492764136343 -0.048029508319081669 0.052102825867017512 0.014294011779373549 -0.011001373299403696 0.026606478811243992 -0.056151088575070673 -0.010825591547423651 0.058252938934099198
leaf_weight=15.674440830945967 291.10402716696262 56.829950362443924 244.65695361793041 130.46377788484097 10.008703067898749 20.749838978052143 108.011778652668 113.42781031131744 9.6289949119091016 12.087952539324762 6.6607530117034903 19.621789082884789 85.661344110965729 13.653689652681352 14.874109745025637 4.7983082532882682 6.3339454978704435 33.767656475305557 10.205155789852141 5.0817735195159903 5.1660897433757826 17.708158224821091 12.941521584987639 13.581255793571472 5.8019251227378836 4.2826561331748954 6.7544269561767605 9.4136402010917646 3.7248190939426413 4.5312917232513428
leaf_count=83 792 301 1291 691 53 66 303 324 51 64 20 102 447 37 74 13 24 92 34 25 14 48 38 70 25 16 31 26 14 24
internal_value=1.68991e-08 -0.0328799 0.0268167 0.0116559 -0.00657263 -0.0427279 -0.0339118 -0.0239915 -0.0324191 -0.0372773 0.0547571 0.0111145 0.04042 0.00545019 -0.0391521 0.0253651 -0.0203669 -0.0344751 0.0138365 -0.0216456 -0.0437738 -0.0252936 -0.00685897 0.0215616 -0.037387 0.0560843 -0.0461214 -0.021578 0.0400723 0.0190499
internal_weight=1297.21 582.727 714.481 463.163 328.417 525.898 207.626 234.793 189.34 179.711 251.318 45.4534 120.791 35.1301 193.892 16.8863 85.8802 60.801 25.0793 25.8316 162.825 49.397 31.6889 18.7473 19.4556 134.746 49.9357 16.1681 13.7335 10.8652
internal_count=5193 1908 3285 1974 1267 1607 675 815 622 571 1311 193 592 145 608 77 305 197 108 91 494 170 122 84 62 707 149 57 67 48
is_linear=0
shrinkage=0.03


Tree=2
num_leaves=31
num_cat=0
split_feature=127 123 47 138 122 3 123 127 96 122 136 86 3 3 60 134 136 136 4 47 47 130 18 76 127 117 14 7 25 20
split_gain=1163.42 549.272 310.507 298.365 233.192 139.66 138.216 125.305 93.8781 90.8265 89.1074 65.4877 50.462 57.7504 48.4739 40.0706 38.9667 47.7641 34.9813 31.8177 100.58 45.0717 95.3498 30.2216 26.863 23.8677 23.6832 18.9954 29.7687 43.3708
threshold=0.0025030982667156427 0.74222728707966512 -0.63530008042333452 0.92296918767507019 0.047411347630281077 9.3874134453901785 1.6475793144136934 0.64225285227308249 -0.83467386441813163 0.3645295037230511 2.3101558249532039 -0.43520455656898155 -0.61548971744814296 -0.6403104521831523 0.91613590533482214 -43.602654873571801 1.6815354389971731 1.5223317855427798 -2.04401760294048 1.0000000180025095e-35 -1.0000000180025095e-35 -0.22464810932111443 0.9883720930232559 8.7015999510507971 0.50608100576010318 0.11334578680267578 -44.414595655684032 -0.055725969602819107 -0.028513230633085623 0.42804335112727215
decision_type=2 2 2 2 2 2 2 2 2 2 2 2 2 2 2 2 2 2 2 2 2 2 2 2 2 2 2 2 2 2
left_child=2 7 4 5 -1 12 10 9 -5 11 14 15 13 18 16 23 17 -3 -4 20 21 22 27 -2 -11 -20 -13 28 -14 -30
right_child=1 6 3 8 -6 -7 -8 -9 -10 24 -12 26 19 -15 -16 -17 -18 -19 25 -21 -22 -23 -24 -25 -26 -27 -28 -29 29 -31
leaf_value=-0.054082872604824618 0.054345822613043111 -0.022218876639446099 -0.014575389914684735 0.038768730657474937 0.056653247937101782 -0.042621908000304229 0.056678900000008171 -0.056545627291978894 -0.052155677307732094 0.057074539877307297 0.057138411688247862 0.014417689994438283 0.057129492691284596 -0.059858321315859456 0.045315404432391827 -0.025128067255976164 -0.055323366148998424 0.057962138117123453 0.056852012851711403 0.056114077628041249 -0.056836138093050541 0.056713270501233218 -0.056842437423173568 -0.03425311029442988 -0.017960235414963614 -0.024143913154811261 -0.047779501326714879 0.056986849929850703 -0.057240045467192496 0.056674287773357902
leaf_weight=64.088487952947617 13.752702146768572 38.204267099499702 11.15248094499111 13.524086281657217 23.350975513458252 16.448828160762787 58.003147512674332 300.65226931869984 41.829832702875137 14.318819835782053 18.843963772058487 5.8025594800710669 10.93109814822674 7.3765093088150016 10.341669678688048 27.641747117042542 23.943843930959702 8.1051004678010923 27.691862896084789 263.09825007617474 9.2024102807044965 108.85321225225925 10.674933880567549 4.6320497989654532 6.1334673911333075 3.7134494930505744 109.23376007378101 30.332239642739296 7.3651349246501905 5.0847227722406387
leaf_count=178 72 134 41 66 124 50 308 818 118 76 100 25 58 20 52 95 66 43 147 1393 25 578 29 15 22 13 319 161 20 27
internal_value=6.54536e-08 -0.0287764 0.0281124 0.0362236 -0.0245105 0.0433779 0.0198752 -0.0446625 -0.029941 -0.0249799 -0.00159264 -0.0325421 0.0462329 0.0176348 -0.0153246 -0.00229963 -0.0242511 -0.00818553 0.0310667 0.0494381 0.0398107 0.0449445 0.0250486 0.0320233 0.0345722 0.0472748 -0.0446422 0.0413235 0.0210034 -0.0107156
internal_weight=1294.33 639.609 654.719 567.279 87.4395 511.925 157.442 482.167 55.3539 181.515 99.4388 161.063 495.476 49.9343 80.5949 46.0265 70.2532 46.3094 42.5578 445.542 182.444 173.241 64.3881 18.3848 20.4523 31.4053 115.036 53.7132 23.381 12.4499
internal_count=5193 2145 3048 2746 302 2562 703 1442 184 624 395 526 2512 221 295 182 243 177 201 2291 898 873 295 87 98 160 344 266 105 47
is_linear=0
shrinkage=0.03


end of trees

feature_importances:
path_dev_mag__max=8
gps_speed_residual__q75=7
path_dev_mag__q75=6
xtrack_error__max=4
roll_error__diff_abs_max=3
path_dev_mag__min=3
path_dev_mag__q10=3
path_dev_mag__diff_abs_max=3
xtrack_error__median=2
xtrack_error__diff_mean=2
xtrack_error__missing_fraction=2
alt_error__mean=2
alt_error__median=2
gps_speed_residual__max=2
roll_error__mean=2
roll_error__min=2
pitch_error__q25=2
pitch_error__diff_abs_max=2
path_dev_mag__first=2
path_dev_mag__missing_fraction=2
xtrack_error__min=1
xtrack_error__q25=1
xtrack_error__q75=1
xtrack_error__last=1
xtrack_error__diff_abs_max=1
alt_error__min=1
alt_error__max=1
alt_error__q10=1
alt_error__q90=1
alt_error__linear_slope=1
gps_speed_residual__std=1
gps_speed_residual__min=1
gps_speed_residual__median=1
gps_speed_residual__q10=1
gps_speed_residual__q90=1
gps_speed_residual__diff_abs_max=1
gps_speed_residual__missing_fraction=1
roll_error__max=1
roll_error__range=1
roll_error__last_minus_first=1
roll_error__diff_std=1
roll_error__lag1_autocorrelation=1
pitch_error__range=1
airspeed_error__mean=1
airspeed_error__q25=1
airspeed_error__lag1_autocorrelation=1
path_dev_mag__mean=1
path_dev_mag__last=1
path_dev_mag__diff_mean=1

parameters:
[boosting: gbdt]
[objective: binary]
[metric: average_precision,binary_logloss]
[tree_learner: serial]
[device_type: cpu]
[data_sample_strategy: bagging]
[data: ]
[valid: ]
[num_iterations: 500]
[learning_rate: 0.03]
[num_leaves: 31]
[num_threads: 20]
[seed: 2]
[deterministic: 0]
[force_col_wise: 0]
[force_row_wise: 0]
[histogram_pool_size: -1]
[max_depth: -1]
[min_data_in_leaf: 20]
[min_sum_hessian_in_leaf: 0.001]
[bagging_fraction: 0.8]
[pos_bagging_fraction: 1]
[neg_bagging_fraction: 1]
[bagging_freq: 0]
[bagging_seed: 29216]
[bagging_by_query: 0]
[feature_fraction: 0.8]
[feature_fraction_bynode: 1]
[feature_fraction_seed: 17795]
[extra_trees: 0]
[extra_seed: 19650]
[early_stopping_round: 0]
[early_stopping_min_delta: 0]
[first_metric_only: 0]
[max_delta_step: 0]
[lambda_l1: 0]
[lambda_l2: 0]
[linear_lambda: 0]
[min_gain_to_split: 0]
[drop_rate: 0.1]
[max_drop: 50]
[skip_drop: 0.5]
[xgboost_dart_mode: 0]
[uniform_drop: 0]
[drop_seed: 24198]
[top_rate: 0.2]
[other_rate: 0.1]
[min_data_per_group: 100]
[max_cat_threshold: 32]
[cat_l2: 10]
[cat_smooth: 10]
[max_cat_to_onehot: 4]
[top_k: 20]
[monotone_constraints: ]
[monotone_constraints_method: basic]
[monotone_penalty: 0]
[feature_contri: ]
[forcedsplits_filename: ]
[refit_decay_rate: 0.9]
[cegb_tradeoff: 1]
[cegb_penalty_split: 0]
[cegb_penalty_feature_lazy: ]
[cegb_penalty_feature_coupled: ]
[path_smooth: 0]
[interaction_constraints: ]
[verbosity: -1]
[saved_feature_importance_type: 0]
[use_quantized_grad: 0]
[num_grad_quant_bins: 4]
[quant_train_renew_leaf: 0]
[stochastic_rounding: 1]
[linear_tree: 0]
[max_bin: 255]
[max_bin_by_feature: ]
[min_data_in_bin: 3]
[bin_construct_sample_cnt: 200000]
[data_random_seed: 45]
[is_enable_sparse: 1]
[enable_bundle: 1]
[use_missing: 1]
[zero_as_missing: 0]
[feature_pre_filter: 1]
[pre_partition: 0]
[two_round: 0]
[header: 0]
[label_column: ]
[weight_column: ]
[group_column: ]
[ignore_column: ]
[categorical_feature: ]
[forcedbins_filename: ]
[precise_float_parser: 0]
[parser_config_file: ]
[objective_seed: 29484]
[num_class: 1]
[is_unbalance: 0]
[scale_pos_weight: 1]
[sigmoid: 1]
[boost_from_average: 1]
[reg_sqrt: 0]
[alpha: 0.9]
[fair_c: 1]
[poisson_max_delta_step: 0.7]
[tweedie_variance_power: 1.5]
[lambdarank_truncation_level: 30]
[lambdarank_norm: 1]
[label_gain: ]
[lambdarank_position_bias_regularization: 0]
[eval_at: ]
[multi_error_top_k: 1]
[auc_mu_weights: ]
[num_machines: 1]
[local_listen_port: 12400]
[time_out: 120]
[machine_list_filename: ]
[machines: ]
[gpu_platform_id: -1]
[gpu_device_id: -1]
[gpu_use_dp: 0]
[num_gpu: 1]

end of parameters

pandas_categorical:[]
