tree
version=v4
num_class=1
num_tree_per_iteration=1
label_index=0
max_feature_idx=139
objective=binary sigmoid:1
feature_names=xtrack_error__mean xtrack_error__std xtrack_error__min xtrack_error__max xtrack_error__median xtrack_error__q10 xtrack_error__q25 xtrack_error__q75 xtrack_error__q90 xtrack_error__range xtrack_error__first xtrack_error__last xtrack_error__last_minus_first xtrack_error__linear_slope xtrack_error__diff_mean xtrack_error__diff_std xtrack_error__diff_abs_max xtrack_error__lag1_autocorrelation xtrack_error__missing_fraction xtrack_error__stale_fraction alt_error__mean alt_error__std alt_error__min alt_error__max alt_error__median alt_error__q10 alt_error__q25 alt_error__q75 alt_error__q90 alt_error__range alt_error__first alt_error__last alt_error__last_minus_first alt_error__linear_slope alt_error__diff_mean alt_error__diff_std alt_error__diff_abs_max alt_error__lag1_autocorrelation alt_error__missing_fraction alt_error__stale_fraction gps_speed_residual__mean gps_speed_residual__std gps_speed_residual__min gps_speed_residual__max gps_speed_residual__median gps_speed_residual__q10 gps_speed_residual__q25 gps_speed_residual__q75 gps_speed_residual__q90 gps_speed_residual__range gps_speed_residual__first gps_speed_residual__last gps_speed_residual__last_minus_first gps_speed_residual__linear_slope gps_speed_residual__diff_mean gps_speed_residual__diff_std gps_speed_residual__diff_abs_max gps_speed_residual__lag1_autocorrelation gps_speed_residual__missing_fraction gps_speed_residual__stale_fraction roll_error__mean roll_error__std roll_error__min roll_error__max roll_error__median roll_error__q10 roll_error__q25 roll_error__q75 roll_error__q90 roll_error__range roll_error__first roll_error__last roll_error__last_minus_first roll_error__linear_slope roll_error__diff_mean roll_error__diff_std roll_error__diff_abs_max roll_error__lag1_autocorrelation roll_error__missing_fraction roll_error__stale_fraction pitch_error__mean pitch_error__std pitch_error__min pitch_error__max pitch_error__median pitch_error__q10 pitch_error__q25 pitch_error__q75 pitch_error__q90 pitch_error__range pitch_error__first pitch_error__last pitch_error__last_minus_first pitch_error__linear_slope pitch_error__diff_mean pitch_error__diff_std pitch_error__diff_abs_max pitch_error__lag1_autocorrelation pitch_error__missing_fraction pitch_error__stale_fraction airspeed_error__mean airspeed_error__std airspeed_error__min airspeed_error__max airspeed_error__median airspeed_error__q10 airspeed_error__q25 airspeed_error__q75 airspeed_error__q90 airspeed_error__range airspeed_error__first airspeed_error__last airspeed_error__last_minus_first airspeed_error__linear_slope airspeed_error__diff_mean airspeed_error__diff_std airspeed_error__diff_abs_max airspeed_error__lag1_autocorrelation airspeed_error__missing_fraction airspeed_error__stale_fraction path_dev_mag__mean path_dev_mag__std path_dev_mag__min path_dev_mag__max path_dev_mag__median path_dev_mag__q10 path_dev_mag__q25 path_dev_mag__q75 path_dev_mag__q90 path_dev_mag__range path_dev_mag__first path_dev_mag__last path_dev_mag__last_minus_first path_dev_mag__linear_slope path_dev_mag__diff_mean path_dev_mag__diff_std path_dev_mag__diff_abs_max path_dev_mag__lag1_autocorrelation path_dev_mag__missing_fraction path_dev_mag__stale_fraction
feature_infos=[-13.124317919022316:6.0079892499850098] [-0.5812338618118833:103.82621177108096] [-14.904866460202461:3.1432028538106143] [-26.755606164880483:24.833543769883931] [-13.964599295041328:8.2195722581884816] [-14.213936960701405:4.007173124931235] [-13.561832125647227:5.5863766673319235] [-24.742329264093009:15.709318926652678] [-35.496479296846424:24.258132832443749] [-0.65675271881281205:73.440157221147672] [-14.28224843690486:7.5031442911898942] [-31.059391412324:21.961438138724024] [-1361.761078607002:1868.237033402401] [-8881.4207549369585:4223.945572807298] [-12189.767882899263:4769.9477516079678] [-0.51926007156444864:293.48923108960503] [-0.54044554633338659:245.81925118975246] [-167.6237524644834:1.5150175115243396] [0:1] [0:1] [-6.096189361970521:2.7408567002853879] [-0.66674064689904122:60.521671961774949] [-5.8299826594304793:2.8575176935677176] [-5.7912138424680073:2.6420183117964706] [-6.1532615575934271:2.7252412184827595] [-5.9304850568915422:2.848395116171424] [-5.9783589001559436:2.7811999257802995] [-5.8783020228751672:2.5482141657528929] [-5.800052164935102:2.5576748782474077] [-0.68242247606619455:47.119646492851423] [-5.9931568917156195:2.7799119253295324] [-6.119519913900322:2.7541983405424939] [-347.61706370678019:2021.7036524890329] [-620.32675248967644:1724.1600332501546] [-799.11732221855527:1972.4276067137341] [-0.74488264225502643:87.917605838908543] [-0.76923080449817494:224.84610155847315] [-74.210648147593318:1.7464202045582897] [0:1] [0:1] [-6.1163122028458883:65.753897856219425] [-0.05388081241041965:20.942344475047705] [-2.0603836549908845:0.15486091372348632] [-0.35303715637359262:24.323886168161323] [-5.3933574713089403:5.7010977660186573] [-2.1243320318937808:0.25005023503125978] [-2.5745891565645129:0.46621556222916533] [-1.2835323419547666:27.90083697244231] [-0.6263791578048562:34.769381226889742] [-0.050055956934864004:12.65944382444045] [-14.339886888132193:199.48108745099131] [-13.95242463284622:16.563776012058508] [-293.39277550827785:33.459205248508212] [-2141.4676559578756:169.47919199979688] [-2014.7465947354845:237.88625628478894] [-0.014005862140031623:8.1136619190627162] [-0.014743893927813338:9.2190076241083183] [-1.1632755306298375:1.3329195182278002] [0:1] [0:1] [-9.1888203130304404:5.1933176176830464] [-0.68354747704213892:6.6910253392228425] [-5.6404428323291054:2.2396540861995597] [-11.745873579487093:10.065299826958261] [-6.8177249957184856:6.1113030383290301] [-7.7958126034102948:3.1098675975923977] [-7.9711957933556663:4.0641724089888234] [-6.1299950511685983:5.1408161976709055] [-7.914441933762566:5.712418120500975] [-0.6682989826170519:4.1931720576624762] [-6.3093424799357045:4.3833402598617877] [-5.3560356201647092:2.9109646183523927] [-982.07039861680107:1129.1811548788955] [-1451.5301444436197:9207.9676051970109] [-2892.9823853200064:9042.3839372464245] [-0.78694588126745935:14.990972038938532] [-0.76108433975040668:11.323441632424824] [-60.443746726348294:2.1298009482357045] [0:1] [0:1] [-128.94544390819252:351.20321204025043] [-0.7481758716039878:8.7885687179010485] [-7.6179497709971837:8.7998956561856421] [-3.4513692403755809:12.150604689571795] [-114.82963691010954:303.64614167687444] [-9.1779688019271966:12.980064632112635] [-9.7932468164754614:22.66273114600164] [-14.077762282632614:38.419336328479844] [-7.132228681146942:22.340955513356207] [-0.7497908899898037:7.1536316535940561] [-140.24010118481792:359.48933591621693] [-288.53041473783583:336.05553207203747] [-713.02982057034353:607.98612014351011] [-2365.6210955645206:2945.6195126313919] [-2401.0784740014019:3146.4205200108936] [-0.79875767370401962:4.6636489229043478] [-0.80893236535801616:5.8549080632228643] [-74.348967954355516:2.237235671640974] [0:1] [0:1] [-1.1999999999999991:25.33914947509998] [0:1427.7189688674291] [-1:20.28483772277832] [-1:22.340164184599999] [-1.0101012436486605:21.543571367043906] [-1:20.3019100189209] [-1.0101012436486605:20.629424231439582] [-1.0101012436486605:22.13789363195842] [-2.4999999999999978:55.664885044124951] [0:1266.5562631972384] [-1:22.1917438507] [-1.0101012436486605:20.553738115606702] [-12.517432212800001:6.5718955994000012] [-4.7695066051232153:3.0904099789545088] [-0.96240816116000016:0.62212448119999986] [0:425.34774236469798] [0:414.30602633509102] [-0.95116541484478823:0.36000474158368689] [0:1] [0:1] [-0.7771012356326239:225.03095335901864] [-0.057718166299737271:10382.465008281391] [-0.45690683281837946:222.19802481447121] [-1.0048203490553809:223.12361156052791] [-0.78996448455321755:224.27242842766492] [-0.51982702392941049:222.67508783072478] [-0.60572079412497981:223.05055446229503] [-0.98083685230999873:227.14734404665037] [-0.98925905538069026:221.47420802671766] [-0.05140896432219285:5978.9614013239661] [-0.95674649282714508:225.09270578049751] [-0.68509242550529192:224.90435586198268] [-72350.65652435903:349.18014333468346] [-94550.196266003535:310.25777957518608] [-72653.714321445615:342.29573752407913] [-0.023893565760689274:18378.888731810795] [-0.023543174632490081:42524.680505426797] [-96.980376649260407:0.40901427350283032] [0:1] [0:1]
tree_sizes=3419 3431 3428 3431 3427 3441 3426

Tree=0
num_leaves=31
num_cat=0
split_feature=131 128 43 122 4 11 128 16 5 129 95 57 65 123 67 43 135 45 1 134 48 64 67 127 17 134 1 18 1 68
split_gain=3297.96 948.539 221.877 208.265 126.188 113.219 98.4494 72.4636 48.2225 44.2894 56.0305 23.7556 17.9147 17.1145 21.7017 29.6803 15.244 13.1306 10.2851 9.10152 8.90054 7.88241 6.98796 3.35474 3.19961 2.57744 6.31942 2.15432 1.70831 1.45533
threshold=-0.3468377528512851 0.12457952776620952 -0.10219168709176041 -0.26981371642303564 -3.4201867073940613 3.4166324841432667 1.0558971941948445 1.533297163383885 2.3275243200326332 4.5165024258451281 0.053247446454770343 1.0912647575034036 -2.1188757193486594 0.58716748190011814 -0.12080364694672906 1.2126320631074781 3.1659530728099541 -1.3097220513517045 4.015488642809272 -113.63652484597704 1.0483160964547165 -0.071422477768486245 -0.19061520976826535 -0.63583348313349675 -6.6236112749732907 17.633366278656499 0.86497733911155217 0.72631877481565521 8.7026696906897332 -1.5205074708136201
decision_type=2 2 2 2 2 2 2 2 2 2 2 2 2 2 2 2 2 2 2 2 2 2 2 2 2 2 2 2 2 2
left_child=2 4 3 -1 22 9 7 13 17 11 21 25 -12 14 -3 -16 -9 -6 -14 20 -19 -11 -2 -21 -20 -4 -27 -15 -7 -26
right_child=1 6 5 -5 8 28 -8 16 -10 10 12 -13 18 27 15 -17 -18 19 24 23 -22 -23 -24 -25 29 26 -28 -29 -30 -31
leaf_value=-0.060000014402495298 0.013563172188259875 -0.06000001440249525 0.059490588339997742 0.059999985597504697 -0.015279548847307206 -0.060000014402495312 0.059999985597504697 0.010168980000542963 0.017509781774279028 -0.060000014402495284 -0.0029844576316808481 0.0086681880785404262 0.010168980000542968 -0.03493476240251768 0.052398054164481719 -0.038172551047904818 0.058375536682373191 -0.0062110014710472471 0.036230079797768516 -0.03493476240251768 -0.060000014402495291 -0.0069613734307721045 0.059999985597504711 -0.059800845274910662 0.042819310781644464 0.019477745777460705 0.059999985597504697 -0.060000014402495298 -0.034934762402517673 0.059999985597504697
leaf_weight=31.150016784667969 5.0310326814651489 4.8671901226043728 515.95932790637016 22.360135585069656 6.2068695724010459 4.8671901226043683 65.024302333593369 8.7906536459922808 7.5602025687694541 4.8671901226043701 6.4911897182464591 8.5336405932903272 5.2743921875953665 4.9218043088912955 7.6830844879150408 5.6518828272819519 17.977260142564774 5.7338041067123395 7.3714572489261618 4.9218043088912955 5.3539091348648071 5.233431547880171 6.9393524229526502 619.40455728769302 5.0993004143238059 5.0446862280368832 11.051561266183851 8.2742232084274274 4.9218043088912964 34.18273600935936
leaf_count=128 20 20 2008 87 25 20 253 35 30 20 26 34 21 20 30 23 70 23 29 20 22 21 27 2545 20 20 43 34 20 133
internal_value=-1.48346e-08 -0.0417941 0.0487514 -0.00985595 -0.0560349 0.0538187 0.0346349 0.00627907 -0.0578146 0.0554453 0.0327231 0.0583253 0.0440035 -0.0246382 -0.00577951 0.0140107 0.0425444 -0.0587022 0.0498772 -0.0591263 -0.032184 -0.0325191 0.0404831 -0.0596048 0.0543664 0.0591218 0.0473 -0.0506513 -0.0473975 0.0577697
internal_weight=1456.75 784.342 672.408 53.5102 661.152 618.898 123.19 58.1661 649.181 609.109 68.5197 540.589 58.4191 31.3982 18.2022 13.335 26.7679 641.621 51.9279 635.414 11.0877 10.1006 11.9704 624.326 46.6535 532.056 16.0962 13.196 9.78899 39.282
internal_count=5827 3197 2630 215 2712 2415 485 232 2665 2375 270 2105 229 127 73 53 105 2635 203 2610 45 41 47 2565 182 2071 63 54 40 153
is_linear=0
shrinkage=1


Tree=1
num_leaves=31
num_cat=0
split_feature=131 128 43 120 7 3 128 16 123 5 128 82 57 123 67 43 135 136 125 60 51 2 137 81 134 68 42 47 40 137
split_gain=3105.71 893.27 208.932 196.137 118.906 102.256 92.7358 68.2231 47.4035 45.4326 32.598 51.7355 22.0693 16.1146 20.4371 27.9433 14.3686 10.4719 10.436 10.5784 8.32069 8.21647 7.62044 6.86876 3.20778 8.2953 2.40216 2.16875 1.92416 0.56644
threshold=-0.3468377528512851 0.12457952776620952 -0.10219168709176041 -0.57567335595339519 -5.1785870875409206 3.4880036840740209 1.0558971941948445 1.533297163383885 -0.13635884334297649 2.3275243200326332 -0.60234878325038321 -0.29938252957080475 1.0912647575034036 0.58716748190011814 -0.12080364694672906 1.2126320631074781 3.1659530728099541 6.7132844618376994 -1.0000000180025095e-35 0.18062278784058322 0.97359066841654085 -4.3716603048935205 0.40024609623887314 1.0193517356561781 17.633366278656499 -0.63263547825147015 0.097129682148107258 0.87147805533852274 -0.19992869277027425 -0.019564427408879832
decision_type=2 2 2 2 2 2 2 2 2 2 2 2 2 2 2 2 2 2 2 2 2 2 2 2 2 2 2 2 2 2
left_child=2 4 3 -1 23 10 7 13 29 18 12 21 17 14 -3 -16 -9 24 19 22 -13 -12 26 -2 -4 -26 28 -15 -6 -7
right_child=1 6 5 -5 9 8 -8 16 -10 -11 11 20 -14 27 15 -17 -18 -19 -20 -21 -22 -23 -24 -25 25 -27 -28 -29 -30 -31
leaf_value=-0.058252935455224614 0.012622441593221954 -0.058252935455224572 0.057835844438886862 0.058252938370528896 -0.041253473228356596 -0.059256005156849145 0.058252938370528896 0.0098641822499570368 0.04336712801708905 0.016985815807780701 0.058603888863807158 -0.0042407141234336804 0.008408315427728184 -0.058548322231872868 0.050861381881326523 -0.037040989826974888 0.056673038900004323 0.014998962301113352 -0.058218329554795001 -0.0032204393098880769 -0.059381061950487798 0.024618043641060152 -0.020043213474332289 0.058672984810072867 0.058598337881339627 0.012279495604178908 -0.033358584582844825 -0.033390506933975134 -0.058354349886029978 -0.045874048844647262
leaf_weight=31.121997833251953 5.0290557742118818 4.8628121614456203 529.64292258024216 22.340023219585419 7.1071999371051779 6.8116335719823846 64.965814650058746 8.7904264032840747 7.394931197166442 7.5596230626106253 20.28997990489006 4.9879796802997571 8.5334802418947202 8.2688059210777265 7.6778130233287829 5.6498243808746338 17.961953088641167 5.2849853038787833 581.37086895108223 4.9875088930129996 4.8655042350292206 9.3536591529846209 7.1758719086647025 6.9348747730255127 11.301090925931932 5.0280940383672705 4.9181548655033103 4.9182776212692252 35.501158535480499 4.89084017276764
leaf_count=128 20 20 2063 87 29 28 253 35 29 30 79 20 34 34 30 23 70 21 2391 20 20 37 29 27 44 20 20 20 146 20
internal_value=-2.352e-09 -0.0405749 0.0473288 -0.00956896 -0.054401 0.0522479 0.033622 0.00609456 -0.016091 -0.0561296 0.0544256 0.0280848 0.0562841 -0.023915 -0.00560976 0.013598 0.0412924 0.0570253 -0.0569918 -0.0450461 -0.0314682 0.0478801 -0.0488595 0.0393156 0.0574321 0.0443358 -0.0532104 -0.0491654 -0.0555019 -0.0536633
internal_weight=1455.53 783.68 671.847 53.462 660.584 618.385 123.096 58.1299 19.0974 648.62 599.288 39.4971 559.791 31.3775 18.1904 13.3276 26.7524 551.257 641.061 59.6899 9.85348 29.6436 54.7024 11.9639 545.972 16.3292 47.5265 13.1871 42.6084 11.7025
internal_count=5827 3197 2630 215 2712 2415 485 232 77 2665 2338 156 2182 127 73 53 105 2148 2635 244 40 116 224 47 2127 64 195 54 175 48
is_linear=0
shrinkage=0.03


Tree=2
num_leaves=31
num_cat=0
split_feature=131 128 43 122 14 11 128 15 129 95 5 0 57 65 49 67 55 135 137 1 136 46 124 124 44 47 15 132 86 35
split_gain=2929.39 842.621 197.036 185.038 111.963 100.769 87.5424 64.3058 39.5219 50.1794 31.9957 22.5265 21.2856 16.4598 14.1298 20.8851 23.0992 13.589 12.044 9.52932 7.71055 5.87276 6.49184 4.07829 4.92173 2.92449 7.33651 2.92094 14.9432 1.65704
threshold=-0.3468377528512851 0.12457952776620952 -0.10219168709176041 -0.26981371642303564 -190.01095144187718 3.4166324841432667 1.0558971941948445 0.53566349431646543 4.5165024258451281 0.053247446454770343 2.3275243200326332 -2.7553056896936208 1.1234618594662107 -2.1188757193486594 1.2026032831699245 -0.30156840961113895 0.92953873919069419 3.1659530728099541 0.40206606323490185 4.015488642809272 5.2524771818400398 -1.074752437313371 -0.032992749721016325 -0.44934543408414379 0.41098921550602335 1.2841463166853255 24.709869322156667 12.364475364571694 -0.56200295411801615 0.95000316134700202
decision_type=2 2 2 2 2 2 2 2 2 2 2 2 2 2 2 2 2 2 2 2 2 2 2 2 2 2 2 2 2 2
left_child=2 4 3 -1 11 8 7 14 12 20 18 -2 27 -11 15 -3 -17 -9 21 -15 -10 22 -6 24 -23 -21 -27 -4 -29 -7
right_child=1 6 5 -5 10 29 -8 17 9 13 -12 -13 -14 19 -16 16 -18 -19 -20 25 -22 23 -24 -25 -26 26 -28 28 -30 -31
leaf_value=-0.056654137341095354 0.054710528702757631 -0.048813803655239837 0.056229539650324574 0.056654141427681749 -0.013737438783369854 -0.057225027982595995 0.056654141427681749 0.0095689811211629554 -0.0056286758129622146 -0.0035038046393963047 0.012532148411754797 -0.020457040862646575 0.0011250063101258198 0.0089555695449402319 -0.051676604160426819 -0.021627431411089245 0.057957917175090093 0.055109852996977113 -0.013868230832311933 0.056257034573518883 -0.058117890663623023 -0.01787442410706595 -0.057384963410348419 -0.056634032760743781 -0.056819901293301757 0.011017247809104432 0.05706450656454249 0.057005600540520521 -0.00072895468917941804 -0.03250981530651427
leaf_weight=31.041372299194336 9.7322279363870603 7.5496591478586224 506.26907619833946 22.282146692276001 6.1980631947517395 4.8556211739778501 64.797507047653198 8.7897719442844409 5.227402597665785 6.4868435114622107 6.2869204580783835 5.6837180852890006 6.5043688565492621 5.2703740447759619 10.469976037740706 7.4024860858917254 5.896980881690979 17.917903825640678 6.1995018869638434 33.308449774980545 4.8609672784805298 5.4388482570648176 6.0706214606761915 607.04670582711697 6.3070296943187714 5.0201028138399115 8.2016418278217298 21.014707744121555 4.9934662729501715 4.910489022731781
leaf_count=128 38 31 1977 87 25 20 253 35 21 26 25 23 26 21 43 30 23 70 25 130 20 22 25 2503 26 20 32 82 20 20
internal_value=-1.52536e-08 -0.0394543 0.0460201 -0.00930633 -0.0529006 0.0508023 0.0326866 0.00592247 0.05234 0.0308545 -0.0548146 0.0269969 0.0550667 0.0415465 -0.0232414 -0.00896189 0.0136607 0.0401219 -0.055479 0.047188 -0.03092 -0.0558877 -0.0353345 -0.0562953 -0.0387865 0.0515185 0.039581 0.0557258 0.0459208 -0.044798
internal_weight=1452.03 781.788 670.247 53.3235 658.964 616.924 122.824 58.0268 607.157 68.3758 643.548 15.4159 538.782 58.2874 31.3191 20.8491 13.2995 26.7077 637.261 51.8006 10.0884 631.061 12.2687 618.793 11.7459 46.5302 13.2217 532.277 26.0082 9.76611
internal_count=5827 3197 2630 215 2712 2415 485 232 2375 270 2651 61 2105 229 127 84 53 105 2626 203 41 2601 50 2551 48 182 52 2079 102 40
is_linear=0
shrinkage=0.03


Tree=3
num_leaves=31
num_cat=0
split_feature=131 123 43 120 4 11 137 5 129 95 130 16 57 45 62 123 120 60 45 64 11 4 62 0 37 131 137 121 68 132
split_gain=2767.14 791.609 186.075 174.846 109.426 95.1915 85.4816 38.0198 37.5325 47.3433 34.7041 33.9133 20.2442 30.4459 19.415 12.5417 11.2925 10.9349 9.78106 7.32931 6.40229 12.2812 6.38325 6.0483 5.07301 4.36398 2.2522 1.65047 1.64579 1.45298
threshold=-0.3468377528512851 0.13113543276938902 -0.10219168709176041 -0.57567335595339519 -3.4201867073940613 3.4166324841432667 0.39176651832132087 2.3275243200326332 4.5165024258451281 0.053247446454770343 0.89720201552154843 1.2963834589500369 1.0605672669428055 0.10532966020363739 -2.1867767597525023 0.52186906470058125 0.76953111858893253 -0.25048377099710289 -1.3097220513517045 -0.071422477768486245 -0.28309772670808186 -2.0154381321636032 -1.5522720534251093 -2.0654348889164189 1.0585589815567469 -0.3410704008407387 0.40024609623887314 14.232404377000536 -0.29760633489148519 16.628514869251699
decision_type=2 2 2 2 2 2 2 2 2 2 2 2 2 2 2 2 2 2 2 2 2 2 2 2 2 2 2 2 2 2
left_child=2 4 3 -1 24 8 10 18 12 19 11 16 29 -14 -11 17 -3 -8 -6 -10 21 -16 -13 -20 -2 -25 -27 -12 -7 -4
right_child=1 6 5 -5 7 28 15 -9 9 14 27 22 13 -15 20 -17 -18 -19 23 -21 -22 -23 -24 25 -26 26 -28 -29 -30 -31
leaf_value=-0.055186053106413474 0.016628219186348506 0.0013637531384210375 0.054766524065647415 0.055186051443597763 -0.015740992417858791 -0.055972807670038829 -0.038819087438278173 0.014783034288058773 -0.056601801918760491 -0.0030488779837548044 0.055280859490499858 0.015872431964172328 -0.042307203762337341 0.057899332885734012 0.055811524700573156 -0.047714006087380828 -0.055864823137193154 0.017176638195858875 -0.022855378972580945 -0.0053889335110474295 0.053544402341406741 -0.0036100650201510414 0.05655665208159389 -0.027853500173496616 0.05656479104248812 -0.055126068376583889 -0.036835038984806695 0.040041989030013089 -0.031309604038283131 0.045925781420559419
leaf_weight=30.912986755371094 5.0256545543670637 7.9690516442060488 508.28866775333881 22.189990729093552 5.9345275014638892 4.841827854514122 4.8829822391271582 7.2997933477163306 4.8482890427112579 7.9817438870668402 65.306053310632706 5.020027011632922 4.9036821722984296 6.1528529524803162 6.8991668224334717 9.4920064210891706 5.0822318345308304 8.786348372697832 5.4108947664499274 5.2260999679565412 37.521664977073669 5.7304021716117841 11.246797502040861 5.3980186581611624 6.6512027978897095 612.07807049155235 6.1191710680723181 7.0910866558551779 4.8989398479461652 17.300592929124832
leaf_count=128 20 32 1993 87 24 20 20 29 20 32 256 20 20 24 27 39 21 35 22 21 147 23 44 22 26 2534 25 28 20 68
internal_value=-1.89113e-08 -0.03842 0.0448127 -0.00906517 -0.0516374 0.0494679 0.0307927 -0.0532922 0.0509662 0.0300044 0.0426369 0.0151003 0.0536304 0.0134567 0.0404092 -0.0212222 -0.0209213 -0.00282625 -0.0540748 -0.0300351 0.0473257 0.0288502 0.0440013 -0.0544365 0.0393763 -0.0547105 -0.054945 0.0537883 -0.0435689 0.0544755
internal_weight=1446.49 778.794 667.697 53.103 653.917 614.594 124.877 642.24 604.853 68.2074 101.715 29.3181 536.646 11.0565 58.133 23.1613 13.0513 13.6693 634.941 10.0744 50.1512 12.6296 16.2668 629.006 11.6769 623.595 618.197 72.3971 9.74077 525.589
internal_count=5827 3197 2630 215 2702 2415 495 2656 2375 270 401 117 2105 44 229 94 53 55 2627 41 197 50 64 2603 46 2581 2559 284 40 2061
is_linear=0
shrinkage=0.03


Tree=4
num_leaves=31
num_cat=0
split_feature=131 128 43 120 14 11 128 15 129 81 10 0 57 62 49 56 62 137 43 1 47 126 40 0 134 61 47 43 40 50
split_gain=2617.34 753.389 175.949 165.458 101.257 90.0468 78.7859 57.7316 35.7507 40.4068 27.4349 20.2863 19.2916 16.0011 13.1428 24.2114 13.1408 11.0292 7.14429 7.02775 5.53875 5.40894 7.37683 4.01808 2.77066 7.93953 2.08706 5.27411 1.64276 0.77442
threshold=-0.3468377528512851 0.12457952776620952 -0.10219168709176041 -0.57567335595339519 -190.01095144187718 3.4166324841432667 1.0558971941948445 0.53566349431646543 4.5165024258451281 0.074609758029575438 2.3362223853923347 -2.7553056896936208 1.1234618594662107 -2.1867767597525023 1.2026032831699245 1.0153553863397933 -1.5522720534251093 0.40206606323490185 0.97197185962835309 4.3038623532115068 0.57536014950518 -0.27162540274142039 0.35630604330434662 -2.7553056896936208 17.633366278656499 0.059304890803606368 1.2841463166853255 1.1865758576872356 0.8992222108388076 -4.1374717221395336
decision_type=2 2 2 2 2 2 2 2 2 2 2 2 2 2 2 2 2 2 2 2 2 2 2 2 2 2 2 2 2 2
left_child=2 4 3 -1 11 8 7 14 12 18 17 -2 24 -11 15 20 -9 21 -10 -15 -3 22 -6 -23 -4 -26 -21 -28 -7 -25
right_child=1 6 5 -5 10 28 -8 16 9 13 -12 -13 -14 19 -16 -17 -18 -19 -20 26 -22 23 -24 29 25 -27 27 -29 -30 -31
leaf_value=-0.053833789788657695 0.05232430971228718 -0.055564775609245179 0.05332462537859417 0.053833787091034979 -0.0093900309925556077 -0.054829578685320887 0.053871837603816093 0.0092120199397131407 -0.00079298295453782424 -0.0011522941142741042 0.0070515330577566671 -0.019145618788212439 0.00093625917275492229 0.014836479863214597 -0.049611486286670857 0.029358769632133679 0.053511978541174808 -0.012872638491772391 -0.050730601271255685 0.053597402716046738 -0.014649742075444203 -0.026563774191957074 -0.051344429486742699 -0.041852677457022043 0.0092746901180980387 0.054749057172601014 0.015142098675363454 0.054520468535700035 -0.030145890885648077 -0.053898365133855777
leaf_weight=30.741334915161133 9.6736415475606901 6.2797451764345222 511.08822052180767 22.066775590181351 5.9326107650995281 4.8237424343824369 64.18148472905159 9.2468640208244341 5.2150761783122999 7.738749846816062 6.985563024878501 5.6690698266029349 6.499885380268096 6.028589963912963 10.415243327617643 8.826865538954733 17.303531274199486 6.1871760934591284 5.0997083634138107 31.007389277219772 5.6630980670452118 4.9140257239341727 10.356215775012968 4.8423523902893058 4.9966501891613033 11.20271450281143 5.0034234821796399 7.8853442668914795 4.8829978406429291 598.38284063339233
leaf_count=128 38 26 2015 87 24 20 253 37 21 31 28 23 26 24 43 35 68 25 21 122 23 20 43 20 20 44 20 31 20 2491
internal_value=-4.56788e-08 -0.0374597 0.0436953 -0.00884304 -0.0502421 0.0482326 0.0309985 0.00557134 0.0496948 0.0292045 -0.0520747 0.0259165 0.0523043 0.0389868 -0.0221089 -0.00831738 0.0380834 -0.0527297 -0.0254825 0.0452087 -0.0361635 -0.0531246 -0.0360641 -0.0535816 0.0529375 0.0407226 0.04938 0.0392338 -0.0424124 -0.0538017
internal_weight=1439.14 774.86 664.281 52.8081 652.943 611.472 121.917 57.7353 601.766 67.9783 637.601 15.3427 533.787 57.6635 31.185 20.7697 26.5504 630.615 10.3148 49.9247 11.9428 624.428 16.2888 608.139 527.288 16.1994 43.8962 12.8888 9.70674 603.225
internal_count=5827 3197 2630 215 2712 2415 485 232 2375 270 2651 61 2105 228 127 84 105 2623 42 197 49 2598 67 2531 2079 64 173 51 40 2511
is_linear=0
shrinkage=0.03


Tree=5
num_leaves=31
num_cat=0
split_feature=127 123 6 47 123 3 23 128 16 95 15 40 135 136 136 20 45 4 134 42 96 134 37 47 40 127 134 41 134 132
split_gain=2330.93 775.455 176.322 160.331 157.686 76.9072 66.4133 61.365 78.1645 60.718 33.3611 16.6779 14.8075 14.515 17.4905 25.0839 13.3616 13.2172 8.23464 8.17602 5.29106 4.79787 14.6715 3.26988 7.16694 3.10213 2.24437 7.57428 0.652665 0.328651
threshold=-0.63583348313349675 0.13113543276938902 -1.0774487304479796 -0.29794595512353145 -0.98871907824450478 3.4880036840740209 1.7320574920909373 1.0558971941948445 1.533297163383885 0.53604458976202818 49.912896180433499 -0.89396435059928991 3.1659530728099541 5.2037545632018993 4.1106604717609097 -0.44356823413185015 -1.2602593940596249 -0.1468185979185018 -159.03103481815091 -1.1540920777244106 1.1834644848813733 17.633366278656499 0.69831085440662466 -0.16266572180310618 -0.45815663192909389 -0.64148255214505301 -25.548256212649143 0.83523017274004308 228.53909860776926 12.364475364571694
decision_type=2 2 2 2 2 2 2 2 2 2 2 2 2 2 2 2 2 2 2 2 2 2 2 2 2 2 2 2 2 2
left_child=3 2 9 4 11 17 10 8 13 18 16 -1 -10 14 -3 -16 -4 -5 -2 -17 -11 23 -23 24 -19 29 27 -18 -28 -25
right_child=1 7 6 5 -6 -7 -8 -9 12 20 -12 -13 -14 -15 15 19 26 21 -20 -21 -22 22 -24 25 -26 -27 28 -29 -30 -31
leaf_value=0.0067124497029254302 -0.0060939655436619469 -0.046911955764288173 -0.0078675106564936228 0.014882794176257088 0.051649822130288209 -0.041803915487152017 0.060088073575776606 0.052760977645911158 0.0091876529946244186 0.026040446464572778 0.024193113530289322 -0.052944378005862318 0.052287608918122917 -0.051581123505629461 -0.048181791518515212 0.0058576462517198266 -0.016515755987934401 0.0083552953074590257 -0.055402372987791264 0.056945056480753382 0.054456993623966048 -0.0080303651532893355 0.053624070250377513 0.052378187754569219 0.052765730840580102 0.02907966817967049 -0.052640390810012053 -0.052865273268505257 -0.041573143125861974 0.046688179619608708
leaf_weight=4.9184913337230673 4.9408212602138519 7.2589756995439556 6.1899039745330802 9.213673919439314 27.707483679056168 8.2449615150690061 4.8722230195999137 65.284948736429214 9.5256097912788373 9.5294723361730593 5.2527723312377921 29.595794051885605 29.062409818172455 9.8780497610568982 4.8224886059761074 5.2131832987070101 6.8758413791656521 4.965677708387374 7.9576202034950239 6.1400882601737941 15.471361398696898 4.9488977342844036 11.652877062559126 490.96176721155643 9.5797581672668439 5.2448245137929908 590.00030007958412 20.66550600528717 4.8350190818309775 9.3091282546520215
leaf_count=20 20 30 25 37 110 34 19 259 38 38 21 124 115 41 20 21 28 20 33 24 61 20 46 1948 38 21 2473 86 20 37
internal_value=-7.3205e-08 -0.0333318 -0.0465186 0.0440089 -0.00165262 0.0491361 -0.0502492 0.0317044 0.0125853 0.0163511 -0.0510974 -0.0444429 0.0416482 -0.0210797 -0.00822302 0.00913889 -0.0517266 0.0505097 -0.0365145 0.0334868 0.0436256 0.0511214 0.0352452 0.0516282 0.0376044 0.0520317 -0.0521628 -0.0437904 -0.0525504 0.0522723
internal_weight=1430.12 813.777 676.591 616.343 62.2218 554.122 638.692 137.186 71.9008 37.8993 633.819 34.5143 38.588 33.3128 23.4347 16.1758 628.567 545.877 12.8984 11.3533 25.0008 536.663 16.6018 520.061 14.5454 505.516 622.377 27.5413 594.835 500.271
internal_count=5827 3372 2824 2455 254 2201 2672 548 289 152 2653 144 153 136 95 65 2632 2167 53 45 99 2130 66 2064 58 2006 2607 114 2493 1985
is_linear=0
shrinkage=0.03


Tree=6
num_leaves=31
num_cat=0
split_feature=131 128 43 120 7 3 137 123 42 30 128 82 128 9 57 45 120 123 136 57 51 55 134 115 53 131 56 134 134 96
split_gain=2351.32 676.75 158.277 149.109 91.315 78.8262 71.4187 38.5471 25.5992 55.0127 25.482 41.1326 24.5149 40.032 18.0975 27.8832 12.616 11.2595 9.15718 8.89901 7.12233 7.01754 6.89897 6.33369 5.91759 4.12247 2.36583 2.11482 2.01655 5.9241
threshold=-0.3468377528512851 0.12457952776620952 -0.10219168709176041 -0.57567335595339519 -5.1785870875409206 3.4880036840740209 0.39176651832132087 -0.13635884334297649 -0.97512952922988749 0.31898457974776023 -0.60234878325038321 -0.29938252957080475 1.0558971941948445 1.3700870128870497 1.0605672669428055 0.10532966020363739 0.76953111858893253 0.52186906470058125 6.7132844618376994 -0.2422861667159214 0.97359066841654085 0.93588340270938974 -169.18409239173909 76.423455990832551 0.4637691354372982 -0.3410704008407387 1.120732633564175 -113.63652484597704 17.633366278656499 0.36228014365639866
decision_type=2 2 2 2 2 2 2 2 2 2 2 2 2 2 2 2 2 2 2 2 2 2 2 2 2 2 2 2 2 2
left_child=2 4 3 -1 23 10 12 -7 9 19 14 22 13 16 18 -16 -3 24 28 26 -13 -15 -12 -2 -8 -10 -6 -27 -4 -30
right_child=1 6 5 -5 8 7 17 -9 25 -11 11 20 -14 21 15 -17 -18 -19 -20 -21 -22 -23 -24 -25 -26 27 -28 -29 29 -31
leaf_value=-0.051513391188253536 0.0089746678965844894 0.0054029019491694105 0.051143882022709426 0.051447220297324896 -0.030792152621135261 -0.04856633892714874 -0.026130082598399915 0.039484207756784899 -0.024203537805186824 0.058566903111362693 0.049222970541054033 -0.0035213149631563804 0.051448209797785353 0.012874877224155618 -0.041753681991452581 0.054398862199824496 -0.053132840570841139 -0.045192682806545384 0.0108910965183695 -0.0078070864282113418 -0.05475832479117735 0.053128099630899414 0.011173233895712596 0.053517358263786612 0.017242422601347406 -0.033266783465392462 -0.053218090497572028 -0.051444039909493977 0.013137871245476617 0.052700728163015881
leaf_weight=30.302158564329147 4.9614893645048124 7.4404166936874372 513.55314871668816 21.742168918251991 5.3179655820131329 11.523120880126955 4.8896491825580615 7.3156337440013877 5.1105255484580985 5.9010972380638114 23.869662493467331 4.9571421742439252 62.977174431085587 4.9640156924724606 4.8979759067296964 6.0883374512195587 5.9747761785984039 9.3918625563383085 5.2204966545104972 5.885783419013026 4.8119271546602249 18.148350298404694 5.2279990911483791 6.8255951553583145 6.7247858643531799 5.817954793572425 20.765827760100365 583.20517471432686 4.9680730551481238 10.836117357015608
leaf_count=128 20 30 2054 87 22 48 20 29 21 23 95 20 252 20 20 24 25 39 21 24 20 72 21 27 27 24 87 2464 20 43
internal_value=-1.43613e-07 -0.0357508 0.0416964 -0.00850031 -0.0479644 0.0460269 0.0294964 -0.0143738 -0.0495074 -0.0255927 0.0479738 0.0245043 0.0401077 0.0205555 0.0496458 0.0115316 -0.0206674 -0.020768 0.0504291 -0.0411272 -0.028759 0.0444826 0.0423865 0.0347682 -0.0010173 -0.0510317 -0.0486459 -0.0512645 0.0508191 0.0402641
internal_weight=1419.62 764.302 655.314 52.0443 643.791 603.27 120.511 18.8388 632.004 37.8707 584.431 38.8667 99.5047 36.5276 545.564 10.9863 13.4152 21.0063 534.578 31.9696 9.76907 23.1124 29.0977 11.7871 11.6144 594.134 26.0838 589.023 529.357 15.8042
internal_count=5827 3197 2630 215 2712 2415 485 77 2665 156 2338 156 399 147 2182 44 55 86 2138 133 40 92 116 47 47 2509 109 2488 2117 63
is_linear=0
shrinkage=0.03


end of trees

feature_importances:
path_dev_mag__q90=13
path_dev_mag__diff_mean=11
gps_speed_residual__max=10
path_dev_mag__max=9
path_dev_mag__last=8
gps_speed_residual__lag1_autocorrelation=7
path_dev_mag__lag1_autocorrelation=7
gps_speed_residual__q75=6
path_dev_mag__mean=6
xtrack_error__std=5
xtrack_error__last=5
gps_speed_residual__mean=5
gps_speed_residual__q10=5
path_dev_mag__diff_abs_max=5
xtrack_error__mean=4
xtrack_error__median=4
xtrack_error__q10=4
xtrack_error__diff_std=4
xtrack_error__diff_abs_max=4
roll_error__min=4
roll_error__q75=4
pitch_error__diff_std=4
path_dev_mag__range=4
path_dev_mag__diff_std=4
xtrack_error__max=3
gps_speed_residual__min=3
roll_error__q90=3
path_dev_mag__q75=3
path_dev_mag__last_minus_first=3
xtrack_error__q75=2
xtrack_error__diff_mean=2
alt_error__lag1_autocorrelation=2
gps_speed_residual__range=2
gps_speed_residual__last=2
gps_speed_residual__diff_std=2
gps_speed_residual__diff_abs_max=2
roll_error__mean=2
roll_error__median=2
roll_error__q10=2
pitch_error__std=2
pitch_error__min=2
pitch_error__diff_abs_max=2
path_dev_mag__min=2
path_dev_mag__median=2
xtrack_error__min=1
xtrack_error__q25=1
xtrack_error__range=1
xtrack_error__first=1
xtrack_error__lag1_autocorrelation=1
xtrack_error__missing_fraction=1
alt_error__mean=1
alt_error__max=1
alt_error__first=1
alt_error__diff_std=1
gps_speed_residual__std=1
gps_speed_residual__median=1
gps_speed_residual__q25=1
gps_speed_residual__q90=1
gps_speed_residual__first=1
gps_speed_residual__linear_slope=1
roll_error__std=1
pitch_error__q25=1
airspeed_error__diff_std=1
path_dev_mag__std=1
path_dev_mag__q10=1
path_dev_mag__q25=1
path_dev_mag__first=1

parameters:
[boosting: gbdt]
[objective: binary]
[metric: average_precision,binary_logloss]
[tree_learner: serial]
[device_type: cpu]
[data_sample_strategy: bagging]
[data: ]
[valid: ]
[num_iterations: 500]
[learning_rate: 0.03]
[num_leaves: 31]
[num_threads: 20]
[seed: 0]
[deterministic: 0]
[force_col_wise: 0]
[force_row_wise: 0]
[histogram_pool_size: -1]
[max_depth: -1]
[min_data_in_leaf: 20]
[min_sum_hessian_in_leaf: 0.001]
[bagging_fraction: 0.8]
[pos_bagging_fraction: 1]
[neg_bagging_fraction: 1]
[bagging_freq: 0]
[bagging_seed: 7719]
[bagging_by_query: 0]
[feature_fraction: 0.8]
[feature_fraction_bynode: 1]
[feature_fraction_seed: 2437]
[extra_trees: 0]
[extra_seed: 11797]
[early_stopping_round: 0]
[early_stopping_min_delta: 0]
[first_metric_only: 0]
[max_delta_step: 0]
[lambda_l1: 0]
[lambda_l2: 0]
[linear_lambda: 0]
[min_gain_to_split: 0]
[drop_rate: 0.1]
[max_drop: 50]
[skip_drop: 0.5]
[xgboost_dart_mode: 0]
[uniform_drop: 0]
[drop_seed: 21238]
[top_rate: 0.2]
[other_rate: 0.1]
[min_data_per_group: 100]
[max_cat_threshold: 32]
[cat_l2: 10]
[cat_smooth: 10]
[max_cat_to_onehot: 4]
[top_k: 20]
[monotone_constraints: ]
[monotone_constraints_method: basic]
[monotone_penalty: 0]
[feature_contri: ]
[forcedsplits_filename: ]
[refit_decay_rate: 0.9]
[cegb_tradeoff: 1]
[cegb_penalty_split: 0]
[cegb_penalty_feature_lazy: ]
[cegb_penalty_feature_coupled: ]
[path_smooth: 0]
[interaction_constraints: ]
[verbosity: -1]
[saved_feature_importance_type: 0]
[use_quantized_grad: 0]
[num_grad_quant_bins: 4]
[quant_train_renew_leaf: 0]
[stochastic_rounding: 1]
[linear_tree: 0]
[max_bin: 255]
[max_bin_by_feature: ]
[min_data_in_bin: 3]
[bin_construct_sample_cnt: 200000]
[data_random_seed: 38]
[is_enable_sparse: 1]
[enable_bundle: 1]
[use_missing: 1]
[zero_as_missing: 0]
[feature_pre_filter: 1]
[pre_partition: 0]
[two_round: 0]
[header: 0]
[label_column: ]
[weight_column: ]
[group_column: ]
[ignore_column: ]
[categorical_feature: ]
[forcedbins_filename: ]
[precise_float_parser: 0]
[parser_config_file: ]
[objective_seed: 8855]
[num_class: 1]
[is_unbalance: 0]
[scale_pos_weight: 1]
[sigmoid: 1]
[boost_from_average: 1]
[reg_sqrt: 0]
[alpha: 0.9]
[fair_c: 1]
[poisson_max_delta_step: 0.7]
[tweedie_variance_power: 1.5]
[lambdarank_truncation_level: 30]
[lambdarank_norm: 1]
[label_gain: ]
[lambdarank_position_bias_regularization: 0]
[eval_at: ]
[multi_error_top_k: 1]
[auc_mu_weights: ]
[num_machines: 1]
[local_listen_port: 12400]
[time_out: 120]
[machine_list_filename: ]
[machines: ]
[gpu_platform_id: -1]
[gpu_device_id: -1]
[gpu_use_dp: 0]
[num_gpu: 1]

end of parameters

pandas_categorical:[]
