tree
version=v4
num_class=1
num_tree_per_iteration=1
label_index=0
max_feature_idx=239
objective=binary sigmoid:1
feature_names=gps_speed_residual__mean gps_speed_residual__std gps_speed_residual__min gps_speed_residual__max gps_speed_residual__median gps_speed_residual__q10 gps_speed_residual__q25 gps_speed_residual__q75 gps_speed_residual__q90 gps_speed_residual__range gps_speed_residual__first gps_speed_residual__last gps_speed_residual__last_minus_first gps_speed_residual__linear_slope gps_speed_residual__diff_mean gps_speed_residual__diff_std gps_speed_residual__diff_abs_max gps_speed_residual__lag1_autocorrelation gps_speed_residual__missing_fraction gps_speed_residual__stale_fraction alt_baro_residual__mean alt_baro_residual__std alt_baro_residual__min alt_baro_residual__max alt_baro_residual__median alt_baro_residual__q10 alt_baro_residual__q25 alt_baro_residual__q75 alt_baro_residual__q90 alt_baro_residual__range alt_baro_residual__first alt_baro_residual__last alt_baro_residual__last_minus_first alt_baro_residual__linear_slope alt_baro_residual__diff_mean alt_baro_residual__diff_std alt_baro_residual__diff_abs_max alt_baro_residual__lag1_autocorrelation alt_baro_residual__missing_fraction alt_baro_residual__stale_fraction alt_local_residual__mean alt_local_residual__std alt_local_residual__min alt_local_residual__max alt_local_residual__median alt_local_residual__q10 alt_local_residual__q25 alt_local_residual__q75 alt_local_residual__q90 alt_local_residual__range alt_local_residual__first alt_local_residual__last alt_local_residual__last_minus_first alt_local_residual__linear_slope alt_local_residual__diff_mean alt_local_residual__diff_std alt_local_residual__diff_abs_max alt_local_residual__lag1_autocorrelation alt_local_residual__missing_fraction alt_local_residual__stale_fraction attitude_error_mag__mean attitude_error_mag__std attitude_error_mag__min attitude_error_mag__max attitude_error_mag__median attitude_error_mag__q10 attitude_error_mag__q25 attitude_error_mag__q75 attitude_error_mag__q90 attitude_error_mag__range attitude_error_mag__first attitude_error_mag__last attitude_error_mag__last_minus_first attitude_error_mag__linear_slope attitude_error_mag__diff_mean attitude_error_mag__diff_std attitude_error_mag__diff_abs_max attitude_error_mag__lag1_autocorrelation attitude_error_mag__missing_fraction attitude_error_mag__stale_fraction control_strain__mean control_strain__std control_strain__min control_strain__max control_strain__median control_strain__q10 control_strain__q25 control_strain__q75 control_strain__q90 control_strain__range control_strain__first control_strain__last control_strain__last_minus_first control_strain__linear_slope control_strain__diff_mean control_strain__diff_std control_strain__diff_abs_max control_strain__lag1_autocorrelation control_strain__missing_fraction control_strain__stale_fraction innovation_check_flags_bit_count__mean innovation_check_flags_bit_count__std innovation_check_flags_bit_count__min innovation_check_flags_bit_count__max innovation_check_flags_bit_count__median innovation_check_flags_bit_count__q10 innovation_check_flags_bit_count__q25 innovation_check_flags_bit_count__q75 innovation_check_flags_bit_count__q90 innovation_check_flags_bit_count__range innovation_check_flags_bit_count__first innovation_check_flags_bit_count__last innovation_check_flags_bit_count__last_minus_first innovation_check_flags_bit_count__linear_slope innovation_check_flags_bit_count__diff_mean innovation_check_flags_bit_count__diff_std innovation_check_flags_bit_count__diff_abs_max innovation_check_flags_bit_count__lag1_autocorrelation innovation_check_flags_bit_count__missing_fraction innovation_check_flags_bit_count__stale_fraction gps_check_fail_flags_bit_count__mean gps_check_fail_flags_bit_count__std gps_check_fail_flags_bit_count__min gps_check_fail_flags_bit_count__max gps_check_fail_flags_bit_count__median gps_check_fail_flags_bit_count__q10 gps_check_fail_flags_bit_count__q25 gps_check_fail_flags_bit_count__q75 gps_check_fail_flags_bit_count__q90 gps_check_fail_flags_bit_count__range gps_check_fail_flags_bit_count__first gps_check_fail_flags_bit_count__last gps_check_fail_flags_bit_count__last_minus_first gps_check_fail_flags_bit_count__linear_slope gps_check_fail_flags_bit_count__diff_mean gps_check_fail_flags_bit_count__diff_std gps_check_fail_flags_bit_count__diff_abs_max gps_check_fail_flags_bit_count__lag1_autocorrelation gps_check_fail_flags_bit_count__missing_fraction gps_check_fail_flags_bit_count__stale_fraction filter_fault_flags_bit_count__mean filter_fault_flags_bit_count__std filter_fault_flags_bit_count__min filter_fault_flags_bit_count__max filter_fault_flags_bit_count__median filter_fault_flags_bit_count__q10 filter_fault_flags_bit_count__q25 filter_fault_flags_bit_count__q75 filter_fault_flags_bit_count__q90 filter_fault_flags_bit_count__range filter_fault_flags_bit_count__first filter_fault_flags_bit_count__last filter_fault_flags_bit_count__last_minus_first filter_fault_flags_bit_count__linear_slope filter_fault_flags_bit_count__diff_mean filter_fault_flags_bit_count__diff_std filter_fault_flags_bit_count__diff_abs_max filter_fault_flags_bit_count__lag1_autocorrelation filter_fault_flags_bit_count__missing_fraction filter_fault_flags_bit_count__stale_fraction timeout_flags_bit_count__mean timeout_flags_bit_count__std timeout_flags_bit_count__min timeout_flags_bit_count__max timeout_flags_bit_count__median timeout_flags_bit_count__q10 timeout_flags_bit_count__q25 timeout_flags_bit_count__q75 timeout_flags_bit_count__q90 timeout_flags_bit_count__range timeout_flags_bit_count__first timeout_flags_bit_count__last timeout_flags_bit_count__last_minus_first timeout_flags_bit_count__linear_slope timeout_flags_bit_count__diff_mean timeout_flags_bit_count__diff_std timeout_flags_bit_count__diff_abs_max timeout_flags_bit_count__lag1_autocorrelation timeout_flags_bit_count__missing_fraction timeout_flags_bit_count__stale_fraction attitude_missing__mean attitude_missing__std attitude_missing__min attitude_missing__max attitude_missing__median attitude_missing__q10 attitude_missing__q25 attitude_missing__q75 attitude_missing__q90 attitude_missing__range attitude_missing__first attitude_missing__last attitude_missing__last_minus_first attitude_missing__linear_slope attitude_missing__diff_mean attitude_missing__diff_std attitude_missing__diff_abs_max attitude_missing__lag1_autocorrelation attitude_missing__missing_fraction attitude_missing__stale_fraction battery_missing__mean battery_missing__std battery_missing__min battery_missing__max battery_missing__median battery_missing__q10 battery_missing__q25 battery_missing__q75 battery_missing__q90 battery_missing__range battery_missing__first battery_missing__last battery_missing__last_minus_first battery_missing__linear_slope battery_missing__diff_mean battery_missing__diff_std battery_missing__diff_abs_max battery_missing__lag1_autocorrelation battery_missing__missing_fraction battery_missing__stale_fraction gps_health_missing__mean gps_health_missing__std gps_health_missing__min gps_health_missing__max gps_health_missing__median gps_health_missing__q10 gps_health_missing__q25 gps_health_missing__q75 gps_health_missing__q90 gps_health_missing__range gps_health_missing__first gps_health_missing__last gps_health_missing__last_minus_first gps_health_missing__linear_slope gps_health_missing__diff_mean gps_health_missing__diff_std gps_health_missing__diff_abs_max gps_health_missing__lag1_autocorrelation gps_health_missing__missing_fraction gps_health_missing__stale_fraction
feature_infos=[-0.66232571431301746:21.630218295225529] [-0.761446237787894:162.95417978093224] [-0.31322312747934283:573.99702675182334] [-0.78399540273569035:808.15886512151462] [-0.60283211736701547:21.407094169222667] [-0.53906766830026986:81.356458378169009] [-0.56611091971740624:36.759882184736064] [-0.68102384108667613:14.501800649072747] [-0.75850910650915526:23.222965796883166] [-0.79279020912068987:888.156565848274] [-0.43469186802348708:327.85102147335294] [-0.4970984764856381:706.79874488827397] [-557.38002507003091:1251.873520444354] [-121.86798025991061:183.63663571712468] [-906.02982736494505:3116.273461138047] [-0.55036299594061766:369.874134562564] [-0.636618943901896:1799.9829776845202] [-8.3875038217909257:0.82144887033222314] [0:1] [0:1] [-2.5591411397914694:0.77394308225072994] [-0.43104881072157697:0.41359218032520317] [-3.0067901611328125:1.1693153381347656] [-2.7058296203613281:1.0005722045898438] [-2.5085105895996094:0.79195404052734375] [-2.6624931335449218:0.85511627197265616] [-2.6015996932983398:0.81819820404052734] [-2.4598636627197266:0.7328643798828125] [-2.5245040893554691:0.681396484375] [-2.1886520385742188:1.9998550415039062] [-3.5452423095703125:1.559112548828125] [-3.4887599945068359:2.0538311004638672] [-2.3002147674560547:2.7262935638427734] [-0.25882619677368296:0.21718496783906463] [-0.090925707135881703:0.49718311854771208] [-0.54885270333656822:0.20986352592543822] [-1.3250236511230469:1.2568626403808594] [-1.2044806609359193:0.51329177832350403] [-1:0] [-1:0] [-0.17419281005859374:0.051337585449218751] [0:0.086045312183133701] [-0.25758743286132812:0.017974853515625] [-0.13787078857421875:0.44141006469726562] [-0.183837890625:0.05080413818359375] [-0.19463729858398438:0.029647064208984376] [-0.19233512878417969:0.036787033081054688] [-0.15450286865234375:0.062595367431640625] [-0.14282150268554689:0.077430725097656264] [0:0.69899749755859375] [-0.19017791748046875:0.09139251708984375] [-0.20052337646484375:0.103240966796875] [-0.091236114501953125:0.15227127075195312] [-0.0098577784949246457:0.0070753039626576296] [-0.0023345947265625:0.0031075769541214922] [0:0.11740357097541447] [0:0.51688003540039062] [-1.2977247582752454:0.36142516355865006] none none [-1.2653521976841384:73.679822015771137] [-1.1340038417714424:26.262128226012759] [-0.67431644377982736:213.27419250364471] [-1.0209916877661098:18.321438229296756] [-1.1616413813974331:85.797194876996002] [-1.0183221799427267:143.06664020499369] [-1.1909610654327283:119.79110346152696] [-1.1826550868843761:53.586906554897915] [-1.1622391162511863:36.429102288231412] [-1.021159374746099:15.796845599035173] [-0.91405460551999862:54.948236068003666] [-0.88121172218194965:52.11258649083544] [-39.175684145683007:40.514130493722817] [-43.502186131398183:67.298436487244047] [-205.85392150113762:160.8806828915628] [-0.92679299553133565:13.239155816391548] [-0.85333682785818776:17.817403192955542] [-4.3227178566659905:0.73276690824817048] none none [-1.2447625984344515:401.02460817434678] [-1.0318237758450002:69.527351134110319] [-0.70478053895848269:1839.6569038958844] [-0.94343616722580437:88.903970774943176] [-1.1382369223434798:493.80420479336811] [-1.0243330485407747:1011.4858691684976] [-1.0693680725471362:747.27879983677985] [-1.1784202278872742:317.02073346633051] [-1.1399820572071804:203.05856198193925] [-0.90317322987167703:67.283644031868349] [-0.62710579578957082:310.48841007382981] [-0.68281756900785417:301.15507597503665] [-240.73233703872364:62.500539867411561] [-92.471063669960756:186.85109993673026] [-364.58777687939414:315.93659750304562] [-1.1381888173563499:92.00831585395359] [-0.89397212777112489:68.344017795915335] [-3.6903327977111937:1.2731457812037137] none none [0:2.7474747474747474] [0:0.99954075772549333] [0:2] [0:4] [0:3] [0:2] [0:2] [0:4] [0:4] [0:3] [0:3] [0:4] [-3:2] [-0.26505223662370742:0.2918066400436008] [-0.061224489795918366:0.040816326530612242] [0:1.2370108131176929] [0:3] [-0.78045802208824511:0.25201811933549456] none none [0:0.28000000000000003] [0:0.448998886412873] none [0:1] none none none none [0:1] [0:1] none none none [-0.10816230650987942:0.11437783893497495] none [0:0.20203050891044214] [0:1] none none none none none none none none none none none none none none none none none none none none none none none [0:1.25] [0:0.99215674164922152] [0:1.2] [0:1.3999999999999999] [0:1.2] [0:1.2] [0:1.2] [0:1.25] [0:1.3999999999999999] [0:3] [0:1.3999999999999999] [0:1.3999999999999999] [-1:1] [-0.99867176655049228:0.99854212849239243] [-1:1] [0:1.6035674514745464] [0:3] [-1.4428090415820671:0.055268140794283882] none none none none none none none none none none none none none none none none none none none none none none [-5.9740259740259765:23.59740259740261] [-15.749095399126773:3.8633735572737495] [0:1] [-1:0] [0:1] [0:1] [0:1] [0:1] [-1:0] [-1:0] [0:1] [0:1] [-1:1] [-56.424241639356858:119.92473794425422] [-0.020408163265306121:0.1111111111111111] [-16.007080005535538:4.9930068920314028] [-1:0] [-4.0641975773848547:11.124879809282273] none none [-1:0] [0:0.49690399499995336] [-1:0] [-1:0] [-1:0] [-1:0] [-1:0] [-1:0] [-1:0] [0:1] [-1:0] [-1:0] none [-0.23667129725046768:0.10594621755145257] none [0:0.57735026918962573] [0:1] [-0.41000000000000042:0.75672961322825516] none none
tree_sizes=3478 3473 3493 3487 3477 3481 3493 3488 3491 3485 3486 3485 3489 3485 3485 3476 3494 3495 3491 3492 3486 3487 3494 3488 3496 3474 3502 3490 3477 3497 3490 3481 3488 3474 3496 3479 3489 3483 3489 3494 3508 3476 3480 3481 3470 3487 3473 3484 3494 3476 3473 3500 3485 3484 3473 3502 3468 3485 3479 3487 3490 3489 3485 3468 3493 3511 3478 3491 3471 3491 3503 3474 3485 3493 3491 3487 3483 3481 3507 3500 3504 3496 3503 3506 3508 3498 3498 3501 3507 3494 3494 3515 3487 3493 3493 3497 3482 3486 3511 3481 3500 3498 3481 3503 3515 3506 3511 3513 3505 3517 3499 3509 3510 3493 3496 3506 3497 3497 3501 3522 3502 3499 3505 3503 3503 3507 3514 3518 3538 3496 3515 3512 3517 3501 3497 3495 3525 3512 3500 3512 3504 3546 3521 3503 3516 3508 3498 3497 3511 3497 3496 3513 3518 3517 3518 3512 3526 3501 3500 3488 3514 3492 3490 3514 3491 3505 3532 3530 3489 3486 3532 3508 3531 3505 3499 3499 3516 3534 3499 3511 3494 3531 3509 3524 3503 3505 3510 3494 3501 3515 3490 3514 3488 3494 3511 3514

Tree=0
num_leaves=31
num_cat=0
split_feature=1 48 68 201 88 170 76 19 76 48 6 77 62 97 85 100 0 217 96 64 62 235 76 213 76 97 49 60 77 97
split_gain=2365.54 1467.67 401.051 311.881 295.343 362.338 266.76 244.356 199.293 157.837 153.084 134.483 159.668 126.248 136.524 124.891 114.732 125.076 113.568 102.195 98.8822 98.4233 86.4903 85.2873 80.126 69.7241 69.4766 80.2147 67.8399 114.013
threshold=2.3020805535497666 1.0000000180025095e-35 1.2922073616908545 -0.12074302095505886 -0.19608848629646614 0.70000000000000007 -0.42424340009439365 1.0000000180025095e-35 0.031081919239997941 -0.030874633789062491 11.12892071692157 -1.2646058731964056 0.064482275252145158 0.64519337396646648 1.0450747971320029 0.30151515151515157 -0.085723472769701312 2.5954708174666377 -0.45689706499972255 0.49777881566375809 1.2359072126216721 0.22718827987409754 -0.06821044507634931 8.8734730600597024e-05 0.20799638925470568 -0.97649996023400421 0.046466827392578132 0.92190924805471675 0.36451848684283455 0.82291438313603515
decision_type=2 2 2 2 2 2 2 2 2 2 2 2 2 2 2 2 2 2 2 2 2 2 2 2 2 2 2 2 2 2
left_child=1 2 3 10 6 15 13 25 -7 -10 23 -8 18 14 21 16 17 -6 -13 -19 -15 -5 -20 -1 -25 -4 -3 -28 -27 -30
right_child=-2 26 7 4 5 8 11 -9 9 -11 -12 12 -14 20 -16 -17 -18 19 22 -21 -22 -23 -24 24 -26 28 27 -29 29 -31
leaf_value=-0.048863988431700915 0.054604519284450606 0.055074317347010279 -0.059999995136946052 -0.052372621442597148 -0.047500029741899034 -0.038605056154182131 0.050327844478857298 -0.045581902212264609 -0.054960852615615244 0.047250317470307862 0.060000004863053943 0.030182747129459196 0.039002838901722292 0.049386512734397196 0.055561663768761253 0.029175561314965487 -0.059045099046923039 -0.023040430699037551 -0.039595792856504934 0.04401978243350798 -0.059999995136946052 0.060000004863053943 -0.0020635553802952843 -0.041891107607899568 -0.0016783665193130667 0.047159234358486908 -0.053266793704222562 0.060000004863053943 -0.029206776813074663 0.037065859169719696
leaf_weight=510.64896512031555 584.94808530807495 273.5317554473877 7.8440558910369864 157.5106143951416 160.18608570098877 52.409567356109619 66.787671804428101 49.995196580886841 15.894136905670164 94.094788312911987 13.348803520202635 61.280068874359131 91.416461706161499 27.823606967926025 12.475338220596312 21.555544853210449 251.62786388397217 78.013407468795776 86.35682201385498 27.71916675567627 10.151131153106688 7.3418419361114493 153.44924855232239 106.14830446243286 76.904539346694946 112.11281776428223 11.895206451416017 10.679042816162108 36.413845539093018 65.185980319976807
leaf_count=3083 1008 466 51 974 958 294 127 295 100 191 20 168 217 54 21 60 1626 387 488 60 66 11 627 610 313 228 74 16 190 160
internal_value=5.00895e-09 -0.0120495 -0.0199654 -0.0244356 -0.0161149 -0.029744 -0.00194217 0.0143261 0.00953937 0.0324801 -0.0406296 0.0109742 0.00427789 -0.0294959 -0.0401267 -0.0415777 -0.0445245 -0.0307843 -0.00626537 -0.00545973 0.0201461 -0.047368 -0.0155793 -0.042566 -0.0249968 0.0278446 0.0508997 0.000315542 0.0310688 0.0133134
internal_weight=3235.75 2650.8 2354.7 2083.14 1376.09 701.501 674.593 271.552 162.398 109.989 707.051 459.29 392.503 215.303 177.328 539.102 517.547 265.919 301.086 105.733 37.9747 164.852 239.806 693.702 183.053 221.557 296.106 22.5742 213.713 101.6
internal_count=12943 11935 11379 10455 6429 3676 2753 924 585 291 4026 1627 1500 1126 1006 3091 3031 1405 1283 447 120 985 1115 4006 923 629 556 90 578 350
is_linear=0
shrinkage=1


Tree=1
num_leaves=31
num_cat=0
split_feature=3 43 201 0 160 97 9 75 117 95 8 75 95 97 61 160 0 15 75 95 89 95 5 85 62 68 16 44 63 217
split_gain=2262.68 1602.19 399.156 246.276 218.163 624.31 237.738 246.029 218.093 189.903 144.287 140.973 150.762 139.166 123.274 109.28 159.57 90.3786 91.7663 101.743 88.1948 118.631 91.8049 81.8297 71.7318 90.8974 70.9095 69.328 61.8982 59.9473
threshold=2.2004146503860733 1.0000000180025095e-35 0.97461127062281772 -0.077312308817471698 0.75400000000000011 -0.29517118779752111 -0.31385595004921041 -0.38663673361029399 1.0000000180025095e-35 -0.4944343349463754 -1.0000000180025095e-35 -0.27242530091861156 -0.70656088596301958 -0.8569670453517424 -0.73168402452064496 0.92176470588235293 0.27544403707388782 -0.39285548477769366 -0.036289655026307946 -0.50369227170814412 0.16409297931426914 -0.44738763366923923 4.3456420091534067 -0.66099862977624235 0.078379387032633002 -0.60114437192430115 -0.44212774256099957 -0.058750152587890618 1.2256304486510923 1.1434860980438726
decision_type=2 2 2 2 2 2 2 2 2 2 2 2 2 2 2 2 2 2 2 2 2 2 2 2 2 2 2 2 2 2
left_child=1 2 4 11 6 28 7 -1 29 23 -7 12 14 -9 -4 -12 -17 -15 19 -19 21 22 -18 -5 25 -13 -20 -2 -6 -8
right_child=27 -3 3 9 5 10 8 13 -10 -11 15 24 -14 17 -16 16 20 18 26 -21 -22 -23 -24 -25 -26 -27 -28 -29 -30 -31
leaf_value=-0.049094962760129576 -0.060558379303344803 0.048571687877677849 -0.048449315119234601 -0.059048872878760469 -0.053009646936949935 -0.053470309285365107 -0.057310770273415849 0.043252902470137175 0.015326964468925681 -0.05161223686136187 0.053189971565395767 0.049856018108599014 -0.044091888513815 -0.045842370358878066 0.053136456628192448 -0.04433999702536523 0.04157441917916143 0.038509874996640034 -0.035954748985132089 -0.044928936558602084 0.03710237590096787 -0.034925886251216454 -0.05925382998656905 0.041802348084172776 0.044973815427486623 -0.00092450193352940839 0.020609046281486892 0.052522507500788608 0.043719412058249446 -0.028769152259151099
leaf_weight=179.76305036246777 4.9186110347509375 339.74698925018311 15.01329258084297 9.0694385021924955 240.52469645440578 28.545012459158897 498.50188282132149 45.506827890872955 44.627139791846275 110.88220021128654 60.759380608797073 44.07722344994545 64.271749794483185 60.326855733990669 37.869071453809738 43.000864282250404 55.158011510968208 16.2650266289711 24.195962220430374 68.732740744948387 115.59290267527103 49.67087322473526 9.5317061096429807 35.913833945989609 108.98599557578564 113.2043264657259 113.57742235064507 613.18731491267681 6.1050905138254157 76.377327039837837
leaf_count=1096 32 651 91 59 1508 179 3213 99 150 688 108 83 378 359 66 253 125 39 134 407 281 273 62 80 228 459 358 1071 13 400
internal_value=1.15978e-08 -0.0121983 -0.0212694 0.00127616 -0.0282701 -0.013799 -0.0360825 -0.0208779 -0.0485594 -0.0305208 0.0112659 0.014202 -0.0132221 -0.00544175 0.0242963 0.0168033 0.0087036 -0.0132692 -0.00444834 -0.0289622 0.0186227 -5.62e-05 0.0267179 0.0214689 0.0262682 0.0133064 0.0106752 0.0516227 -0.0506152 -0.0535188
internal_weight=3233.9 2615.8 2276.05 539.287 1736.76 608.889 1127.87 508.368 619.506 155.865 362.259 383.422 117.154 328.605 52.8824 333.714 272.954 283.098 222.771 84.9978 229.953 114.361 64.6897 44.9833 266.268 157.282 137.773 618.106 246.63 574.879
internal_count=12943 11840 11189 2132 9057 2802 6255 2492 3763 827 1281 1305 535 1396 157 1102 994 1297 938 446 741 460 187 139 770 542 492 1103 1521 3613
is_linear=0
shrinkage=0.03


Tree=2
num_leaves=31
num_cat=0
split_feature=3 43 201 6 160 17 9 75 117 237 97 97 69 76 16 64 88 75 15 95 56 173 3 4 44 8 173 160 17 67
split_gain=2133.2 1509.91 376.162 248.535 205.614 801.24 224.418 231.966 205.77 156.295 131.63 130.547 123.928 115.802 118.518 97.6779 116.76 100.171 99.6403 92.148 84.6512 75.8219 79.0709 66.5345 65.3598 57.163 52.0195 51.8489 171.543 49.4807
threshold=2.2004146503860733 1.0000000180025095e-35 0.97461127062281772 -0.093168005452464439 0.75400000000000011 -1.0000000180025095e-35 -0.31385595004921041 -0.38663673361029399 1.0000000180025095e-35 -0.0038940092165904573 -0.80821909972517669 -0.33471971817709029 -0.68191472184821944 0.52409921581920005 -0.44212774256099957 0.33530766638678761 -0.48121780549965204 -0.022584040264897052 -0.38133207348695619 -0.50369227170814412 0.035545349121093757 0.014226783071866691 0.75263287953712588 -1.0000000180025095e-35 -0.058750152587890618 -0.21228356796088826 6.1496579869281212e-17 0.92176470588235293 0.066270261875578787 -0.17858775962848805
decision_type=2 2 2 2 2 2 2 2 2 2 2 2 2 2 2 2 2 2 2 2 2 2 2 2 2 2 2 2 2 2
left_child=1 2 4 12 6 20 7 29 -8 -5 -9 -7 -4 19 -15 16 -14 -18 -19 -12 21 -6 -23 -13 -2 -11 -3 -25 -29 -1
right_child=24 26 3 9 5 11 8 10 -10 25 13 23 15 14 -16 -17 17 18 -20 -21 -22 22 -24 27 -26 -27 -28 28 -30 -31
leaf_value=-0.055176971109750471 -0.058764667649684195 0.049342328838691975 -0.050834178571360716 0.040096277081503817 -0.054463328350681163 -0.053584003469325403 -0.052010760919253329 0.039039279967837084 0.014868147462044259 0.0051727797049006645 0.028371351313362696 -0.04315368790423782 0.035808086747099642 -0.035906471730798306 0.02616915567843086 0.045606700400075924 -0.037024061150000787 -0.047254068305359838 0.028227726013609258 -0.041057739162626679 0.051861518245024496 -0.037232987137026503 0.048924468024652203 0.056160942626329237 0.051054456003186567 -0.048703871444244359 -0.017231532210782923 -0.051342835091607024 0.034658963826440958 -0.014530025993042355
leaf_weight=146.45409946143627 4.9166891723871222 328.22710590064526 24.045728713274002 25.157296642661095 266.75931417942047 18.625554859638214 573.81602753698826 50.949198305606842 44.62419094145298 20.702061727643013 19.895705655217171 11.155396506190298 96.07154755294323 39.891006827354431 90.43761345744133 94.462267979979515 59.057844743132591 19.839118465781212 76.1694276034832 127.19754473865032 7.7955934703350058 34.853309780359268 13.224284172058104 59.73730856180191 611.91221399605274 123.19779200851917 10.914600029587744 23.752755150198936 172.21382808685303 33.033601388335228
leaf_count=941 32 600 150 57 1705 118 3613 118 150 78 56 66 235 223 261 191 331 119 215 738 14 197 26 95 1071 756 51 148 433 155
internal_value=-1.98049e-08 -0.0118487 -0.0206586 0.00123917 -0.0274599 -0.0134025 -0.0350499 -0.0202724 -0.047185 -0.0288921 -0.00528251 0.0232051 0.0150197 -0.0134223 0.00716904 0.0196016 0.00982005 -0.00628086 0.0126302 -0.0316668 -0.0457952 -0.0482132 -0.0135344 0.0285646 0.0501791 -0.0409529 0.0471998 0.0316934 0.0242348 -0.0476962
internal_weight=3229.09 2612.26 2273.12 538.703 1734.42 608.117 1126.3 507.859 618.44 169.057 328.371 285.485 369.646 277.422 130.329 345.6 251.138 155.066 96.0085 147.093 322.633 314.837 48.0776 266.859 616.829 143.9 339.142 255.704 195.967 179.488
internal_count=12943 11840 11189 2132 9057 2802 6255 2492 3763 891 1396 860 1241 1278 484 1091 900 665 334 794 1942 1928 223 742 1103 834 651 676 581 1096
is_linear=0
shrinkage=0.03


Tree=3
num_leaves=31
num_cat=0
split_feature=1 43 201 164 17 6 9 75 117 95 97 97 61 76 16 63 66 84 95 76 95 65 173 89 0 15 117 217 0 175
split_gain=1988.34 1407.69 335.737 234.863 763.884 234.756 213.149 219.09 195.71 139.462 134.354 124.017 115.85 109.15 111.624 102.967 94.2236 95.0398 86.8678 73.3242 84.4517 71.2311 68.8137 63.9282 63.9044 57.6926 59.447 57.0478 91.764 55.2756
threshold=2.3020805535497666 1.0000000180025095e-35 0.97461127062281772 0.70000000000000007 -1.0000000180025095e-35 -0.093168005452464439 -0.31385595004921041 -0.38663673361029399 1.0000000180025095e-35 -0.67770914388078052 -0.33471971817709029 -0.80821909972517669 -0.81108182688918518 0.52409921581920005 -0.44212774256099957 1.2256304486510923 0.32740565088594681 -0.53499909160816495 -0.50369227170814412 1.6721280191231209 -0.69611043664558758 -0.44231059219805829 6.4183893125470325e-17 -0.52477257896259888 3.0699808168262965 -0.27361986757790041 -1.0000000180025095e-35 1.1434860980438726 -0.085723472769701312 0.074790811297863038
decision_type=2 2 2 2 2 2 2 2 2 2 2 2 2 2 2 2 2 2 2 2 2 2 2 2 2 2 2 2 2 2
left_child=1 2 3 6 15 12 7 -1 27 -7 -6 -9 -4 18 -15 24 17 -14 -13 20 -19 -22 -3 -12 -5 -11 -27 -8 -29 -25
right_child=-2 22 5 4 10 9 8 11 -10 25 23 13 16 14 -16 -17 -18 19 -20 -21 21 -23 -24 29 -26 26 -28 28 -30 -31
leaf_value=-0.046396506196052255 0.050226689020614654 0.04785215077400902 -0.05252201326706718 -0.048445444315163719 -0.052641109969068081 0.028182706857998747 -0.054348540092607638 0.037919723179144577 0.014690835541705236 0.028870605712232253 -0.03183038438795003 0.02752764795416985 0.037568510850185415 -0.034884885719759763 0.025395131336279471 0.030644203105201957 0.044070200266920094 0.054648577914442033 -0.039898939980144141 0.040963400329995008 0.00070025622624894624 -0.043539239745342587 -0.030121047003357139 0.039214232919442121 0.055058461013432411 0.058432756420057824 -0.050731091178475317 0.014264470946491652 -0.053043295650578644 0.0065569947502824638
leaf_weight=178.98803532123566 581.33242489397526 334.11910849809647 21.784149616956711 308.19398279488087 19.651075631380081 32.080130010843277 497.39881105720997 50.880798071622849 44.462798312306404 9.7860544919967634 14.976484194397925 19.890392407774925 74.46598681807518 39.82832159101963 90.398780554533005 16.321595504879951 96.054819107055664 15.608163475990294 126.96830189228058 28.800821781158447 73.068895861506462 59.371913492679596 10.506874978542326 207.22548002004623 5.4637616723775855 4.6607162952423087 122.3404838591814 30.105680987238884 46.213773772120476 60.196448147296906
leaf_count=1096 1008 615 139 1914 125 89 3223 118 149 27 81 56 175 223 261 43 196 25 738 64 292 350 55 473 9 7 769 106 295 222
internal_value=-1.07028e-07 -0.0110609 -0.0195499 -0.0258989 -0.0112651 0.00118581 -0.0341192 -0.0197002 -0.0459438 -0.0281137 0.0232072 -0.0051307 0.0145887 -0.013036 0.00695925 -0.0428197 0.0187973 0.00913782 -0.0307668 -0.00283346 -0.0113535 -0.0191319 0.0454749 0.0284852 -0.0466425 -0.0413167 -0.046725 -0.050643 -0.0264924 0.0318631
internal_weight=3221.15 2639.81 2295.19 1757.16 632.029 538.022 1125.14 506.955 618.181 168.867 302.049 327.967 369.155 277.086 130.227 329.979 347.371 251.316 146.859 176.85 148.049 132.441 344.626 282.398 313.658 136.787 127.001 573.718 76.3195 267.422
internal_count=12943 11935 11265 9132 2867 2133 6265 2492 3773 892 901 1396 1241 1278 484 1966 1102 906 794 731 667 642 670 776 1923 803 776 3624 401 695
is_linear=0
shrinkage=0.03


Tree=4
num_leaves=31
num_cat=0
split_feature=3 56 201 6 160 77 9 75 100 48 77 237 8 69 76 160 0 95 64 77 95 61 75 160 18 62 15 76 44 69
split_gain=1903.48 1166.25 334.073 219.428 191.871 586.157 201.586 206.752 186.316 149.283 148.455 141.196 137.418 110.669 98.1018 96.7158 125.559 89.1568 88.0778 113.932 116.868 121.977 71.3039 122.354 69.9021 189.115 65.624 61.5729 60.6284 57.0662
threshold=2.2004146503860733 0.00024032592773437503 0.97461127062281772 -0.093168005452464439 0.75400000000000011 -0.58861211383430689 -0.31385595004921041 -0.38663673361029399 0.36181818181818187 -0.035700798034667962 -0.99280599291796967 -0.0038940092165904573 -1.0000000180025095e-35 -0.68191472184821944 0.5320374648673637 0.92176470588235293 0.2167691846234627 -0.50369227170814412 0.33530766638678761 -0.65338626168101499 -0.71845854595498493 1.1091195560683964 -0.45708220404819794 1.1094905094905096 0.021507863089731735 143.41949101652136 -0.36407719973049324 -0.19500681293297875 -0.058750152587890618 1.194645571912089
decision_type=2 2 2 2 2 2 2 2 2 2 2 2 2 2 2 2 2 2 2 2 2 2 2 2 2 2 2 2 2 2
left_child=1 2 4 13 6 29 7 -1 -8 -3 -9 -5 -7 -4 17 -14 -17 -12 19 -15 -21 -22 -18 27 -11 -26 -16 -24 -2 -6
right_child=28 9 3 11 5 12 8 10 -10 24 14 -13 15 18 26 16 22 -19 -20 20 21 -23 23 -25 25 -27 -28 -29 -30 -31
leaf_value=-0.045155649013648547 -0.057501864595188107 -0.050883886670834141 -0.04826712132909998 0.038433750344223153 -0.049910710514770654 -0.049968141301600433 -0.0485246846710502 0.043445394896251273 0.027014114794022628 0.047906074025951803 0.029037313792593125 -0.03877253889183898 0.053973101599589561 0.043568834160331221 -0.023857274739025762 -0.044178418327221865 0.048386537629334779 -0.038579948136791366 0.043270585204093805 0.04929711123118196 -0.026258908028402351 0.042661219846205453 -0.013600820811807673 -0.033573456108807152 -0.059754074632685936 0.054541286000911814 0.021722229400341568 0.037752717674935876 0.048444337138965503 0.056288746874485422
leaf_weight=178.03083157539368 4.9004895836114875 16.227943390607834 23.886504128575325 25.067883297801018 233.1216716170311 27.910612940788269 583.11761692166328 48.519219517707825 30.946315377950668 298.71240936219692 20.234924957156181 142.53643353283405 59.298313170671463 64.518946662545204 43.201467767357826 31.955631822347641 56.810167267918587 132.2764405310154 94.004102051258087 32.178629651665688 125.5329145938158 28.326727077364922 27.650013953447342 43.610666215419769 20.987445741891861 34.359237194061279 83.141754984855652 87.54355576634407 607.14485569298267 4.6445589661598197
leaf_count=1094 32 103 150 57 1484 176 3675 100 88 538 55 830 94 134 222 192 107 768 191 57 648 61 127 238 137 52 251 204 1071 7
internal_value=-2.60374e-07 -0.0112116 -0.0194052 0.0012332 -0.0259437 -0.0118175 -0.0331685 -0.0191361 -0.0447178 0.0380902 -0.00498622 -0.0272251 0.0137636 0.0141787 -0.0134131 0.0195602 0.0113175 -0.0296086 0.0185077 0.00921715 -0.00269617 -0.0135702 0.0195424 0.00922383 0.0421682 0.0112005 0.00613689 0.0254263 0.0475961 -0.0478362
internal_weight=3210.4 2598.35 2228.07 536.052 1692.01 572.545 1119.47 505.405 614.064 370.287 327.374 167.604 334.779 368.448 278.855 306.868 247.57 152.511 344.561 250.557 186.038 153.86 215.614 158.804 354.059 55.3467 126.343 115.194 612.045 237.766
internal_count=12943 11840 11010 2128 8882 2629 6253 2490 3763 830 1396 887 1138 1241 1296 962 868 823 1091 900 766 709 676 569 727 189 473 331 1103 1491
is_linear=0
shrinkage=0.03


Tree=5
num_leaves=31
num_cat=0
split_feature=1 43 201 163 17 6 9 75 117 77 97 89 69 76 4 16 66 77 97 85 221 63 173 7 76 217 7 89 86 86
split_gain=1780.8 1256.93 300.189 209.368 686.437 209.037 192.061 196.11 178.731 140.07 121.004 108.146 104.53 92.6035 92.5184 90.4409 84.1312 98.7213 96.8673 85.8701 82.2409 71.7774 62.3493 59.4993 59.4174 54.9568 100.302 54.3685 51.9993 50.4764
threshold=2.3020805535497666 1.0000000180025095e-35 0.97461127062281772 0.70000000000000007 -1.0000000180025095e-35 -0.093168005452464439 -0.31385595004921041 -0.38663673361029399 1.0000000180025095e-35 -0.99280599291796967 -0.33471971817709029 -0.28005106255333528 -0.68191472184821944 0.5320374648673637 3.4225891156518009 -0.44212774256099957 0.32740565088594681 -0.65338626168101499 0.52130278510976613 -0.58525852200484618 0.10341260271197407 1.2256304486510923 6.4183893125470325e-17 -1.0000000180025095e-35 1.6721280191231209 1.1434860980438726 -0.13131952933644078 -0.51619520816046227 0.36925750455865264 -0.095234189910268954
decision_type=2 2 2 2 2 2 2 2 2 2 2 2 2 2 2 2 2 2 2 2 2 2 2 2 2 2 2 2 2 2
left_child=1 2 3 6 14 12 7 -1 25 -9 -6 20 -4 27 21 28 17 -14 19 -19 -7 -5 -3 -12 -21 -8 -27 -11 -15 -18
right_child=-2 22 5 4 10 11 8 9 -10 13 23 -13 16 15 -16 -17 29 18 -20 24 -22 -23 -24 -25 -26 26 -28 -29 -30 -31
leaf_value=-0.044020553093453499 0.047787584669994651 0.045464809284868193 -0.047057540808337329 -0.046597394224588723 -0.05027800470503227 -0.025270607414407717 -0.051834224380675066 0.042271352321211854 0.014308151361420053 0.034075902689203179 -0.046729773774071899 -0.044387667539445924 0.041979036703283124 -0.045919862264922937 0.049748818526920535 0.022676158599148795 -0.060499246641815066 0.039484868654940435 0.027356343814941991 -0.03750664731287745 0.045990112227181121 0.023859783690993494 -0.028813172661390034 0.029614493844518794 0.032153544066044565 0.020814661759804245 -0.050719885493451952 -0.033918986807274017 0.059579425942995062 0.046580501315102461
leaf_weight=177.52010105550289 575.48628489673138 331.03009615838528 23.767241448163986 303.77419067919254 19.483129873871803 33.202487871050835 492.28226464986801 48.372929081320763 44.428788512945175 11.444978117942808 9.5091743022203428 108.67496313154697 60.895356610417366 33.348272696137428 9.8566616624593717 88.056485831737518 4.1417400240898123 19.708325058221817 65.732679754495621 89.402304992079735 25.981434553861618 13.595468312501906 10.493163153529165 271.67603099346161 12.569517299532889 27.908097445964813 47.950875923037529 140.64080218970776 4.811409816145896 91.304850205779076
leaf_count=1096 1008 615 150 1909 125 174 3223 100 149 28 59 668 128 205 18 260 27 45 180 510 50 39 55 717 32 92 309 795 8 169
internal_value=-1.90102e-07 -0.0104906 -0.0185302 -0.0245603 -0.0107004 0.00112019 -0.0323529 -0.0186397 -0.04364 -0.00484736 0.022023 -0.0266175 0.0137889 -0.0130373 -0.0407679 0.00595879 0.0179958 0.00879427 -0.00198834 -0.0178406 0.00601248 -0.0435792 0.0431826 0.0270327 -0.02892 -0.0481715 -0.0244027 -0.0288021 -0.0326179 0.041934
internal_weight=3197.05 2621.56 2280.04 1744.66 627.895 535.381 1116.77 504.195 612.57 326.675 300.668 167.859 367.522 278.302 327.226 126.216 343.755 248.308 187.413 121.68 59.1839 317.37 341.523 281.185 101.972 568.141 75.859 152.086 38.1597 95.4466
internal_count=12943 11935 11265 9132 2867 2133 6265 2492 3773 1396 901 892 1241 1296 1966 473 1091 895 767 587 224 1948 670 776 542 3624 401 823 213 196
is_linear=0
shrinkage=0.03


Tree=6
num_leaves=31
num_cat=0
split_feature=9 56 201 6 163 17 9 75 117 163 68 77 237 0 69 76 16 66 77 97 85 89 4 87 161 76 8 68 42 171
split_gain=1660.97 919.755 295.484 191.169 176.395 724.545 177.878 184.457 176.006 156.443 237.828 132.725 130.391 104.199 99.567 85.3793 84.2932 81.0903 92.5169 90.7526 80.9934 78.5936 67.9453 61.7122 56.1626 56.0563 52.6875 51.3882 49.1848 103.388
threshold=1.7892313523595182 0.00024032592773437503 0.93843881854442412 -0.093168005452464439 0.70000000000000007 -0.027482030435750416 -0.31385595004921041 -0.38663673361029399 1.0000000180025095e-35 1.0000000180025095e-35 0.78979010265095562 -0.99280599291796967 -0.0038940092165904573 2.4240178176485183 -0.68191472184821944 0.5320374648673637 -0.44212774256099957 0.32740565088594681 -0.65338626168101499 0.52130278510976613 -0.58525852200484618 -0.52477257896259888 3.4225891156518009 -0.30850293890607411 0.29978879739388919 1.6721280191231209 -0.21228356796088826 -0.48471942398722823 -1.0000000180025095e-35 0.90000000000000013
decision_type=2 2 2 2 2 2 2 2 2 2 2 2 2 2 2 2 2 2 2 2 2 2 2 2 2 2 2 2 2 2
left_child=1 2 4 14 6 22 7 -1 -8 -3 -11 -9 -5 28 -4 23 -17 18 -16 20 -20 -7 -6 27 -23 -22 -14 -13 -2 -30
right_child=13 9 3 12 5 21 8 11 -10 10 -12 15 26 -15 17 16 -18 -19 19 -21 25 24 -24 -25 -26 -27 -28 -29 29 -31
leaf_value=-0.042912200489949315 0.034315199773181822 0.047934211419665404 -0.045964945290767577 0.036778750629426864 -0.046153760383134235 -0.035800306603659918 -0.047036967956117198 0.041163046233940272 0.01575396583977471 -0.054384944624628083 0.049910300193566619 -0.046632253387666092 0.0075593267165231523 0.048862678101918959 0.040602149173552267 -0.03175025028781632 0.021765470627831251 0.040982041246604532 0.038365022881952385 0.026403496992786178 -0.036477663715107071 0.035154927476284709 0.047078370945668989 -0.04371034593366098 -0.00071294702888968222 0.031250189882267014 -0.044303608019105226 0.013388125431197459 -0.057527480194854812 0.026331048752792265
leaf_weight=176.10715916752815 96.033676162362099 244.7133130133152 23.775983318686485 25.711544021964073 282.61655662953854 18.387978658080101 550.87561005353928 48.187840774655342 43.337728813290596 38.208606645464897 40.573713481426239 18.358574226498604 20.662126526236534 505.99498869478703 60.847090423107147 38.029653206467628 87.29306173324585 95.642460346221924 19.675555154681206 65.764648616313934 89.204518258571625 208.67888502776623 7.2147000133991233 90.269642099738121 48.402833819389343 12.545238122344015 120.10678924620152 42.696078330278397 19.313177824020386 42.020764991641045
leaf_count=1093 223 420 151 59 1794 104 3538 100 142 248 68 114 78 845 129 213 259 197 45 181 510 496 14 554 193 32 747 153 128 115
internal_value=-4.1304e-07 -0.0111269 -0.0180887 0.00132467 -0.0243312 -0.0107215 -0.0313563 -0.0181883 -0.0424574 0.036097 -0.00067181 -0.00478433 -0.0253443 0.042232 0.0134074 -0.0127877 0.00552592 0.0175148 0.00846592 -0.00198014 -0.0173529 0.0241162 -0.043833 -0.0279545 0.0284018 -0.0281272 -0.0366911 -0.00465945 0.0209117 -7.47978e-05
internal_weight=3181.25 2517.89 2194.39 533.936 1660.46 565.301 1095.16 500.942 594.213 323.496 78.7823 324.835 166.48 663.363 367.455 276.647 125.323 343.68 248.037 187.19 121.425 275.47 289.831 151.324 257.082 101.75 140.769 61.0547 157.368 61.3339
internal_count=12943 11632 10896 2129 8767 2601 6166 2486 3680 736 316 1393 884 1311 1245 1293 472 1094 897 768 587 793 1808 821 689 542 825 267 466 243
is_linear=0
shrinkage=0.03


Tree=7
num_leaves=31
num_cat=0
split_feature=3 48 68 201 88 160 76 76 18 69 95 75 49 107 62 77 95 82 2 217 64 100 200 217 160 95 4 15 75 2
split_gain=1618.7 985.679 280.76 236.441 309.272 204.198 172.738 147.573 118.651 116.394 111.09 122.74 96.169 94.9834 91.6484 138.825 103.269 74.2745 71.7513 90.0746 74.7333 74.2015 64.9248 63.3115 57.3627 104.826 112.439 79.5649 53.427 50.6236
threshold=2.2787377822798609 1.0000000180025095e-35 1.0787501712908509 -1.0000000180025095e-35 -0.19608848629646614 0.75400000000000011 -0.42424340009439365 0.031081919239997941 1.0000000180025095e-35 0.40683733028148078 -0.75447104170409396 -0.80211135650268095 0.065658569335937514 0.87500000000000011 0.064482275252145158 -1.2646058731964056 -0.6224828749296788 -0.21207031022097872 -0.20059611600671495 2.5954708174666377 0.30220461311831875 1.4400000000000002 0.38743351381162788 0.83881385423202126 0.77688888888888907 -0.24240691512814747 -0.056307802106983947 -0.38789637783323511 -0.15784148284546595 -0.26560448027177164
decision_type=2 2 2 2 2 2 2 2 2 2 2 2 2 2 2 2 2 2 2 2 2 2 2 2 2 2 2 2 2 2
left_child=1 2 3 12 6 18 10 -7 9 -4 11 -5 23 -10 15 -8 -17 -13 19 -6 29 -20 -9 -1 25 -18 27 -27 -29 -21
right_child=-2 -3 8 4 5 7 14 22 13 -11 -12 17 -14 -15 -16 16 24 -19 21 20 -22 -23 -24 -25 -26 26 -28 28 -30 -31
leaf_value=-0.037955016178804264 0.044902884132643699 0.042357476076332577 -0.052395336783321506 -0.051632783894547306 -0.039796198727349012 -0.03422229012896387 0.044527087252361888 0.046699286590786503 -0.041106501139596706 0.023713535465568272 -0.043042228548129766 -0.015930691727462705 0.035028689295061199 0.035729285850912257 0.039325451983559322 0.031704367099415383 -0.044982662371466774 0.051026608770740278 -0.049337417672645906 -0.055367788715263412 0.039405349775915373 0.057479949129262943 -0.028222435902248197 0.023182472025628575 0.023259168373681964 -0.045561834647933924 -0.052380693326202384 -0.032234718524124628 0.040214053914643166 0.012010767755721624
leaf_weight=686.31662601232529 588.18105874955654 284.99935947358608 19.541924893856049 26.624660134315491 111.59789112210274 48.786595597863197 65.04682719707489 58.866941258311272 62.792832553386688 242.45524409413338 105.76678133010864 24.268902152776718 17.286446928977966 18.819539621472359 86.60757651925087 58.390187993645668 82.275819599628448 38.665669530630112 281.86038891971111 20.993002951145172 30.002697557210922 5.9770160913467398 12.645917043089865 15.590692207217215 33.699906378984451 15.483966931700705 28.590377748012543 10.769842103123663 61.323814108967781 19.227666854858398
leaf_count=4128 1065 550 130 178 678 274 124 108 381 710 657 118 41 46 194 154 510 71 1844 138 65 9 67 49 98 95 190 61 141 69
internal_value=-5.15307e-07 -0.0102562 -0.0168034 -0.0212164 -0.0132134 -0.0288672 0.0012727 0.00600632 0.00819762 0.0180367 -0.0222233 0.00236327 -0.0348755 -0.0233884 0.0116515 0.00491104 -0.00395849 0.0252065 -0.0377998 -0.0230463 0.00357245 -0.0471193 0.0334506 -0.036597 -0.0129286 -0.0190741 -0.000724342 0.0161393 0.0293912 -0.0231572
internal_weight=3163.46 2575.28 2290.28 1946.67 1227.47 589.958 637.514 120.299 343.61 261.997 195.326 89.5592 719.194 81.6124 442.188 355.581 290.534 62.9346 469.659 181.821 70.2234 287.837 71.5129 701.907 232.144 198.444 116.168 87.5776 72.0937 40.2207
internal_count=12943 11878 11328 10061 5843 3252 2591 449 1267 840 1024 367 4218 427 1567 1373 1249 189 2803 950 272 1853 175 4177 1095 997 487 297 202 207
is_linear=0
shrinkage=0.03


Tree=8
num_leaves=31
num_cat=0
split_feature=3 48 68 201 68 76 95 95 87 18 69 60 76 160 76 49 107 217 235 81 62 160 15 15 84 103 217 17 49 60
split_gain=1534.92 933.304 265.735 223.658 200.293 130.556 132.693 122.783 119.401 111.95 110.04 107.193 118.968 102.521 107.197 90.9633 89.7421 81.3989 75.6294 70.8081 67.0584 97.8286 172.758 85.4111 66.8571 62.823 59.9655 56.5043 51.0667 74.5294
threshold=2.2787377822798609 1.0000000180025095e-35 1.0787501712908509 -1.0000000180025095e-35 -0.055221805191861824 -0.42424340009439365 -0.63296095816845444 -0.75447104170409396 -0.65572165219855982 1.0000000180025095e-35 0.40683733028148078 -0.79043361667151768 -0.06821044507634931 0.75400000000000011 -0.14636457258449179 0.065658569335937514 0.87500000000000011 5.4457185994525883 0.22718827987409754 0.035103272296240572 0.39059509849838658 0.77688888888888907 -0.17036730949105169 -0.39125551311499279 -0.71010493427718069 2.5000000000000004 0.83881385423202126 -1.0000000180025095e-35 0.046466827392578132 0.92190924805471675
decision_type=2 2 2 2 2 2 2 2 2 2 2 2 2 2 2 2 2 2 2 2 2 2 2 2 2 2 2 2 2 2
left_child=1 2 3 15 5 7 -7 8 18 10 -4 24 -13 17 -15 26 -11 25 -5 -19 21 22 23 -14 -8 -6 -1 -16 -3 -30
right_child=-2 28 9 4 13 6 11 -9 -10 16 -12 12 20 14 27 -17 -18 19 -20 -21 -22 -23 -24 -25 -26 -27 -28 -29 29 -31
leaf_value=-0.037013547859357565 0.04391641873706266 0.045230807824202433 -0.051255092161591936 -0.037267552560053145 -0.042381088902145189 0.038345196520906857 -0.054169331222952505 -0.042937194520374297 0.051078283021495523 -0.040058234967461477 0.023037321129017182 -0.030406505932029718 -0.049060040830005716 -0.0555042714217849 -0.033542408316199188 0.034102118982054279 0.034709055070844798 0.042425808861014221 0.053965557986911772 -0.043976441696554604 0.044918692015894213 0.038888868972914679 -0.049436628069440748 0.023826480437205672 0.037035333441181928 0.055954457639301701 0.022476285256456775 0.035829399413878839 -0.056473476472105766 0.050411538691454975
leaf_weight=682.71466079354286 583.42280307412148 259.40166215598583 19.379787102341652 48.702554732561111 319.57719744741917 85.434395506978035 7.9896293580532065 124.16788075864315 30.730047762393951 62.507219150662422 242.0903368294239 145.20413011312485 17.301555916666985 22.452606245875359 13.463480874896048 17.224374890327454 18.791932478547096 21.012925252318382 9.827836871147154 14.377022892236708 31.205696493387222 42.107116103172302 67.867564335465431 88.407774910330772 76.44674015045166 5.9560669064521781 15.597999215126036 49.120874285697937 11.299177378416063 12.222391724586485
leaf_count=4128 1065 460 130 293 2005 194 53 781 56 381 710 818 111 148 76 41 46 43 15 89 60 91 448 270 171 9 49 112 71 19
internal_value=-5.02119e-07 -0.00999906 -0.0163772 -0.020686 -0.0128831 -0.00366969 0.0039166 -0.0236447 0.00319265 0.00797073 0.0175309 -0.00225591 -0.00885871 -0.0289025 0.000730956 -0.0340048 -0.0227761 -0.0358844 -0.0219486 0.00732525 0.00381427 -0.00213282 -0.0120841 0.0118971 0.0284053 -0.0405819 -0.0356847 0.0209058 0.0413928 -0.000933367
internal_weight=3146.01 2562.58 2279.66 1936.89 1221.35 775.393 561.965 213.428 89.2604 342.769 261.47 476.53 392.094 445.96 85.037 715.537 81.2992 360.923 58.5304 35.3899 246.89 215.684 173.577 105.709 84.4364 325.533 698.313 62.5844 282.923 23.5216
internal_count=12943 11878 11328 10061 5843 3361 2216 1145 364 1267 840 2022 1798 2482 336 4218 427 2146 308 132 980 920 829 381 224 2014 4177 188 550 90
is_linear=0
shrinkage=0.03


Tree=9
num_leaves=31
num_cat=0
split_feature=1 43 201 163 17 2 8 100 75 77 96 76 76 40 4 49 89 221 87 69 96 215 173 85 60 7 82 75 89 87
split_gain=1447.15 1015.76 249.386 177.44 580.811 175.274 140.677 156.161 143.927 138.074 97.0505 96.8306 95.1942 93.6718 79.9514 75.707 69.3692 65.785 58.5518 56.4905 65.373 55.6884 54.9267 54.6233 53.2261 53.0907 53.392 52.1552 104.261 51.1059
threshold=2.3020805535497666 1.0000000180025095e-35 0.97461127062281772 0.70000000000000007 -0.027482030435750416 -0.062065761281894172 -0.22765618847524524 0.36181818181818187 -0.38663673361029399 -0.99280599291796967 -0.14460889556004705 0.5320374648673637 1.605174393820598 -1.0000000180025095e-35 3.4225891156518009 0.065658569335937514 -0.52477257896259888 0.10341260271197407 -0.30850293890607411 -0.69755349542616341 0.17756927444262535 -0.54153302399584324 6.4183893125470325e-17 0.33388314745588454 -0.60650551464759805 -0.18000496238115068 -0.46972341624022279 -0.24866430284432059 -0.38090493909357998 -0.28809912338682697
decision_type=2 2 2 2 2 2 2 2 2 2 2 2 2 2 2 2 2 2 2 2 2 2 2 2 2 2 2 2 2 2
left_child=1 2 3 6 14 12 8 -8 -1 -10 17 18 19 -6 15 -5 -15 -7 24 -4 27 -13 -3 25 -11 26 -23 28 -21 -22
right_child=-2 22 5 4 13 10 7 -9 9 11 -12 21 -14 16 -16 -17 -18 -19 -20 20 29 23 -24 -25 -26 -27 -28 -29 -30 -31
leaf_value=-0.040429375416089271 0.043791965688486673 0.041626947440546194 -0.050086102469181 -0.043031401671353373 -0.05270361912000545 -0.013585348130025588 -0.044941844175656893 0.024748142750680185 0.03912476497302516 -0.045996278600284254 -0.039637475304557364 0.046765165241322779 0.048736034860383713 -0.033512093257900145 0.046949386442540646 0.049516268824196664 0.027956189468995574 0.041692910802749297 -0.043167585012559448 0.02766744122164571 0.024122020792254232 0.018276074279169795 -0.028315174085110219 0.034170726818209478 0.010976650201001055 0.043451219440958193 -0.036051176133747247 0.035622357173755594 -0.042825281446127086 -0.032206413949816305
leaf_weight=192.27002285420895 557.96883521974087 321.86335884034634 14.612765505909918 298.28731578588486 15.01335673034191 70.945353776216507 491.98636408150196 30.746825367212296 47.767449498176575 22.026740074157715 109.41047117114067 21.817091688513756 61.506740882992744 17.607393771409988 9.6928258240222913 8.1731073260307294 268.46711899340153 26.655772149562836 114.63206739723682 53.804238423705101 21.134887263178825 21.420145869255066 10.432836592197416 25.466167718172073 44.722638919949532 12.305758416652678 67.861382648348808 93.367484048008919 29.094128713011742 46.151367262005806
leaf_count=1213 1008 615 99 1918 100 339 3233 88 101 140 671 43 105 100 18 14 717 54 728 149 62 71 55 64 168 27 389 219 180 255
internal_value=-2.65696e-07 -0.00951073 -0.016781 -0.0223397 -0.00948081 0.00126938 -0.0296012 -0.0408427 -0.0192971 -0.00854869 -0.0202366 -0.0154442 0.0151961 0.0203396 -0.0378802 -0.0405632 0.0241729 0.00151166 -0.0301609 0.0072054 0.0106428 0.00248653 0.039431 -0.00511681 -0.00782394 -0.0149655 -0.0230172 0.0202457 0.00292722 -0.0145134
internal_weight=3127.21 2569.24 2236.95 1710.26 617.241 526.683 1093.02 522.733 570.289 378.019 207.012 330.252 319.672 301.088 316.153 306.46 286.075 97.6011 181.381 258.165 243.552 148.871 332.296 127.053 66.7494 101.587 89.2815 176.266 82.8984 67.2863
internal_count=12943 11935 11265 9132 2867 2133 6265 3321 2944 1731 1064 1630 1069 917 1950 1932 817 393 1036 964 865 594 670 551 308 487 460 548 329 317
is_linear=0
shrinkage=0.03


Tree=10
num_leaves=31
num_cat=0
split_feature=1 43 217 4 160 17 9 100 75 64 77 97 76 89 63 97 77 63 96 97 9 82 4 76 82 15 173 4 8 160
split_gain=1374.62 963.072 239.662 210.562 208.219 554.151 136.895 158.349 154.616 129.652 122.905 105.919 101.953 95.9628 77.6618 72.7722 72.2332 74.6665 77.192 68.5779 60.9579 59.0162 56.883 54.94 67.1963 56.5856 52.2151 51.9041 46.1335 39.5734
threshold=2.3020805535497666 1.0000000180025095e-35 1.3378955602773854 -0.056307802106983947 0.75400000000000011 -1.0000000180025095e-35 -0.31385595004921041 0.36181818181818187 -0.38663673361029399 0.23657120883765279 -0.96764456108692831 -0.33471971817709029 -0.42424340009439365 -0.28005106255333528 1.2256304486510923 0.2580417326411289 -0.61856164250767398 0.23104515348232316 -0.44439412534823902 0.93880613287689518 -0.55707197312377865 -0.64253513902272619 3.4225891156518009 0.031081919239997941 0.10390302720778062 -0.37776276892312993 6.4183893125470325e-17 -1.0000000180025095e-35 -0.20166314850093184 0.99898989898989909
decision_type=2 2 2 2 2 2 2 2 2 2 2 2 2 2 2 2 2 2 2 2 2 2 2 2 2 2 2 2 2 2
left_child=1 2 4 9 6 14 8 -8 -1 12 -10 -7 19 15 22 -5 -14 18 -18 -4 -19 -12 -6 -23 25 -25 -3 -13 -15 -29
right_child=-2 26 3 13 5 11 7 -9 10 -11 21 27 16 28 -16 -17 17 20 -20 -21 -22 23 -24 24 -26 -27 -28 29 -30 -31
leaf_value=-0.043791405252823087 0.042903651361460092 0.040742048956643961 -0.04577462249314701 -0.024629627226082352 -0.042129796960101634 -0.047687655117314758 -0.045895320883930495 0.024475286405985664 0.040743566150523346 0.035405948579828803 0.045053661565368879 -0.038998830336564948 0.031834231323359941 0.026438052799423663 0.028290823211997981 0.040739662339384884 0.03219923775750469 -0.043662980862300707 -0.034747902511828063 0.029565706094992827 0.025058681200721272 -0.042347791611669086 0.044036359815017294 -0.049420424956847023 0.026778180307872313 -0.0049152179650461458 -0.02748981923385611 0.049948996965654614 -0.046810820585767771 0.021844657857870285
leaf_weight=145.06804506480694 552.51814651489258 319.0312425494194 58.799610361456871 36.536626875400543 293.31451863050461 19.100008308887482 497.29910215735435 30.546730324625969 43.576130330562592 126.15666894614697 14.153713047504423 10.821585237979887 81.965206563472748 8.2550308704376203 15.723905667662619 26.403304681181908 19.540577203035355 13.362633556127546 74.975256577134132 13.340575471520422 88.913159355521202 60.669306293129921 7.0612716376781455 38.666885644197464 36.697312712669373 76.738816559314728 10.423818305134771 57.855315312743187 123.67653627693653 204.39860232174397
leaf_count=951 1008 615 384 198 1905 125 3340 87 88 296 29 65 202 24 41 56 50 82 437 36 262 384 14 256 105 332 55 95 825 596
internal_value=-4.13536e-07 -0.00928542 -0.0163777 -0.00141077 -0.0228588 -0.00917269 -0.0316831 -0.0418229 -0.0188037 0.00932273 -0.005403 0.0206108 -5.48714e-05 -0.0276868 -0.036702 0.00279279 0.00817147 -0.00168425 -0.020907 -0.0318423 0.01608 -0.0142644 -0.0401042 -0.0182103 -0.00858257 -0.0198268 0.0385832 0.0253879 -0.0422276 0.0280447
internal_weight=3105.59 2553.07 2223.62 671.925 1551.69 608.275 943.416 527.846 415.57 477.054 270.502 292.176 350.897 194.871 316.1 62.9399 278.757 196.792 94.5158 72.1402 102.276 226.926 300.376 212.772 152.103 115.406 329.455 273.076 131.932 262.254
internal_count=12943 11935 11265 2852 8413 2841 5572 3427 2145 1749 1194 881 1453 1103 1960 254 1033 831 487 420 344 1106 1919 1077 693 588 670 756 849 691
is_linear=0
shrinkage=0.03


Tree=11
num_leaves=31
num_cat=0
split_feature=3 43 217 0 163 17 64 3 100 75 77 95 76 97 77 63 95 85 97 3 56 173 3 82 44 76 82 15 82 6
split_gain=1316.61 926.909 243.224 218.692 168.137 522.537 134.575 131.63 150.851 147.307 116.019 113.59 100.358 92.6926 72.014 72.3967 101.182 70.6605 65.6623 61.9543 57.442 63.2993 67.7465 55.5849 54.6949 52.3177 63.5228 54.1814 49.5891 48.9702
threshold=2.2004146503860733 1.0000000180025095e-35 1.3378955602773854 -0.077312308817471698 0.70000000000000007 -0.027482030435750416 0.24336341617499138 -0.34850111809513779 0.36181818181818187 -0.38663673361029399 -0.96764456108692831 -0.4944343349463754 -0.42424340009439365 -0.33471971817709029 -0.65338626168101499 0.23104515348232316 -0.71845854595498493 -0.66099862977624235 0.93880613287689518 -0.5725458107618977 0.035545349121093757 0.024191539622994081 0.73068852905748327 -0.64253513902272619 -0.058750152587890618 0.031081919239997941 0.10390302720778062 -0.37776276892312993 -0.4884833724373005 -0.042598341230079516
decision_type=2 2 2 2 2 2 2 2 2 2 2 2 2 2 2 2 2 2 2 2 2 2 2 2 2 2 2 2 2 2
left_child=1 2 4 6 7 20 12 9 -9 -1 -11 17 18 -7 -14 16 -16 -5 -4 -17 21 -6 -23 -12 -2 -25 27 -27 -18 -15
right_child=24 -3 3 11 5 13 -8 8 -10 10 23 -13 14 29 15 19 28 -19 -20 -21 -22 22 -24 25 -26 26 -28 -29 -30 -31
leaf_value=-0.042860211133815662 -0.059848200396391424 0.038230445957701316 -0.044932582002255604 -0.051542779874204844 -0.045655269994369065 -0.045963468679915874 0.035574737139314992 -0.044981781754490822 0.023784316069235589 0.03979021390466312 0.043796089985971114 -0.042443621072685477 0.032018871393084201 -0.039517960604852957 0.048137160327563662 -0.042890722634274785 0.016730695093901224 0.031956222694685683 0.028749804538280618 0.025665828929159841 0.040594881824793566 -0.032529574874619244 0.047878079903460678 -0.041366229312292196 0.041615034471498009 -0.048371326193153964 0.02610614759902254 -0.0046779001439754414 -0.04459515436858557 0.026550056434446627
leaf_weight=143.2501522898674 4.8217426985502234 320.23520496487617 59.784817591309547 12.198728844523428 250.96037676930428 18.309877052903175 129.19919335842133 491.41770762205124 30.491957396268845 43.285957798361778 14.123748570680617 139.95412290096283 79.947443008422852 10.52321484684944 16.304268002510071 13.757070139050482 14.420175075531004 36.156149059534073 13.30808514356613 86.194659218192101 8.2007500529289228 28.785872846841812 14.02530427277088 60.06732976436615 574.11527554690838 38.325469374656677 36.653289780020714 76.579355284571648 67.024519249796867 249.28787383437157
leaf_count=948 32 651 394 82 1695 121 299 3336 87 88 29 916 194 63 29 85 52 92 36 248 18 177 30 383 1071 256 105 331 423 672
internal_value=-8.66059e-07 -0.00943191 -0.0164252 -0.00134948 -0.0230781 -0.0103923 0.00940057 -0.0309554 -0.0409642 -0.0182853 -0.00520023 -0.028748 -0.000240964 0.0192764 0.00799273 -0.00172312 -0.0200807 0.0108915 -0.0315172 0.0162299 -0.0377175 -0.0399036 -0.00618735 -0.0138269 0.04077 -0.0176726 -0.00828203 -0.0192514 -0.0337371 0.0238741
internal_weight=3081.71 2502.77 2182.54 668.249 1514.29 580.093 479.94 934.195 521.91 412.285 269.035 188.309 350.741 278.121 277.648 197.701 97.749 48.3549 73.0929 99.9517 301.972 293.772 42.8112 225.749 578.937 211.625 151.558 114.905 81.4447 259.811
internal_count=12943 11840 11189 2850 8339 2776 1760 5563 3423 2140 1192 1090 1461 856 1031 837 504 174 430 333 1920 1902 207 1104 1103 1075 692 587 475 735
is_linear=0
shrinkage=0.03


Tree=12
num_leaves=31
num_cat=0
split_feature=3 43 217 15 160 17 3 117 76 77 66 76 88 97 237 68 97 63 83 86 173 3 88 160 7 82 76 82 65 16
split_gain=1252.51 879.713 226.862 179.04 167.866 476.263 126.39 146.097 130.054 105.063 103.238 86.2536 88.5203 86.1561 85.2517 84.6189 71.6824 70.3636 62.4853 55.0673 51.6626 59.0402 48.0076 47.577 164.27 46.1382 54.2491 56.1502 45.9874 41.8104
threshold=2.2787377822798609 1.0000000180025095e-35 1.3378955602773854 -0.0071471984265201243 0.75400000000000011 -1.0000000180025095e-35 -0.34850111809513779 1.0000000180025095e-35 -0.38777461656883 -0.96764456108692831 0.4596553567794977 -0.42424340009439365 -0.34038676105715066 -0.33471971817709029 -0.0038940092165904573 1.2424104283696906 0.93880613287689518 1.2256304486510923 3.958092721452755 -0.037022458709633381 0.014226783071866691 0.75263287953712588 0.72467751933795566 0.83130081300813019 0.26282522798369151 -0.64253513902272619 0.031081919239997941 0.10390302720778062 -0.44231059219805829 -0.45358144334491085
decision_type=2 2 2 2 2 2 2 2 2 2 2 2 2 2 2 2 2 2 2 2 2 2 2 2 2 2 2 2 2 2
left_child=1 2 4 10 6 17 8 -8 -1 -10 11 16 -13 -7 -5 28 -4 20 -16 -12 -6 -22 -9 -15 -25 -11 -27 29 -14 -28
right_child=-2 -3 3 14 5 13 7 22 9 25 19 12 15 23 18 -17 -18 -19 -20 -21 21 -23 -24 24 -26 26 27 -29 -30 -31
leaf_value=-0.042642144686271831 0.040514631227274105 0.037384939634714426 -0.043858358462193485 0.026103732860107386 -0.043587947097768989 -0.044910718284614674 -0.045003592323254071 -0.059225518389843072 0.039101724712958169 0.037253390758059238 -0.053144229673585376 0.026476140118168151 0.0039948548295250163 0.047541753345424584 -0.039690890655118459 0.040180397820950176 0.028953711788586804 0.027050661797841154 0.034718548729030616 0.041091136066935985 -0.029266902253506727 0.049465285048623672 0.026467401400336744 -0.045624112270581704 0.028545124318125711 -0.038608642862841165 -0.042141844262431685 0.025355729586646714 -0.029962959611480738 -0.0042635678534423752
leaf_weight=130.04608242213726 560.71734912693501 319.44100071489811 56.933492586016655 23.987748771905899 252.74955771863461 17.697998434305191 472.98786872625351 7.0229091346263877 39.365312293171883 14.954926058650015 5.9345913380384436 133.69922506809235 63.203279346227646 57.56815679371357 147.77558767795563 29.792865991592407 15.476778879761694 15.57371301949024 10.906613066792486 93.657906532287598 32.247370138764381 11.675729885697363 36.277774974703789 32.052748486399651 166.37772715091705 72.143042206764221 39.895250141620636 36.60661493241787 83.062304690480232 76.551137953996658
leaf_count=869 1065 656 378 66 1709 118 3275 46 81 35 40 372 251 98 954 62 41 41 26 190 195 24 102 198 426 460 258 105 470 332
internal_value=-1.55212e-06 -0.00910459 -0.0159286 -0.00131792 -0.02235 -0.00978395 -0.0303027 -0.040175 -0.0178578 -0.00632673 0.00827142 0.00118201 0.00807284 0.0191049 -0.0266082 -0.00590267 -0.0282957 -0.0351062 -0.0345765 0.0354758 -0.0383691 -0.00833815 0.0125689 0.0235305 0.0165645 -0.0137733 -0.0171619 -0.0070528 -0.0152893 -0.0172409
internal_weight=3056.38 2495.67 2176.22 664.43 1511.79 585.943 925.851 516.289 409.562 279.516 481.76 382.168 309.758 273.697 182.67 176.058 72.4103 312.246 158.682 99.5925 296.673 43.9231 43.3007 255.999 198.43 240.151 225.196 153.053 146.266 116.446
internal_count=12943 11878 11222 2850 8372 2809 5563 3423 2140 1271 1804 1574 1155 840 1046 783 419 1969 980 230 1928 219 148 722 624 1190 1155 695 721 590
is_linear=0
shrinkage=0.03


Tree=13
num_leaves=31
num_cat=0
split_feature=1 43 201 2 160 77 8 103 76 8 77 96 76 63 77 160 96 89 95 76 221 44 76 95 62 173 96 82 215 16
split_gain=1186.65 822.956 206.577 147.853 145.803 393.897 118.612 135.025 113.627 95.3422 86.3716 84.6952 82.1287 79.4014 63.6454 89.0989 120.412 70.1647 60.2804 69.3063 57.7728 53.9811 50.8997 61.8048 52.3111 50.8321 49.4899 49.2396 51.0397 46.4071
threshold=2.3020805535497666 1.0000000180025095e-35 0.97461127062281772 -0.062065761281894172 0.75400000000000011 -0.58861211383430689 -0.22765618847524524 2.5000000000000004 -0.35120450728528113 -1.0000000180025095e-35 -0.73715062839970258 -0.14460889556004705 1.605174393820598 1.2256304486510923 0.65152830229266423 1.1094905094905096 -0.44897431437294349 -0.52477257896259888 0.28705506130334418 -0.45470246802468711 0.10341260271197407 -0.025195121765136715 0.52409921581920005 -0.50369227170814412 -0.075361175041234449 6.4183893125470325e-17 5.9829148807349393 -0.51766622049511013 -0.48855271375810788 1.9698073680197716
decision_type=2 2 2 2 2 2 2 2 2 2 2 2 2 2 2 2 2 2 2 2 2 2 2 2 2 2 2 2 2 2
left_child=1 2 4 12 6 13 8 29 -1 -7 -10 20 18 -6 15 17 -17 -11 19 -4 -5 -19 23 -12 27 -3 -20 -24 -29 -8
right_child=-2 25 3 11 5 9 7 -9 10 14 22 -13 -14 -15 -16 16 -18 21 26 -21 -22 -23 24 -25 -26 -27 -28 28 -30 -31
leaf_value=-0.036413776166878103 0.040556514332944119 0.038394726173456288 -0.020405849803499576 -0.012549396008480894 -0.042108601756391736 -0.043514917347353257 -0.041512914064464966 0.052960174697925626 0.024966442561289801 -0.048377528897390838 0.012537490930170113 -0.037172175620099189 0.04575542178167899 0.043001516582490143 0.048150312256736105 0.044949323060238473 -0.046271418294054942 -0.051060187556791502 -0.040377295366013276 0.021851702415760135 0.039694721244195132 0.026505669851026821 0.024865079599606116 -0.033948201979525215 0.02235118438175954 -0.028920630026368147 0.053494594799792565 0.033749219447080571 -0.040807074941768821 0.03654192936680753
leaf_weight=190.42319867014885 534.67371378839016 309.88486011326313 44.042550563812256 69.840431243181229 229.57587522268295 26.602375075221062 480.73482583463192 14.35266864299774 60.321704730391502 13.013238772749899 31.64381305873394 106.25503054261208 59.95805324614048 10.308212935924528 46.281523868441582 18.078195109963417 46.577200144529343 8.4112487584352476 34.787712946534157 168.838189676404 26.194773480296135 202.00315819680691 20.290537983179092 137.99369783699512 53.814870238304138 10.436072543263434 5.9138905405998221 9.8214282840490323 52.10811348259449 6.9544789046049109
leaf_count=1228 1008 615 239 339 1569 176 3279 22 170 84 119 671 105 20 77 34 298 57 209 507 54 552 61 856 164 55 9 25 321 20
internal_value=-2.06353e-06 -0.00869208 -0.0153033 0.00127836 -0.0204581 -0.00865501 -0.0271583 -0.0377308 -0.0176189 0.0111464 -0.00784015 -0.0187176 0.0141794 -0.0384513 0.0154953 0.0102492 -0.0207653 0.0192241 0.00671342 0.0131091 0.00170082 0.023405 -0.0143142 -0.0252769 -0.000643674 0.0362016 -0.0267378 -0.0156943 -0.0289832 -0.0403998
internal_weight=3030.14 2495.46 2175.14 515.831 1659.31 600.851 1058.46 502.042 556.417 360.967 365.994 202.29 313.54 239.884 334.365 288.083 64.6554 223.428 253.582 212.881 96.0352 210.414 305.672 169.638 136.035 320.321 40.7016 82.2201 61.9295 487.689
internal_count=12943 11935 11265 2133 9132 2867 6265 3321 2944 1278 1716 1064 1069 1589 1102 1025 332 693 964 746 393 609 1546 975 571 670 218 407 346 3299
is_linear=0
shrinkage=0.03


Tree=14
num_leaves=31
num_cat=0
split_feature=3 48 68 201 88 160 76 76 18 96 75 96 77 8 60 100 49 160 17 97 77 2 200 217 49 60 100 3 60 213
split_gain=1135.09 683.971 210.144 172.495 245.425 139.962 131.011 119.423 88.5677 86.4203 123.966 75.6607 121.35 86.6231 85.3741 73.647 70.2261 62.9804 61.9109 58.6403 52.6263 86.0265 77.4091 49.4903 49.2964 69.3303 48.6496 56.6444 54.3952 45.4611
threshold=2.2787377822798609 1.0000000180025095e-35 1.0787501712908509 -1.0000000180025095e-35 -0.15275937372641896 0.75400000000000011 -0.14636457258449179 -0.42424340009439365 1.0000000180025095e-35 -0.69373969192671636 -0.80211135650268095 -0.45689706499972255 -0.65338626168101499 -0.16451065147050889 -0.088664049066497705 0.2878787878787879 0.065658569335937514 0.79898989898989914 -1.0000000180025095e-35 -0.97649996023400421 0.41618258334008856 2.1407530377825692 0.80780950606770341 0.83881385423202126 0.046466827392578132 0.92190924805471675 1.4400000000000002 -0.3112268449011148 0.51254903385433981 0.0023955891064342863
decision_type=2 2 2 2 2 2 2 2 2 2 2 2 2 2 2 2 2 2 2 2 2 2 2 2 2 2 2 2 2 2
left_child=1 2 3 16 7 26 -7 9 19 10 -5 -9 13 -13 -14 -10 23 -11 -8 -4 -21 22 -22 29 -3 -26 27 28 -6 -1
right_child=-2 24 8 4 5 6 18 11 15 17 -12 12 14 -15 -16 -17 -18 -19 -20 20 21 -23 -24 -25 25 -27 -28 -29 -30 -31
leaf_value=-0.037682338759117487 0.039048728539842321 0.040535259607527505 -0.042907123107326563 -0.046844261909219358 -0.029861164135059393 -0.044868121870715642 -0.032097326919784674 0.032156324976664305 -0.037294319285116291 -0.041432767529047058 0.039040836735332124 0.035391339808351276 -0.017314999638451196 -0.048780781259023 0.030538901852934071 0.029323717112823035 0.030786399046302728 0.023622799840413041 0.038076144115960144 0.032741141938388917 -0.036238479694410401 0.046468401461214684 0.024936201899575197 0.021580148960078632 -0.059140962840780506 0.045925673754370962 0.051342156846589965 -0.044406724951018904 0.017745871721365627 -0.019616382055977957
leaf_weight=479.60566191375256 547.7655364125967 244.45856094360352 14.195964425802229 23.370093911886215 111.8144378811121 35.01467476785183 13.838380083441733 100.39810247719288 58.113897413015366 110.89031299948692 42.87503682076931 111.01637333631516 204.40870989859104 12.214384153485296 40.142503544688225 20.101372852921486 16.589838162064552 15.23280845582485 62.059376060962677 130.167589366436 47.61256642639637 31.400277704000473 30.568151399493217 15.327062621712683 11.125387296080591 11.490250110626219 5.8019468784332267 260.31397813558578 26.772189095616341 169.72318178415298
leaf_count=3181 1065 460 97 166 652 224 82 248 374 748 102 250 1071 85 110 53 41 45 130 323 281 54 85 49 71 19 9 1835 86 947
internal_value=-2.13375e-06 -0.00870943 -0.0142379 -0.0181682 -0.0112103 -0.0267212 0.00313548 0.000897236 0.00773972 -0.0190028 0.00874211 0.00907385 0.00277274 0.0270484 -0.00945989 -0.0201734 -0.0301808 -0.0335755 0.0252815 0.016337 0.019845 0.00452603 -0.0123196 -0.0317025 0.036615 -0.00576011 -0.0349037 -0.0361581 -0.0206644 -0.0329602
internal_weight=3004.41 2456.64 2189.57 1857.41 1176.16 515.615 110.912 660.548 332.16 192.368 66.2451 468.18 367.782 123.231 244.551 78.2153 681.246 126.123 75.8978 253.945 239.749 109.581 78.1807 664.656 267.074 22.6156 404.703 398.901 138.587 649.329
internal_count=12943 11878 11328 10061 5843 3018 436 2825 1267 1061 268 1764 1516 335 1181 427 4218 793 212 840 743 420 366 4177 550 90 2582 2573 738 4128
is_linear=0
shrinkage=0.03


Tree=15
num_leaves=31
num_cat=0
split_feature=3 43 200 2 160 17 9 103 61 77 237 41 63 3 15 62 77 95 69 95 16 160 0 16 77 63 17 82 200 43
split_gain=1080.77 755.44 176.073 137.175 113.964 413.497 134.368 121.381 109.817 102.099 81.7966 81.6881 64.2483 61.6685 58.2018 56.8366 66.9781 54.6141 58.7408 55.3923 52.6956 51.7064 121.458 50.632 50.014 84.6895 48.2718 43.2755 42.1241 70.3999
threshold=2.2787377822798609 0.00034332275390625005 1.085299961232798 -0.062065761281894172 0.75400000000000011 -0.027482030435750416 -0.31385595004921041 2.5000000000000004 -0.81108182688918518 -0.73715062839970258 -0.0038940092165904573 1.0000000180025095e-35 0.83998762601911336 1.4609644668424489 -0.11926325192102617 0.4023602133232666 0.12006716144376682 0.28705506130334418 -0.61935436520808429 -0.64240978848668484 1.9698073680197716 0.83130081300813019 0.2310660576566175 -0.20336643238035104 -0.66577263885579374 0.038550553605664076 0.6468432493243631 -0.39914171576474039 -0.66207388117500499 0.00054359436035156261
decision_type=2 2 2 2 2 2 2 2 2 2 2 2 2 2 2 2 2 2 2 2 2 2 2 2 2 2 2 2 2 2
left_child=1 2 4 12 6 13 8 20 -1 -10 -5 21 17 -6 27 23 -17 18 -4 -20 -8 -7 -23 -11 -21 -26 -24 -12 -2 -30
right_child=28 -3 3 10 5 11 7 -9 9 15 14 -13 -14 -15 -16 16 -18 -19 19 24 -22 22 26 -25 25 -27 -28 -29 29 -31
leaf_value=-0.045210618779526361 0.044310662495443222 0.035500816631336522 -0.029100479861647776 0.032908845812168158 -0.038461685897427635 0.046342794590490552 -0.039188723268780236 0.050981240278180601 0.026552033801848542 -0.024851713448709279 0.028631795538031649 -0.050010644366164494 0.036673667682893339 0.0039206145239803732 -0.03911175402085592 0.045412608246052748 -0.013733924120856453 -0.034312613454032734 0.044673762514980987 0.037179491498524495 0.03837799720576212 -0.04466404533087176 0.027219683176891062 0.027269768468128265 -0.033006194433485285 0.02239045347826555 -0.03665082131722136 -0.020893307895109778 -0.01149260368762612 0.035740416059804707
leaf_weight=83.589689627289772 359.23329712450504 306.77410444617271 29.378004521131516 24.397731423377991 265.63604433834553 57.274745211005211 533.26729726791382 14.144487261772154 66.448773145675659 231.78758695721626 23.766033887863159 15.375232294201849 76.293179616332054 34.965595111250877 111.58459359407425 28.027153491973877 44.733944773674011 27.996162205934525 46.992782324552536 35.99881936609745 8.0007943958044034 27.423431605100632 167.09409710764885 18.082502707839012 47.570725694298744 51.973419293761253 11.374599993228911 47.85177443921566 35.225454673171043 146.57750947773457
leaf_count=597 616 647 179 58 1807 99 3675 22 181 1324 66 106 166 152 745 57 229 166 84 76 21 173 441 58 285 153 63 248 145 304
internal_value=-1.93997e-06 -0.00851486 -0.0148512 0.000254049 -0.019774 -0.00913048 -0.0257698 -0.035775 -0.0140132 -0.00731071 -0.0186931 0.0172034 0.0126936 -0.0335318 -0.0255651 -0.014285 0.00904898 0.00506776 0.0102703 0.0166068 -0.0380422 0.0211303 0.0141167 -0.0210798 0.00687603 -0.00408281 0.0231489 -0.00445863 0.0383556 0.0265887
internal_weight=2978.84 2437.8 2131.03 523.803 1607.23 579.144 1028.08 555.413 472.67 389.08 207.6 278.542 316.203 300.602 183.202 322.631 72.7611 239.91 211.914 182.536 541.268 263.167 205.892 249.87 135.543 99.5441 178.469 71.6178 541.036 181.803
internal_count=12943 11878 11231 2226 9005 2841 6164 3718 2446 1849 1117 882 1109 1959 1059 1668 286 943 777 598 3696 776 677 1382 514 438 504 314 1065 449
is_linear=0
shrinkage=0.03


Tree=16
num_leaves=31
num_cat=0
split_feature=3 43 217 0 160 77 64 3 117 75 77 95 76 88 8 61 63 97 65 97 75 160 96 69 82 76 82 15 88 200
split_gain=1029.87 717.894 192.801 179.811 141.565 327.144 115.115 110.324 128.348 125.413 95.0548 94.9422 80.6322 77.5108 76.0104 75.5434 72.6637 60.4849 60.2776 56.1549 55.7966 83.753 75.7071 70.6496 48.2705 45.4452 52.4578 48.8691 41.3809 41.1474
threshold=2.2787377822798609 0.00034332275390625005 1.3378955602773854 -0.085723472769701312 0.75400000000000011 -0.58861211383430689 0.24336341617499138 -0.34850111809513779 1.0000000180025095e-35 -0.38663673361029399 -0.96764456108692831 -0.54581806756234907 -0.42424340009439365 -0.30647696139649416 -1.0000000180025095e-35 1.3818960279421824 1.2256304486510923 -0.0796705131848683 -0.44762167154786642 0.93880613287689518 -0.61682405242046479 1.1124391696811606 -0.44897431437294349 -0.45966433299496273 -0.64253513902272619 0.031081919239997941 0.10390302720778062 -0.37776276892312993 0.72467751933795566 -0.66207388117500499
decision_type=2 2 2 2 2 2 2 2 2 2 2 2 2 2 2 2 2 2 2 2 2 2 2 2 2 2 2 2 2 2
left_child=1 2 4 6 7 16 12 9 -9 -1 -11 17 19 -14 -7 18 -6 -5 -15 -4 -16 23 -23 -22 -12 -26 27 -27 -10 -2
right_child=29 -3 3 11 5 14 -8 8 28 10 24 -13 13 15 20 -17 -18 -19 -20 -21 21 22 -24 -25 25 26 -28 -29 -30 -31
leaf_value=-0.039618068275067482 0.043645307553813947 0.03482073818387342 -0.041527487590078592 -0.037594032626546925 -0.039338627311142654 -0.040757048453257748 0.033507176388322048 -0.042145199214977405 -0.054771562990195741 0.037186484538669323 0.041833606444181416 -0.03858792149830359 0.02239615498425937 0.0018704142480825904 0.048956320722671101 0.034364366049824902 0.04237904077678134 0.036234738052941848 -0.044755422154602119 0.027348135792134159 -0.042093938945743238 0.040137924377490447 -0.041747403950232048 0.023164094589355106 -0.038204269024479584 -0.045328083509810498 0.0244387551710941 -0.0032536099019364849 0.025225215571914556 0.026032338477193748
leaf_weight=136.39534193277359 353.84977708756924 303.4334399998188 57.251593485474586 14.975367546081541 226.56394276022911 24.290229260921478 125.51898440718651 452.80011400580406 6.9487583190202704 42.024511858820915 14.024922162294386 137.27866001427174 144.14297951757908 49.063923180103302 36.935229629278183 27.432330429553986 10.235723063349722 29.982159078121185 50.782744750380516 13.089398294687269 16.147848501801491 13.242970481514929 43.674127519130707 198.10886678099632 58.022507548332214 36.906754478812218 36.332309067249298 76.021513253450394 35.815326526761055 180.15448622405529
leaf_count=948 616 647 394 94 1586 165 296 3278 46 88 29 935 425 203 60 65 20 69 333 36 104 27 281 572 383 256 105 331 102 449
internal_value=-1.76517e-06 -0.00833068 -0.0145244 -0.000920274 -0.020558 -0.00886012 0.00893711 -0.0279951 -0.0374533 -0.0162693 -0.00417567 -0.0261962 -8.67103e-05 0.00733142 0.0103363 -0.00972932 -0.0358064 0.0116423 -0.0218438 -0.0287108 0.0143643 0.00965266 -0.022695 0.0182458 -0.01203 -0.0156744 -0.00691636 -0.0170042 0.0122265 0.0377033
internal_weight=2951.45 2417.44 2114.01 649.518 1464.49 569.199 467.282 895.292 495.564 399.728 263.333 182.236 341.763 271.422 332.399 127.279 236.8 44.9575 99.8467 70.341 308.109 271.174 56.9171 214.257 221.308 207.283 149.261 112.928 42.7641 534.004
internal_count=12943 11878 11231 2850 8381 2815 1752 5566 3426 2140 1192 1098 1456 1026 1209 601 1606 163 536 430 1044 984 308 676 1104 1075 692 587 148 1065
is_linear=0
shrinkage=0.03


Tree=17
num_leaves=31
num_cat=0
split_feature=1 43 201 220 160 17 9 75 117 97 97 97 4 76 88 75 49 15 76 85 173 160 0 67 83 60 97 82 235 95
split_gain=983.012 672.042 173.102 125.411 123.433 397.234 124.607 124.309 117.847 81.0277 75.2259 66.9608 62.722 59.4096 80.2813 75.2799 59.1929 54.6463 55.8127 84.1346 48.1067 45.5093 152.136 43.4833 70.5832 41.8734 44.8473 41.6737 41.3959 39.4896
threshold=2.3020805535497666 1.0000000180025095e-35 0.97461127062281772 -0.98918887330528271 0.75400000000000011 -0.027482030435750416 -0.31385595004921041 -0.38663673361029399 1.0000000180025095e-35 -0.33471971817709029 0.62699047583040401 -0.94002195996137139 3.4225891156518009 -0.45470246802468711 -0.17582681480130094 1.3486911715063823 0.065658569335937514 -0.39285548477769366 0.031081919239997941 -0.36126928806545949 6.4183893125470325e-17 0.83130081300813019 0.2310660576566175 -0.17858775962848805 -0.5040965226421199 -0.1128926439018476 -0.89904126879090518 -0.47489431301609253 0.22718827987409754 -0.22929000316268178
decision_type=2 2 2 2 2 2 2 2 2 2 2 2 2 2 2 2 2 2 2 2 2 2 2 2 2 2 2 2 2 2
left_child=1 2 4 -4 6 12 7 23 -8 -7 13 -9 16 28 25 29 -6 -13 19 -19 -3 -11 -23 -1 -25 26 -15 -28 -5 -16
right_child=-2 20 3 10 5 9 8 11 -10 21 -12 17 -14 14 15 -17 -18 18 -20 -21 -22 22 -24 24 -26 -27 27 -29 -30 -31
leaf_value=-0.042806997697009727 0.037925844280850482 0.035740405096258643 -0.042818627030330465 -0.038138846689177094 -0.037338205381400869 -0.043683134028945414 -0.038920839093881672 0.036554771756274786 0.012641941494965909 0.045222161239318791 0.028253393129832306 -0.033410423374086687 0.044432036094844959 0.041920590832813971 0.028104602574316507 0.043654402138449039 0.045942259561651093 0.025803559762539813 0.0091048638368541376 -0.047250303724424784 -0.02990911204759393 -0.044592473690670854 0.025607998755988692 0.050999904279971378 -0.041326180863640379 0.045546781537345121 0.027699518760296887 -0.013019497841113774 0.041343305638845362 -0.031120471610388271
leaf_weight=130.35161916911602 508.06980757415295 296.20391349494457 51.953666120767593 49.50616030395031 275.08051888644695 18.504251584410667 505.3619497269392 34.617929011583328 43.310979023575783 56.260486140847206 107.89333516359329 58.649362161755562 9.2359110713005048 30.634876057505608 11.458792716264723 17.245438039302826 7.9017837196588507 20.811630800366402 153.21324083209038 44.582214742898941 10.398483902215956 32.774588942527771 182.46703727543354 12.710039094090464 18.015619456768036 38.746467441320419 33.895267203450203 68.007313996553421 6.6949230730533591 87.537858948111534
leaf_count=941 1008 615 371 332 1918 128 3624 73 149 98 281 367 18 60 31 31 14 65 574 317 55 211 480 28 127 67 97 323 13 527
internal_value=-2.4024e-06 -0.007985 -0.0140225 0.00132172 -0.0188403 -0.00781589 -0.0251231 -0.0138383 -0.0348506 0.0170583 0.00639956 -0.00278501 -0.0325018 -0.000460198 0.00505393 -0.0141888 -0.0350127 -0.00769693 -0.000798343 -0.0240009 0.0335139 0.0211981 0.0149187 -0.0352394 -0.00313438 0.018113 0.0100929 0.000524634 -0.0286706 -0.0242652
internal_weight=2922.1 2414.03 2107.42 503.574 1603.85 582.225 1021.62 472.952 548.673 290.006 451.62 311.874 292.218 343.727 287.526 116.242 282.982 277.256 218.607 65.3938 306.602 271.502 215.242 161.077 30.7257 171.284 132.537 101.903 56.2011 98.9967
internal_count=12943 11935 11265 2133 9132 2867 6265 2492 3773 917 1762 1396 1950 1481 1136 589 1932 1323 956 382 670 789 691 1096 155 547 480 420 345 558
is_linear=0
shrinkage=0.03


Tree=18
num_leaves=31
num_cat=0
split_feature=3 43 217 4 160 17 3 117 75 64 77 95 41 76 88 61 3 65 85 173 3 56 40 89 82 160 5 76 82 15
split_gain=936.793 650.515 181.541 152.212 123.37 376.438 103.17 118.732 115.005 93.6315 86.848 82.0463 73.8391 70.7895 70.2924 83.1297 66.37 60.6314 51.5671 50.3844 56.9177 54.1379 49.8472 46.0142 45.0711 42.6887 85.84 41.3627 49.3127 45.2451
threshold=2.2004146503860733 0.00034332275390625005 1.3378955602773854 -0.056307802106983947 0.75400000000000011 -0.027482030435750416 -0.34850111809513779 1.0000000180025095e-35 -0.38663673361029399 0.23657120883765279 -0.96764456108692831 -0.54581806756234907 1.0000000180025095e-35 -0.42424340009439365 -0.30647696139649416 1.1091195560683964 -0.3411005007027198 -0.44762167154786642 -0.66099862977624235 0.024191539622994081 0.75263287953712588 0.035545349121093757 -0.061721267700195308 -0.52477257896259888 -0.64253513902272619 0.85272952853598027 0.13577726504762019 0.031081919239997941 0.10390302720778062 -0.37776276892312993
decision_type=2 2 2 2 2 2 2 2 2 2 2 2 2 2 2 2 2 2 2 2 2 2 2 2 2 2 2 2 2 2
left_child=1 2 4 9 6 19 8 -8 -1 13 -10 18 23 -4 -15 17 -13 -16 -5 21 -21 -6 -2 -7 -12 -25 -27 -26 29 -29
right_child=22 -3 3 11 5 12 7 -9 10 -11 24 16 -14 14 15 -17 -18 -19 -20 20 -22 -23 -24 25 27 26 -28 28 -30 -31
leaf_value=-0.038309651265906915 -0.061341063414415455 0.033617580411294035 -0.027202477176507492 -0.047661999072556555 -0.041081526184237535 -0.02949066559037964 -0.040925539789445846 0.011519140865255628 0.035862478967366371 0.031097805683865588 0.040652973954640362 0.053019404559929831 -0.048267409372787042 0.022111160433465303 0.0021429808378429817 0.03285360598752865 -0.040731212691504357 -0.044756540664709347 0.027701706429880662 -0.026236236478959001 0.050259848336692024 0.038451603165273421 0.036849346988521374 0.04718999287150296 -0.036842397707187551 -0.037628840618533499 0.024435375745906956 -0.044173566503873544 0.02367786400413556 -0.0034299487115500961
leaf_weight=132.89918050169945 4.6945991814136496 294.39722973108292 67.339806541800499 10.593756973743437 231.61054959893227 15.671361103653906 439.99947164952755 42.614180833101273 41.349370300769806 120.75842526555061 13.945129945874212 7.1757541298866263 14.965794816613196 138.4530017375946 47.881235495209694 32.912214338779449 128.48660142719746 51.483979940414429 35.734072998166084 28.049058586359024 12.725834831595419 7.9677803516387931 526.76270638406277 53.457323908805847 56.85054337978363 22.890161588788033 161.99916513264179 36.211035966873169 36.236203849315643 76.041430398821831
leaf_count=948 32 642 419 75 1695 92 3278 148 88 296 29 11 106 407 199 80 918 347 98 181 26 18 1071 87 383 137 440 256 105 331
internal_value=-2.74789e-06 -0.00810388 -0.0140482 -0.000785664 -0.0200103 -0.00886438 -0.0269986 -0.0362947 -0.0155982 0.00842257 -0.00401752 -0.0240012 0.0164891 0.000322997 0.00716951 -0.00846971 -0.0357723 -0.022157 0.0104683 -0.0331897 -0.00236183 -0.0384365 0.035982 0.0203044 -0.0115375 0.0235784 0.0167515 -0.0150819 -0.00675064 -0.0165733
internal_weight=2892.16 2360.7 2066.3 640.819 1425.48 549.337 876.147 482.614 393.533 458.829 260.634 181.99 268.984 338.07 270.73 132.277 135.662 99.3652 46.3278 280.353 40.7749 239.578 531.457 254.018 219.284 238.347 184.889 205.339 148.489 112.252
internal_count=12943 11840 11198 2850 8348 2782 5566 3426 2140 1748 1192 1102 862 1452 1033 626 929 546 173 1920 207 1713 1103 756 1104 664 577 1075 692 587
is_linear=0
shrinkage=0.03


Tree=19
num_leaves=31
num_cat=0
split_feature=3 48 68 217 88 67 213 160 6 16 49 15 76 95 65 77 95 2 160 62 76 95 76 16 49 63 76 76 48 104
split_gain=893.733 534.664 175.047 164.234 128.904 112.727 83.4515 95.0793 77.499 78.0964 100.523 68.9631 68.8311 68.6207 75.1324 58.7849 70.5705 52.6824 58.876 67.4292 51.0249 75.6496 55.3779 50.1103 49.3167 66.1791 49.2794 49.1115 47.0861 45.9912
threshold=2.2787377822798609 1.0000000180025095e-35 0.88288491197622265 0.36314705174976164 -0.19608848629646614 -0.15702358236872346 0.1118374192059252 0.79898989898989914 -0.49101372203002758 -0.27854056302615371 0.041013717651367194 -0.22619515356475112 -0.42424340009439365 -0.83213986531077833 0.041131891242467952 -0.6391957279751127 -0.71845854595498493 -0.20059611600671495 0.79898989898989914 -0.0091622445665364236 0.98888549533071057 0.28705506130334418 3.5401129786847574 -0.068543005880772404 0.046466827392578132 0.82105256532162452 -0.20653575974221358 -0.35120450728528113 -0.0075504302978515589 0.75000000000000011
decision_type=2 2 2 2 2 2 2 2 2 2 2 2 2 2 2 2 2 2 2 2 2 2 2 2 2 2 2 2 2 2
left_child=1 2 3 6 5 12 -1 11 -4 -10 20 27 13 14 -5 23 -17 26 -19 -20 21 -11 -22 -14 -3 -26 -6 -8 -9 -23
right_child=-2 24 8 4 17 -7 7 28 9 10 -12 -13 15 -15 -16 16 -18 18 19 -21 22 29 -24 -25 25 -27 -28 -29 -30 -31
leaf_value=-0.031070898192593042 0.035890560696218876 0.037560342656977885 -0.048316333572354694 0.038280679820971615 -0.043279421198853398 0.039046785614042658 -0.037654154944743772 -0.035784021551990064 0.031663460717142905 0.021528158258961566 0.044040922797752735 -0.039077468680668151 0.034528436356376119 -0.043893544636045966 -0.045030701158294023 0.038390543344029901 -0.015195193249932151 -0.039013604359584154 0.036628979686014404 -0.047024349177628252 0.0132128006179321 -0.041952291575749749 -0.051632812002715987 -0.031659482674421729 -0.061349591342523019 0.04322178548646767 0.0048040493400431442 0.0061054927210838789 0.020520161902400833 0.04315632129769445
leaf_weight=657.16162179410458 512.49266636371613 229.97637948393822 22.950600296258926 25.576529398560524 24.13096883893013 72.252650588750839 32.317768007516861 15.860152810811995 96.815784633159637 27.432786524295807 40.426510840654373 119.58938443660736 77.587888613343239 58.855605021119118 15.736408546566961 27.214095950126648 118.14558166265488 149.69923914968967 21.950955435633659 14.335625201463698 109.51799483597279 78.74347972869873 13.291157111525534 11.869570374488829 11.019570812582971 10.770296096801756 93.554403409361839 80.771395549178123 85.059246018528938 6.1615381091833106
leaf_count=4419 1065 460 166 60 171 160 231 99 237 93 72 886 175 430 117 57 618 1060 50 93 406 565 91 73 71 19 390 337 260 12
internal_value=-3.50781e-06 -0.00783544 -0.012795 -0.0169727 -0.00597021 0.00506102 -0.0248675 -0.0126473 0.00518757 0.00848505 0.000341897 -0.0231951 -0.00226933 -0.0230902 0.00654675 0.00661248 -0.00516292 -0.0207637 -0.0307034 0.00358032 -0.00717085 -0.0217824 0.00619481 0.0257464 0.0334733 -0.00966205 -0.0050553 -0.00639981 0.0116716 -0.035776
internal_weight=2861.27 2348.78 2097.01 1701.67 710.91 407.238 990.76 333.598 395.34 372.389 275.573 232.679 334.986 100.169 41.3129 234.817 145.36 303.671 185.986 36.2866 235.147 112.338 122.809 89.4575 251.766 21.7899 117.685 113.089 100.919 84.905
internal_count=12943 11878 11328 9686 3454 1690 6232 1813 1642 1476 1239 1454 1530 607 177 923 675 1764 1203 143 1167 670 497 248 550 90 561 568 359 577
is_linear=0
shrinkage=0.03


Tree=20
num_leaves=31
num_cat=0
split_feature=1 43 217 160 17 15 3 117 75 64 77 97 237 96 75 97 88 63 15 75 82 160 7 3 88 15 82 66 40 17
split_gain=857.38 578.85 156.931 137.155 352.956 133.275 102.305 115.766 107.594 90.3159 82.4598 72.9915 61.738 65.4716 60.4352 64.2121 60.9222 55.0429 47.9982 53.8958 42.2842 37.7842 122.587 37.3879 37.3598 36.3068 41.3889 36.2931 35.775 33.2107
threshold=2.3020805535497666 1.0000000180025095e-35 1.3378955602773854 0.75400000000000011 -1.0000000180025095e-35 -0.0071471984265201243 -0.34850111809513779 1.0000000180025095e-35 -0.38663673361029399 0.23657120883765279 -0.96764456108692831 -0.33471971817709029 -0.0038940092165904573 5.9829148807349393 -0.24866430284432059 0.71783825223495978 -0.39141594569404808 1.2256304486510923 -0.38133207348695619 -0.022584040264897052 -0.64253513902272619 0.83130081300813019 0.26282522798369151 1.4609644668424489 0.72467751933795566 -0.38133207348695619 0.22132532797609245 -0.095686101915352526 -0.061721267700195308 0.6468432493243631
decision_type=2 2 2 2 2 2 2 2 2 2 2 2 2 2 2 2 2 2 2 2 2 2 2 2 2 2 2 2 2 2
left_child=1 2 3 6 17 9 8 -8 -1 14 -10 -6 -7 -14 15 -4 -16 23 -18 -20 -12 -13 -23 -5 -9 26 -22 -17 -2 -24
right_child=28 -3 5 4 11 12 7 24 10 -11 20 21 13 -15 16 27 18 -19 19 -21 25 22 29 -25 -26 -27 -28 -29 -30 -31
leaf_value=-0.037160413849322567 -0.069413495067534567 0.031742918645882266 -0.026354428603912142 -0.037535436915119152 -0.042249299818783399 0.022737726316480564 -0.0403538458331077 -0.053094390054824969 0.035341595867881472 0.029644328741989634 0.039663468003474159 0.043190993382145562 -0.035528469686677423 0.049133319927485646 0.032597921550929373 0.046140074936615372 -0.033865676481367693 0.02537284908515355 -0.033142819637255204 0.020014576732906877 -0.044080380676239789 -0.040188222197158209 0.027929115305815867 -0.00076666347416901157 0.023934538972824788 -0.0065909353765115043 0.03612216161498262 -0.027529730094706151 0.036844720957050395 -0.029545919426882186
leaf_weight=129.57451821863651 2.8685502707958213 295.41197256743908 108.14480541646481 241.96671845018864 17.574001707136631 22.594990909099579 427.58750230818987 6.7405463755130759 41.036453485488892 122.94524827599525 13.864595204591749 54.25703053176403 138.7989142537117 8.7384976744651777 70.332809686660767 20.129085078835491 32.127936318516731 14.956298217177389 22.023180797696114 77.83401320874691 50.271888196468353 30.750768855214119 164.88318440318108 27.743174210190773 35.574626982212067 146.53808331489563 6.5448796600103369 8.5855212658643705 484.18351122736931 9.57354588806629
leaf_count=948 19 670 658 1781 125 66 3285 45 88 310 29 98 968 14 166 36 197 41 137 249 362 198 412 138 102 696 17 51 989 48
internal_value=-3.26532e-06 -0.00751979 -0.013173 -0.0187104 -0.00718673 -0.000741305 -0.026257 -0.0356696 -0.0148525 0.00761596 -0.00365994 0.0169193 -0.0234418 -0.030514 -0.000368894 -0.0157658 0.0100464 -0.0306468 -0.0019709 0.00829089 -0.011028 0.0209269 0.0150402 -0.0337533 0.0116643 -0.0144841 -0.0348416 0.0241132 0.0362189 0.0247751
internal_weight=2834.16 2347.1 2051.69 1419.44 561.705 632.255 857.733 469.903 387.83 462.123 258.256 277.039 170.132 147.537 339.177 136.859 202.318 284.666 131.985 99.8572 217.219 259.465 205.207 269.71 42.3152 203.355 56.8168 28.7146 487.052 174.457
internal_count=12943 11935 11265 8413 2841 2852 5572 3432 2140 1804 1192 881 1048 982 1494 745 749 1960 583 386 1104 756 658 1919 147 1075 379 87 1008 460
is_linear=0
shrinkage=0.03


Tree=21
num_leaves=31
num_cat=0
split_feature=3 43 217 4 160 17 3 100 75 69 62 18 77 95 85 41 3 3 97 97 82 77 17 15 63 200 43 85 16 82
split_gain=814.179 560.705 155.231 134.664 115.176 319.314 95.571 113.449 103.224 78.3725 82.365 81.7262 78.2394 75.0876 66.6183 65.8691 59.8151 53.9086 51.3861 50.7161 46.4284 44.5742 43.3439 42.7699 42.654 42.5222 68.8913 94.8167 41.1503 39.9923
threshold=2.2787377822798609 0.00034332275390625005 1.3378955602773854 -0.056307802106983947 0.75400000000000011 -0.027482030435750416 -0.34850111809513779 0.36181818181818187 -0.38663673361029399 -0.70923390614623671 0.078379387032633002 1.0000000180025095e-35 -0.96764456108692831 -0.54581806756234907 -0.15531417762036862 1.0000000180025095e-35 -0.3411005007027198 1.4609644668424489 -0.0796705131848683 0.52130278510976613 -0.44202720758842023 -1.2904305982354514 0.67945090932999952 -0.35108934231210964 -0.53733216923050819 -0.66207388117500499 0.00054359436035156261 0.43136237157997709 1.9698073680197716 -0.64253513902272619
decision_type=2 2 2 2 2 2 2 2 2 2 2 2 2 2 2 2 2 2 2 2 2 2 2 2 2 2 2 2 2 2
left_child=1 2 4 9 6 17 8 28 -1 -4 14 -12 -10 18 20 22 -15 -6 -5 -16 23 -22 -7 -11 -23 -2 27 -27 -8 -14
right_child=25 -3 3 13 5 15 7 -9 12 10 11 -13 29 16 19 -17 -18 -19 -20 -21 21 24 -24 -25 -26 26 -28 -29 -30 -31
leaf_value=-0.036563855109449039 0.041085747240335799 0.031836332755827416 -0.044734782294420412 -0.035624591400988413 -0.035099379594550228 0.021623000529921051 -0.039859835468931973 0.022103267993621566 0.034627025131900475 -0.0031196282891907262 0.034986015990968289 -0.046807499719176075 0.038701910456683669 0.050607402625618768 -0.043247991120592355 -0.046464616534264945 -0.039253272031610789 0.005223207131926714 0.032513682668508639 0.024602486710206237 0.03990255981101188 -0.041109650472182901 -0.05013359568533389 0.043978760366045651 0.0012985705734540364 -0.07977434636251865 0.032127477006723013 0.023720295782502235 0.031063273493924775 -0.014108379258386209
leaf_weight=127.76539129018784 328.45000158250332 285.49092057347298 24.01558256149292 14.763960167765616 246.11014324426651 241.85502208769321 426.09900138527155 29.564818739891052 40.632922008633614 26.675107449293137 140.96290120482445 11.924291297793387 13.784005180001257 7.0453612208366385 43.759413704276085 14.46808387339115 124.05783549696207 33.95760814845562 30.620055243372917 12.819292858242987 20.064802825450897 27.647948637604713 7.8211103081703177 49.653557941317558 93.635974779725075 12.881420597434042 135.58261992037296 20.882275775074959 7.4922064095735541 202.54120594263077
leaf_count=948 616 647 181 97 1801 706 3317 87 88 116 328 75 29 11 304 106 918 152 76 36 43 176 50 98 391 91 304 54 22 1075
internal_value=-3.69889e-06 -0.0075171 -0.0130797 -0.000693493 -0.0186643 -0.00789337 -0.0255776 -0.0347572 -0.0145264 0.00799774 0.0109626 0.0286066 -0.00356892 -0.0229111 0.00112668 0.0157689 -0.0344242 -0.0302104 0.0103475 -0.0278748 0.00866474 -0.00151659 0.0193752 0.027519 -0.00836883 0.0347899 0.0225789 -0.0157647 -0.0386343 -0.0107434
internal_weight=2803.02 2305.23 2019.74 627.646 1392.09 544.212 847.88 463.156 384.724 451.159 427.143 152.887 256.958 176.487 274.256 264.144 131.103 280.068 45.384 56.5787 217.677 141.349 249.676 76.3287 121.284 497.796 169.346 33.7637 433.591 216.325
internal_count=12943 11878 11231 2850 8381 2815 5566 3426 2140 1748 1567 403 1192 1102 1164 862 929 1953 173 340 824 610 756 214 567 1065 449 145 3339 1104
is_linear=0
shrinkage=0.03


Tree=22
num_leaves=31
num_cat=0
split_feature=1 43 201 220 160 17 9 75 117 77 40 76 16 56 7 173 87 9 62 86 3 89 173 160 0 67 88 86 76 88
split_gain=782.766 524.238 138.698 104.502 100.54 318.769 106.623 102.722 100.674 65.6101 56.7278 53.5345 62.2949 53.2335 52.7033 52.3448 51.5634 51.2572 50.0335 55.5385 51.2265 48.2193 46.1582 40.8009 89.0905 40.584 63.0041 37.8555 33.796 33.2461
threshold=2.3020805535497666 1.0000000180025095e-35 0.93843881854442412 -0.98918887330528271 0.75400000000000011 -0.027482030435750416 -0.31385595004921041 -0.38663673361029399 1.0000000180025095e-35 -0.99280599291796967 -1.0000000180025095e-35 0.031081919239997941 -0.44212774256099957 0.035545349121093757 0.17531248481407694 0.029973290616031024 -0.65572165219855982 0.55647531040582898 0.064482275252145158 -0.4132206567621019 -0.69283004155754291 -0.52477257896259888 6.4183893125470325e-17 0.85272952853598027 0.27544403707388782 -0.17858775962848805 -0.21498060725707138 0.36925750455865264 -0.18566091738885199 -0.15275937372641896
decision_type=2 2 2 2 2 2 2 2 2 2 2 2 2 2 2 2 2 2 2 2 2 2 2 2 2 2 2 2 2 2
left_child=1 2 4 -4 6 13 7 25 -8 -9 -7 16 27 15 18 -6 -11 -17 19 -5 -20 -12 -3 -23 -25 -1 -27 -13 -21 -22
right_child=-2 22 3 14 5 10 8 9 -10 11 21 12 -14 -15 -16 17 -18 -19 20 28 29 23 -24 24 -26 26 -28 -29 -30 -31
leaf_value=-0.040252607365332378 0.035174914395699565 0.032923100841060884 -0.04025019741802438 0.014618085284822059 -0.03785972362236277 -0.044864253978514949 -0.036390239610387509 0.03164231378163046 0.011671042256561718 0.032975404780913903 -0.03089420602977816 -0.029818795381888471 0.013533156535443009 0.044070134000259581 -0.035281193538781293 -0.03120949563120571 -0.039228524521237727 0.036897226992000244 -0.046998311831650971 -0.035870590548052854 0.040734675386600583 0.045398623328323326 -0.031660347091451102 -0.040519927202620196 0.022779108179557132 0.044624326433540716 -0.043280783970404559 0.051810771596413521 -0.0030203580424346087 0.012707689130892314
leaf_weight=121.76053920388222 472.28832397609949 277.94599165022373 49.118374302983284 121.98781940340996 226.52171143889427 13.34341439604759 468.35345997661352 43.739235609769821 42.810974463820457 10.3103199750185 16.671092174947262 60.001099929213524 119.31880855560303 8.4847314357757551 26.31338557600975 22.216857805848122 65.143663465976715 18.00527960062027 9.2739135697483999 41.609999798238277 70.588281080126762 52.204005599021912 10.329922243952749 22.571069046854973 176.46734037995338 14.145705178380014 15.247987322509287 5.58930380642414 87.365999005734921 82.74166864156723
leaf_count=940 1008 615 374 427 1723 100 3612 100 149 26 100 382 413 16 191 156 462 54 69 273 141 88 55 143 486 37 118 10 388 287
internal_value=-3.90454e-06 -0.00722705 -0.0126484 0.0012523 -0.0171118 -0.00695375 -0.022961 -0.0124022 -0.032365 -0.00235548 0.0155072 -0.00806687 0.000622931 -0.0299066 0.00588658 -0.0322597 -0.0293623 -0.000721793 0.0085059 0.000106695 0.0214693 0.018514 0.0306089 0.0217924 0.015601 -0.0326149 -0.000976478 -0.0228627 -0.0136184 0.0256104
internal_weight=2772.47 2300.18 2011.91 488.999 1522.91 556.486 966.421 455.257 511.164 304.102 281.257 260.363 184.909 275.229 439.881 266.744 75.454 40.2221 413.568 250.964 162.604 267.914 288.276 251.242 199.038 151.154 29.3937 65.5904 128.976 153.33
internal_count=12943 11935 11265 2150 9115 2866 6249 2488 3761 1393 917 1293 805 1949 1776 1933 488 210 1585 1088 497 817 670 717 629 1095 155 392 661 428
is_linear=0
shrinkage=0.03


Tree=23
num_leaves=31
num_cat=0
split_feature=1 43 217 0 160 17 3 100 75 64 95 77 97 75 97 88 75 4 97 15 55 173 173 9 82 76 82 15 160 0
split_gain=747.779 499.326 138.27 136.098 117.829 302.354 90.7247 106.698 95.117 88.1422 77.9297 71.0387 65.7522 62.751 78.2901 61.7904 63.1412 55.1894 48.6317 46.4915 45.7595 42.095 39.1294 49.4858 36.5686 36.95 43.7499 40.3863 35.6032 120.791
threshold=2.3020805535497666 0.00034332275390625005 1.3378955602773854 -0.085723472769701312 0.75400000000000011 -1.0000000180025095e-35 -0.34850111809513779 0.36181818181818187 -0.38663673361029399 0.24336341617499138 -0.4944343349463754 -0.96764456108692831 -0.33471971817709029 -0.34584588684938528 0.69266604722650726 -0.33500552652014809 -0.022584040264897052 3.4225891156518009 -0.0796705131848683 -0.37947817961727609 0.0070529533951258954 6.4183893125470325e-17 0.014226783071866691 0.55647531040582898 -0.64253513902272619 0.031081919239997941 0.10390302720778062 -0.37776276892312993 0.83130081300813019 0.2310660576566175
decision_type=2 2 2 2 2 2 2 2 2 2 2 2 2 2 2 2 2 2 2 2 2 2 2 2 2 2 2 2 2 2
left_child=1 2 4 9 6 17 8 -8 -1 13 18 -10 -7 14 -4 -15 -17 20 -5 -18 22 -3 -6 -24 -13 -26 27 -27 -14 -30
right_child=-2 21 3 10 5 12 7 -9 11 -11 -12 24 28 15 -16 16 19 -19 -20 -21 -22 -23 23 -25 25 26 -28 -29 29 -31
leaf_value=-0.035503734646666819 0.034663123953389323 0.032522201239332457 -0.037503179255909083 -0.034575626157191085 -0.039153641329287496 -0.041135178384568177 -0.037741786875127865 0.021356266788524449 0.033332611988433708 0.030072304392092544 -0.03568426135580112 0.037242438103213094 0.041417678412641538 0.025286987012806763 0.023740054785106046 -0.040047159386476787 -0.026855909556548867 0.044259706041380187 0.032065811274639096 0.020216821523468948 0.027576792756241642 -0.030038667465528395 -0.035680774906893774 0.033148750629497396 -0.034580189330749973 -0.041934292478882959 0.023018886267594015 -0.0027882265408602966 -0.041031900879775561 0.023488677672698612
leaf_weight=124.03536313772202 464.99440357089043 271.77741933614016 68.288952559232712 14.603157073259352 215.5419549793005 17.25163172930479 421.33703298866749 29.414362072944641 39.830082580447197 119.92669530212879 124.75410190969706 13.640148907899855 52.422242030501366 106.07334451377392 25.91505878418684 34.956256538629532 26.129337802529335 8.9323026388883573 30.313082620501518 68.092941790819168 11.277110904455183 10.037323996424673 22.01696302741766 16.406258106231689 54.598286867141724 34.525599420070648 36.071514710783958 75.781323850154877 30.796804741024971 171.75966621935368
leaf_count=948 1008 608 484 98 1691 126 3348 87 88 296 924 29 98 290 81 235 155 18 77 212 34 53 164 53 383 256 105 331 205 458
internal_value=-4.50418e-06 -0.00708564 -0.0123667 -0.000592423 -0.0176653 -0.00684903 -0.0247924 -0.0338853 -0.0139633 0.00805086 -0.0234847 -0.00346305 0.0155468 3.4737e-05 -0.0206555 0.0083199 -0.00561241 -0.0290861 0.0103994 0.0071628 -0.0315561 0.030294 -0.0341818 -0.00629139 -0.0102918 -0.013518 -0.00566187 -0.0150408 0.0193819 0.0136789
internal_weight=2741.5 2276.51 1994.69 619.053 1375.64 546.405 829.234 450.751 378.482 449.383 169.67 254.447 272.23 329.456 94.204 235.252 129.179 274.175 44.9162 94.2223 265.242 281.815 253.965 38.4232 214.617 200.977 146.378 110.307 254.979 202.556
internal_count=12943 11935 11274 2852 8422 2847 5575 3435 2140 1753 1099 1192 887 1457 565 892 602 1960 175 367 1942 661 1908 217 1104 1075 692 587 761 663
is_linear=0
shrinkage=0.03


Tree=24
num_leaves=31
num_cat=0
split_feature=1 43 217 0 160 17 3 100 75 64 95 77 97 75 97 88 75 4 85 56 15 169 89 16 76 15 160 0 233 88
split_gain=714.638 476.222 132.992 129.446 115.394 291.208 90.4152 103.627 91.2707 83.6227 74.4766 67.4993 62.2084 59.5389 74.5355 58.4475 60.011 52.6573 48.8197 47.7237 43.8918 37.0981 35.4825 34.2772 38.7011 33.9194 33.5202 99.58 33.2912 33.2131
threshold=2.3020805535497666 1.0000000180025095e-35 1.3378955602773854 -0.085723472769701312 0.75400000000000011 -1.0000000180025095e-35 -0.34850111809513779 0.36181818181818187 -0.38663673361029399 0.24336341617499138 -0.4944343349463754 -0.96764456108692831 -0.33471971817709029 -0.34584588684938528 0.69266604722650726 -0.33500552652014809 -0.022584040264897052 3.4225891156518009 -0.66099862977624235 0.035545349121093757 -0.37947817961727609 1.0000000180025095e-35 -0.52477257896259888 -0.49304491234247866 -0.16471508818476613 4.2458026708464116 0.94045454545454554 0.27544403707388782 -2.0188343638723065e-17 -0.21498060725707138
decision_type=2 2 2 2 2 2 2 2 2 2 2 2 2 2 2 2 2 2 2 2 2 2 2 2 2 2 2 2 2 2
left_child=1 2 4 9 6 17 8 -8 -1 13 18 -10 -7 14 -4 -15 -17 19 -5 -6 -18 -3 -14 -13 -25 -2 -24 -28 -11 -26
right_child=25 21 3 10 5 12 7 -9 11 28 -12 23 22 15 -16 16 20 -19 -20 -21 -22 -23 26 24 29 -27 27 -29 -30 -31
leaf_value=-0.034966416871129252 0.019083727561058174 0.031511451355098787 -0.03682352702322253 -0.045013257657849658 -0.033475813198924287 -0.040328413266997785 -0.037583318695798833 0.020775737667838166 0.032688733184687999 -0.050875242265715499 -0.035088519275920008 -0.043469755646741638 -0.027129306830258295 0.024653892009063722 0.02308473987883854 -0.039244548945448189 -0.026193088901115665 0.043332557293237192 0.028012618349884687 0.037227658363948236 0.019644751921865707 -0.032759741473259621 0.043709141267571971 -0.034969657716177438 0.020438863055599787 0.038589361476406896 -0.039510481031457191 0.024683302216596398 0.032531272324897657 -0.0091097078972115671
