tree
version=v4
num_class=1
num_tree_per_iteration=1
label_index=0
max_feature_idx=239
objective=binary sigmoid:1
feature_names=gps_speed_residual__mean gps_speed_residual__std gps_speed_residual__min gps_speed_residual__max gps_speed_residual__median gps_speed_residual__q10 gps_speed_residual__q25 gps_speed_residual__q75 gps_speed_residual__q90 gps_speed_residual__range gps_speed_residual__first gps_speed_residual__last gps_speed_residual__last_minus_first gps_speed_residual__linear_slope gps_speed_residual__diff_mean gps_speed_residual__diff_std gps_speed_residual__diff_abs_max gps_speed_residual__lag1_autocorrelation gps_speed_residual__missing_fraction gps_speed_residual__stale_fraction alt_baro_residual__mean alt_baro_residual__std alt_baro_residual__min alt_baro_residual__max alt_baro_residual__median alt_baro_residual__q10 alt_baro_residual__q25 alt_baro_residual__q75 alt_baro_residual__q90 alt_baro_residual__range alt_baro_residual__first alt_baro_residual__last alt_baro_residual__last_minus_first alt_baro_residual__linear_slope alt_baro_residual__diff_mean alt_baro_residual__diff_std alt_baro_residual__diff_abs_max alt_baro_residual__lag1_autocorrelation alt_baro_residual__missing_fraction alt_baro_residual__stale_fraction alt_local_residual__mean alt_local_residual__std alt_local_residual__min alt_local_residual__max alt_local_residual__median alt_local_residual__q10 alt_local_residual__q25 alt_local_residual__q75 alt_local_residual__q90 alt_local_residual__range alt_local_residual__first alt_local_residual__last alt_local_residual__last_minus_first alt_local_residual__linear_slope alt_local_residual__diff_mean alt_local_residual__diff_std alt_local_residual__diff_abs_max alt_local_residual__lag1_autocorrelation alt_local_residual__missing_fraction alt_local_residual__stale_fraction attitude_error_mag__mean attitude_error_mag__std attitude_error_mag__min attitude_error_mag__max attitude_error_mag__median attitude_error_mag__q10 attitude_error_mag__q25 attitude_error_mag__q75 attitude_error_mag__q90 attitude_error_mag__range attitude_error_mag__first attitude_error_mag__last attitude_error_mag__last_minus_first attitude_error_mag__linear_slope attitude_error_mag__diff_mean attitude_error_mag__diff_std attitude_error_mag__diff_abs_max attitude_error_mag__lag1_autocorrelation attitude_error_mag__missing_fraction attitude_error_mag__stale_fraction control_strain__mean control_strain__std control_strain__min control_strain__max control_strain__median control_strain__q10 control_strain__q25 control_strain__q75 control_strain__q90 control_strain__range control_strain__first control_strain__last control_strain__last_minus_first control_strain__linear_slope control_strain__diff_mean control_strain__diff_std control_strain__diff_abs_max control_strain__lag1_autocorrelation control_strain__missing_fraction control_strain__stale_fraction innovation_check_flags_bit_count__mean innovation_check_flags_bit_count__std innovation_check_flags_bit_count__min innovation_check_flags_bit_count__max innovation_check_flags_bit_count__median innovation_check_flags_bit_count__q10 innovation_check_flags_bit_count__q25 innovation_check_flags_bit_count__q75 innovation_check_flags_bit_count__q90 innovation_check_flags_bit_count__range innovation_check_flags_bit_count__first innovation_check_flags_bit_count__last innovation_check_flags_bit_count__last_minus_first innovation_check_flags_bit_count__linear_slope innovation_check_flags_bit_count__diff_mean innovation_check_flags_bit_count__diff_std innovation_check_flags_bit_count__diff_abs_max innovation_check_flags_bit_count__lag1_autocorrelation innovation_check_flags_bit_count__missing_fraction innovation_check_flags_bit_count__stale_fraction gps_check_fail_flags_bit_count__mean gps_check_fail_flags_bit_count__std gps_check_fail_flags_bit_count__min gps_check_fail_flags_bit_count__max gps_check_fail_flags_bit_count__median gps_check_fail_flags_bit_count__q10 gps_check_fail_flags_bit_count__q25 gps_check_fail_flags_bit_count__q75 gps_check_fail_flags_bit_count__q90 gps_check_fail_flags_bit_count__range gps_check_fail_flags_bit_count__first gps_check_fail_flags_bit_count__last gps_check_fail_flags_bit_count__last_minus_first gps_check_fail_flags_bit_count__linear_slope gps_check_fail_flags_bit_count__diff_mean gps_check_fail_flags_bit_count__diff_std gps_check_fail_flags_bit_count__diff_abs_max gps_check_fail_flags_bit_count__lag1_autocorrelation gps_check_fail_flags_bit_count__missing_fraction gps_check_fail_flags_bit_count__stale_fraction filter_fault_flags_bit_count__mean filter_fault_flags_bit_count__std filter_fault_flags_bit_count__min filter_fault_flags_bit_count__max filter_fault_flags_bit_count__median filter_fault_flags_bit_count__q10 filter_fault_flags_bit_count__q25 filter_fault_flags_bit_count__q75 filter_fault_flags_bit_count__q90 filter_fault_flags_bit_count__range filter_fault_flags_bit_count__first filter_fault_flags_bit_count__last filter_fault_flags_bit_count__last_minus_first filter_fault_flags_bit_count__linear_slope filter_fault_flags_bit_count__diff_mean filter_fault_flags_bit_count__diff_std filter_fault_flags_bit_count__diff_abs_max filter_fault_flags_bit_count__lag1_autocorrelation filter_fault_flags_bit_count__missing_fraction filter_fault_flags_bit_count__stale_fraction timeout_flags_bit_count__mean timeout_flags_bit_count__std timeout_flags_bit_count__min timeout_flags_bit_count__max timeout_flags_bit_count__median timeout_flags_bit_count__q10 timeout_flags_bit_count__q25 timeout_flags_bit_count__q75 timeout_flags_bit_count__q90 timeout_flags_bit_count__range timeout_flags_bit_count__first timeout_flags_bit_count__last timeout_flags_bit_count__last_minus_first timeout_flags_bit_count__linear_slope timeout_flags_bit_count__diff_mean timeout_flags_bit_count__diff_std timeout_flags_bit_count__diff_abs_max timeout_flags_bit_count__lag1_autocorrelation timeout_flags_bit_count__missing_fraction timeout_flags_bit_count__stale_fraction attitude_missing__mean attitude_missing__std attitude_missing__min attitude_missing__max attitude_missing__median attitude_missing__q10 attitude_missing__q25 attitude_missing__q75 attitude_missing__q90 attitude_missing__range attitude_missing__first attitude_missing__last attitude_missing__last_minus_first attitude_missing__linear_slope attitude_missing__diff_mean attitude_missing__diff_std attitude_missing__diff_abs_max attitude_missing__lag1_autocorrelation attitude_missing__missing_fraction attitude_missing__stale_fraction battery_missing__mean battery_missing__std battery_missing__min battery_missing__max battery_missing__median battery_missing__q10 battery_missing__q25 battery_missing__q75 battery_missing__q90 battery_missing__range battery_missing__first battery_missing__last battery_missing__last_minus_first battery_missing__linear_slope battery_missing__diff_mean battery_missing__diff_std battery_missing__diff_abs_max battery_missing__lag1_autocorrelation battery_missing__missing_fraction battery_missing__stale_fraction gps_health_missing__mean gps_health_missing__std gps_health_missing__min gps_health_missing__max gps_health_missing__median gps_health_missing__q10 gps_health_missing__q25 gps_health_missing__q75 gps_health_missing__q90 gps_health_missing__range gps_health_missing__first gps_health_missing__last gps_health_missing__last_minus_first gps_health_missing__linear_slope gps_health_missing__diff_mean gps_health_missing__diff_std gps_health_missing__diff_abs_max gps_health_missing__lag1_autocorrelation gps_health_missing__missing_fraction gps_health_missing__stale_fraction
feature_infos=[-0.63326590566201046:21.011633906554593] [-0.67952062228243115:144.91397477166203] [-0.39102471375219167:691.4995679520033] [-0.67782336102965324:698.61422118508597] [-0.59190330636769495:21.942594751436388] [-0.58318588432013296:88.022189319143649] [-0.59213785230396365:43.395972684228056] [-0.65997080299056732:14.45960243769427] [-0.69283737960169733:21.767930419328145] [-0.67809484626753336:735.78587174377265] [-0.45243992955959944:116.17039358897404] [-0.49674880425206158:269.32507960830839] [-206.49717222630866:502.35964951412984] [-96.547335187212681:106.3881219231961] [-890.57389681797213:1676.6112607495172] [-0.56495391392409933:251.18019817522429] [-0.60536779415759001:1441.4754144808376] [-8.4762082921710515:0.83013634023213212] [0:1] [0:1] [-0.61386347298670296:0.62910908400410359] [-0.43543716227909268:0.34372986571853814] [-1.4605331420898438:1.0015716552734375] [-1.250457763671875:0.8133697509765625] [-0.61705780029296875:0.64899444580078125] [-0.76434020996093754:0.72527008056640629] [-0.60605239868164062:0.69399261474609375] [-0.55214118957519531:0.57114028930664062] [-0.74097595214843748:0.47996978759765641] [-2.2002410888671875:1.9882659912109375] [-1.7451400756835938:1.42791748046875] [-1.9744644165039062:1.8083038330078125] [-1.8871536254882812:2.680572509765625] [-0.14992676052310017:0.20823170638817437] [-0.02465840928588775:0.49658323793995135] [-0.55221499976902266:0.1360884219295373] [-1.359527587890625:0.765594482421875] [-1.1906372049464171:0.52713523431300624] [-1:0] [-1:0] [-0.17419281005859374:0.088634033203125004] [0:0.034891914545334531] [-0.20052337646484375:0.069854736328125] [-0.13787078857421875:0.1273956298828125] [-0.183837890625:0.085552215576171875] [-0.19463729858398438:0.073812103271484381] [-0.19233512878417969:0.078821182250976562] [-0.15450286865234375:0.096231460571289062] [-0.14282150268554689:0.109588623046875] [0:0.20323944091796875] [-0.1702728271484375:0.10822296142578125] [-0.20052337646484375:0.1253509521484375] [-0.09930419921875:0.0932464599609375] [-0.0098577784949246457:0.0090575852221401725] [-0.0023345947265625:0.0019153594970703126] [0:0.031893251832386414] [0:0.13076400756835938] [-1.1787098116615753:0.48044011017232002] [0:0.125] none [-1.0862412520431379:61.295951652573422] [-1.0116298228983174:29.614402409656645] [-0.71641992529625131:218.63207414869456] [-0.97243057216353812:17.786537400892993] [-0.96924295971707619:68.704004387225879] [-0.90632153128096138:120.39375332659071] [-1.0166353016878136:97.365500463252545] [-0.9701445437046875:45.587326176653796] [-0.96649526088881521:30.946281613766573] [-0.96282761363424019:17.381594065082265] [-0.80230499999147986:52.451965884735969] [-0.76640867414822189:45.279811330794821] [-58.44370767295176:23.133723702524108] [-128.74669404539821:50.434073386131402] [-240.71330632703334:461.1523925397309] [-0.91402482218295733:14.328662447802017] [-0.93359734123690796:14.282266424072768] [-4.295962471487802:0.76897203296606509] none none [-0.96638191251640715:24.285769839363194] [-0.90436051017026986:11.664802494956382] [-0.63618662995835462:88.055222395824202] [-0.82177554228829375:17.832909060041874] [-0.89040087803990342:30.34060816092526] [-0.82269381430679878:65.143169922366425] [-0.83538608977779361:45.623868517608592] [-0.92821080303862391:20.241072675532486] [-0.92519261644284601:14.702087187100121] [-0.79872938047455444:17.893288424342526] [-0.57909516276703743:69.740603053539004] [-0.62261800344528195:24.931826564528397] [-74.225797556564288:25.56922268250975] [-54.550544041158297:91.942620594565085] [-318.66536581551122:265.7182204351667] [-1.0370749427324517:18.428619811907147] [-0.84286434906302954:26.383803088599514] [-3.7365654167972431:1.26270236469632] none none [0:2.7474747474747474] [0:0.92489075897047257] [0:2] [0:4] [0:3] [0:2] [0:2] [0:4] [0:4] [0:3] [0:3] [0:4] [-1:2] [-0.14897632510875375:0.28228807033327802] [-0.022222222222222223:0.032258064516129031] [0:0.30323921743156135] [0:2] [-0.92962635116998082:0.084652304563980985] none none [0:4.580645161290323] [0:1.6514094551902176] [0:4] [0:5] [0:5] [0:4] [0:4] [0:5] [0:5] [0:5] [0:5] [0:5] [-4:3] [-1.7633971524326812:0.66437526091544918] [-0.5:0.055555555555555552] [0:1.7320508075688772] [0:5] [-0.98806734020865172:0.26417181399492573] none none none none none none none none none none none none none none none none none none none none none none [0:1.2711864406779663] [0:1.8510802935469206] [0:1.5] [0:1.2] [0:1.2] [0:1.5] [0:1.2] [0:1.2] [0:1.2] [0:6] [0:1.2] [0:1.2] [-5:5] [-1.4500242723469576:0.99854212849239243] [-1:1] [0:2.6726124191242437] [0:6] [-1.2833333333333332:0.04807718237635128] none none none none none none none none none none none none none none none none none none none none none none [-4.7710843373493947:12.158039052762769] [-13.435431933572959:3.2326418367324328] none [-1:0] [0:1] none none [0:1] [-1:0] [-1:0] [0:1] [0:1] [-1:1] [-53.619835533223963:140.50044229991167] [-0.047619047619047616:0.125] [-18.104902728368472:7.9004308439104198] [-1:0] [-2.7517914012738816:5.9735319191175051] none none [-1:0] [0:0.49888765156985887] [-1:0] [-1:0] [-1:0] [-1:0] [-1:0] [-1:0] [-1:0] [0:1] [-1:0] [-1:0] [-1:1] [-0.89297289878240615:1.2583873346931298] [-0.052631578947368418:0.16666666666666666] [0:0.70710678118654757] [0:1] [-0.58420193801942166:0.69113437513301768] none none
tree_sizes=3467 3466 3470 3477 3488 3477

Tree=0
num_leaves=31
num_cat=0
split_feature=16 18 95 95 200 2 65 103 235 17 162 0 62 4 41 63 200 85 217 97 87 95 0 162 15 84 3 77 87 77
split_gain=2433.83 726.205 470.59 353.957 305.794 355.112 164.322 153.78 130.735 126.715 558.703 200.46 186.974 185.419 117.101 100.565 94.4173 91.4463 77.7913 75.5188 125.827 73.1881 70.6697 69.2405 68.9383 160.9 65.8461 62.3108 58.9539 57.5273
threshold=2.6367630897448455 1.0000000180025095e-35 -0.69401170498662046 -0.96577606852843145 1.1363679820496555 55.279646564693117 0.47843650602350346 1.5000000000000002 0.37662889276481404 0.082972567439932435 1.1250000000000002 0.085983010387900391 -0.10514652134352277 0.11956242600465795 0.006874899442070561 1.3826110707591053 2.543440629989838 -0.76590547287077693 0.30479958310554062 0.50488521414422471 -0.13016307434148236 -0.23415773824974442 0.27991020418999751 1.0000000180025095e-35 -0.26475469871292995 -0.50186929416022141 -0.30179960851545357 -0.57379321694796348 2.4242147132693979 -0.30192632739326303
decision_type=2 2 2 2 2 2 2 2 2 2 2 2 2 2 2 2 2 2 2 2 2 2 2 2 2 2 2 2 2 2
left_child=1 2 3 -1 5 9 19 8 -3 13 11 12 -11 15 -2 24 -10 -5 26 20 21 -6 -12 -16 25 -4 -14 -27 -13 -23
right_child=14 7 4 17 6 -7 -8 -9 16 10 22 28 18 -15 23 -17 -18 -19 -20 -21 -22 29 -24 -25 -26 27 -28 -29 -30 -31
leaf_value=-0.055459061203521558 0.056672706828048543 -0.054859673791226686 -0.052650702898995143 -0.059999970592654536 -0.010135911558486381 0.054481807042388725 0.052951405500687804 0.060000029407345459 0.054684645251384563 -0.033451801751692205 -0.044015393899165568 -0.058586060905352601 0.019501560672151464 -0.05209532992397703 0.047988006772317494 0.03523542082249867 -0.059999970592654536 0.052976471686068151 0.041787178512620239 0.044351393528639212 -0.052238268251507375 0.046932684900550345 0.039611893007885188 -0.059999970592654529 -0.045246826541543196 0.040302817437843932 -0.035082882773413593 -0.0085473537658866776 0.060000029407345459 -0.013244725595693091
leaf_weight=34.018912672996521 570.65203487873077 420.72963547706604 52.548364818096161 6.6704220771789542 94.487743079662323 57.347676932811737 76.587830066680908 11.585759997367857 17.510617136955265 206.56514698266983 9.6641157865524274 163.88260298967361 42.747473478317261 244.28181880712509 9.2982499003410339 30.818996548652649 10.238322257995604 193.47809821367264 50.082298636436462 33.307930648326874 39.804876089096069 51.283926069736481 154.30332332849503 12.565213680267334 78.530786097049713 41.582828164100647 37.197798013687134 54.041612863540649 3.8619199991226187 19.823675394058228
leaf_count=213 964 2624 323 43 417 102 141 18 31 1108 56 1047 137 1496 19 79 66 356 115 73 244 107 368 81 459 98 202 235 6 90
internal_value=3.02896e-08 -0.0143195 -0.00562204 0.0340052 -0.0116369 -0.0184062 0.0147162 -0.0479122 -0.0506999 -0.0219785 -0.0134238 -0.029064 -0.015712 -0.0333716 0.0540622 -0.0156105 0.0123703 0.0492113 0.0124699 0.00244872 -0.00434627 0.00716574 0.034683 -0.0140741 -0.0225227 -0.0104791 -0.00589608 0.0126954 -0.0558559 0.0301562
internal_weight=2829.5 2236.98 1776.92 234.167 1542.75 1227.46 315.296 460.064 448.479 1170.11 668.305 504.337 336.593 501.804 592.515 257.523 27.7489 200.149 130.028 238.708 205.4 165.595 163.967 21.8635 226.704 148.173 79.9453 95.6244 167.745 71.1076
internal_count=11318 10254 7515 612 6903 5831 1072 2739 2721 5729 3039 2615 1562 2690 1064 1194 97 399 454 931 858 614 424 100 1115 656 339 333 1053 197
is_linear=0
shrinkage=1


Tree=1
num_leaves=31
num_cat=0
split_feature=16 95 75 15 77 85 160 9 65 77 115 68 46 86 97 77 80 47 80 200 97 95 200 76 15 95 65 2 75 76
split_gain=2291.75 440.739 569.455 510.198 381.888 331.411 263.485 447.899 196.581 158.3 150.096 158.706 109.153 106.725 106.618 104.427 122.042 103.536 99.3408 95.166 75.5159 65.1865 74.9002 61.9921 62.8964 74.0353 59.8933 59.1211 58.8666 55.9268
threshold=2.6367630897448455 -0.58716792411477214 -0.78959622781232797 -0.16778326026374243 -0.67255311555553987 -0.3903150427962368 1.0498107249519681 0.59681604070957406 0.3014848678729925 -0.57379321694796348 0.14471640865970439 1.7895407444100309 -0.0088806152343749983 1.0000000180025095e-35 -0.41956286091669487 -0.33099114579109096 -0.55643967601665589 0.001269340515136719 -0.90391769999419258 1.3878640066338221 -0.25662493888858878 0.86676976413300155 -0.19444681460040061 0.054164899954196925 0.36272856198702169 -0.37275588211966709 -0.58751701919223176 37.557623418806038 -0.38300599248045225 2.3546459007582867
decision_type=2 2 2 2 2 2 2 2 2 2 2 2 2 2 2 2 2 2 2 2 2 2 2 2 2 2 2 2 2 2
left_child=1 2 -1 5 26 15 10 28 9 -7 11 -5 -2 -10 27 16 19 -14 -6 -3 -13 -15 -23 24 -16 -26 -4 -9 -8 -11
right_child=12 3 4 6 18 8 7 14 13 29 -12 20 17 21 23 -17 -18 -19 -20 -21 -22 22 -24 -25 25 -27 -28 -29 -30 -31
leaf_value=-0.058485599513843391 -0.058252940205973054 -0.050061695121319361 -0.046234261496676636 -0.053075935141791049 -0.058308566421816976 0.034828137085048921 0.020474893109756032 -0.055142624489281832 -0.038742003470048816 -0.021392757612733997 0.025809438017032123 0.05777491194227026 0.055873626191050178 0.053912468480681416 0.045411696695310887 -0.047609053844924802 0.024862337824938258 -0.030313689858848969 0.047526517644189498 0.0146730412305137 -0.024396079983613646 0.051115432506500857 -0.040307191078659231 0.04803955136326938 0.049413542765469561 -0.036098384190793704 0.0036021837762185318 0.056153924029725771 -0.049131967746965793 0.029951036626604099
leaf_weight=84.169810146093369 7.9043145775794974 69.034967139363289 53.85765266418457 578.99497425556183 8.2147524654865247 76.142421424388885 11.59559044241905 22.656352505087856 14.976873397827147 180.08984172344208 25.141562297940254 16.240505740046501 571.31063394248486 136.16915319859982 27.550335809588432 126.82136723399162 55.221760854125023 12.825946673750876 281.69460348784924 29.034487947821617 26.473988711833954 16.525155052542686 15.754277512431143 79.346176654100418 12.665631562471388 32.480278447270393 36.352544888854027 5.3005512356758109 191.85871364176273 21.357964262366295
leaf_count=543 51 420 319 3606 53 195 37 143 84 881 74 26 946 239 58 758 164 67 570 99 133 31 89 159 25 178 140 9 1162 59
internal_value=5.41735e-09 -0.0138979 0.0121199 -0.0207172 0.027754 -0.00173418 -0.0343722 -0.0146678 0.0139033 -0.00202106 -0.0460529 -0.048959 0.0524828 0.0380027 0.0198031 -0.0274707 -0.0108098 0.0539812 0.0445276 -0.0308963 0.00684621 0.0448261 0.00649577 0.0297038 0.00969067 -0.0121081 -0.0261514 -0.0340411 -0.0451648 -0.0159492
internal_weight=2827.76 2235.72 464.289 1771.43 380.12 741.128 1030.3 383.454 461.016 277.59 646.851 621.709 592.041 183.425 179.999 280.113 153.291 584.137 289.909 98.0695 42.7145 168.449 32.2794 152.042 72.6962 45.1459 90.2102 27.9569 203.454 201.448
internal_count=11318 10254 1625 8629 1082 3019 5610 1771 1578 1135 3839 3765 1064 443 572 1441 683 1013 623 519 159 359 120 420 261 203 459 152 1199 940
is_linear=0
shrinkage=0.03


Tree=2
num_leaves=31
num_cat=0
split_feature=16 18 95 75 200 2 65 103 68 95 64 85 236 95 41 76 9 1 7 76 97 175 62 95 4 160 217 77 80 61
split_gain=2161.02 654.737 421.08 332.072 275.936 320.551 147.7 140.127 120.264 136.993 208.206 112.195 109.042 184.943 103.964 86.5115 86.2357 85.7608 82.607 100.852 91.0381 77.0663 73.3213 72.1728 78.2286 62.4154 60.7937 91.0979 59.9723 70.6896
threshold=2.6367630897448455 1.0000000180025095e-35 -0.69401170498662046 -0.78959622781232797 1.1363679820496555 55.279646564693117 0.51295916089524474 1.5000000000000002 1.1292901941765729 -0.18388085672520357 -0.70230156517462128 -0.76590547287077693 1.0000000180025095e-35 -0.55609908087843329 0.006874899442070561 -0.48003742055692178 -0.53707004987779416 2.84549066858844 -0.40676582653297388 -0.48003742055692178 0.47757107184947684 0.087784472896921872 -0.35734077945470472 -0.40384094078183125 0.83742014592839698 0.70225077455804641 0.053201300424626299 0.20544900217296078 0.029746012467833417 -0.53087802722890831
decision_type=2 2 2 2 2 2 2 2 2 2 2 2 2 2 2 2 2 2 2 2 2 2 2 2 2 2 2 2 2 2
left_child=1 2 3 -1 5 8 18 12 9 10 -4 -5 -3 -14 -2 16 -12 26 19 -6 -20 22 -10 -17 28 -16 -11 -28 29 -25
right_child=14 7 4 11 6 -7 -8 -9 21 17 15 -13 13 -15 25 23 -18 -19 20 -21 -22 -23 -24 24 -26 -27 27 -29 -30 -31
leaf_value=-0.056960504659089688 0.053492126454507211 -0.056230454821884608 -0.041760618306132799 -0.057072086300763408 -0.022026274106850843 0.051962570429353802 0.050973844244726965 0.057658838859792783 -0.044800159519830414 -0.042186257920596368 0.04097420040692825 0.051468697502754929 0.03376797277733156 -0.050422671571831598 0.045715036331918639 0.032010530585370442 -0.04077326900898437 0.029317551912739 -0.033322686683619915 0.032386912943115805 0.045715539107246836 -0.049884709512033269 0.022538988912580268 0.032614296973989834 -0.04892126902025621 -0.05693409618458678 -0.0055133479096686573 -0.052334222168600536 0.041909537996121793 -0.03290311415904535
leaf_weight=32.322863712906837 568.86512251198292 343.86354693770409 138.96405434608459 8.9707857370376569 43.287094920873642 57.218516483902931 74.661822766065598 11.565634667873381 16.806793957948685 402.66780109703541 14.386330619454382 192.29510045051575 36.030865296721458 67.430555298924446 9.2802939265966415 95.125983461737633 60.267372086644173 18.780007377266884 76.032656908035278 105.06204004585743 15.84979000687599 20.017622619867325 108.49463422596455 24.07818304002285 26.075294137001038 12.528143629431725 114.57936054468155 55.523528173565865 33.718557015061378 38.551426380872726
leaf_count=209 964 2210 806 58 213 102 136 18 99 2343 33 345 94 417 19 255 345 52 412 278 33 123 332 64 159 81 488 346 76 208
internal_value=4.15712e-08 -0.0135001 -0.00523672 0.0322964 -0.0109292 -0.0173667 0.0141189 -0.0454402 -0.0207629 -0.0243915 -0.0115308 0.0466308 -0.0481058 -0.0211029 0.0510278 0.00284572 -0.0250199 -0.0337654 0.00266472 0.0165096 -0.0196885 0.00477459 0.0135067 0.012408 -0.00282361 -0.0132531 -0.0358338 -0.0207962 0.00965208 -0.00771471
internal_weight=2823.3 2232.63 1773.74 233.589 1540.15 1225.26 314.893 458.891 1168.04 1022.72 431.167 201.266 447.325 103.461 590.674 292.203 74.6537 591.551 240.232 148.349 91.8824 145.319 125.301 217.549 122.423 21.8084 572.771 170.103 96.3482 62.6296
internal_count=11318 10254 7515 612 6903 5831 1072 2739 5729 5175 1946 403 2721 511 1064 1140 378 3229 936 491 445 554 431 762 507 100 3177 834 348 272
is_linear=0
shrinkage=0.03


Tree=3
num_leaves=31
num_cat=0
split_feature=16 18 95 95 200 2 65 221 68 95 84 237 95 100 44 60 46 1 76 9 85 7 76 97 15 169 62 217 77 77
split_gain=2040.3 618.596 397.246 297.914 260.03 302.28 139.491 117.63 113.372 129.18 198.278 107.606 141.851 111.252 100.925 100.794 100.478 80.8356 78.6158 99.0216 77.8248 77.7938 94.9608 85.7654 67.2802 60.5724 68.0681 57.4846 86.0675 51.5741
threshold=2.6367630897448455 1.0000000180025095e-35 -0.69401170498662046 -0.96577606852843145 1.1363679820496555 55.279646564693117 0.51295916089524474 0.47172287614804848 1.1292901941765729 -0.18388085672520357 -0.49151131697004352 -0.0019766997708173246 -0.46646036827240855 1.4747474747474749 8.9645385742187514e-05 -0.40718141533164764 -0.0088806152343749983 2.84549066858844 -0.48003742055692178 -0.53066205905687169 -0.76590547287077693 -0.40676582653297388 -0.48003742055692178 0.47757107184947684 0.75169416789819232 1.0000000180025095e-35 -0.35734077945470472 0.053201300424626299 0.20544900217296078 -0.65155141474516232
decision_type=2 2 2 2 2 2 2 2 2 2 2 2 2 2 2 2 2 2 2 2 2 2 2 2 2 2 2 2 2 2
left_child=1 2 3 -1 5 8 21 11 9 10 15 12 -3 -13 16 -4 -2 27 19 -12 -5 22 -6 29 -20 26 -10 -11 -29 -23
right_child=14 7 4 20 6 -7 -8 -9 25 17 18 13 -14 -15 -16 -17 -18 -19 24 -21 -22 23 -24 -25 -26 -27 -28 28 -30 -31
leaf_value=-0.050944559019869606 -0.055179001415950717 0.039270913468993689 -0.049603198411381638 -0.055669617473544 -0.021372255468821589 0.050554965901052948 0.049591304434939962 0.049757482297611601 -0.043526579622072174 -0.041003520095633537 0.035524554045056222 -0.054692281520419141 -0.055568797610045129 0.0561551728216651 -0.039541196427001553 0.045060806199994592 0.052881476632401926 0.028459045288843625 0.018642678619112577 -0.041336340420886568 0.048891140788536132 0.0054378375574549781 0.031439413461253903 0.044416438620335445 -0.02950611143099361 -0.042166675667066944 0.021454036533854991 -0.0053483196942997217 -0.050898655768294797 -0.048525998278714025
leaf_weight=33.780464231967926 7.8510383963584891 28.413036346435547 121.55037806928158 6.6271717995405188 43.27356368303299 57.049712330102921 74.444110944867134 11.679871454834936 16.779972016811371 401.86565235257149 19.934679090976715 380.6050691306591 28.361642569303513 8.3272132277488691 11.193006455898283 11.042612224817274 569.46028935909271 18.766328394412994 185.65763540565968 62.016539767384529 192.42573712766171 22.758452400565147 104.98256389796734 15.824317440390585 30.395275369286537 21.24645522236824 107.17095690965652 114.57151105999947 55.378887087106705 53.196150451898575
leaf_count=213 51 67 752 43 213 102 136 22 99 2343 50 2453 184 13 63 24 950 52 598 360 356 87 278 33 162 125 330 488 346 325
internal_value=1.26263e-07 -0.0131221 -0.00508835 0.0314304 -0.0106172 -0.0168714 0.0137139 -0.0442243 -0.0201694 -0.0236962 -0.0112002 -0.0466871 -0.00810602 -0.052319 0.0496821 -0.0417194 0.0514119 -0.0328071 0.00237897 -0.0226399 0.0454099 0.00258694 0.0160245 -0.0191196 0.0118689 0.00463495 0.0126572 -0.0348178 -0.020191 -0.0323567
internal_weight=2816.63 2228.13 1770.74 232.833 1537.91 1223.43 314.479 457.387 1166.38 1021.18 430.597 445.707 56.7747 388.932 588.504 132.593 577.311 590.582 298.004 81.9512 199.053 240.035 148.256 91.7789 216.053 145.197 123.951 571.816 169.95 75.9546
internal_count=11318 10254 7515 612 6903 5831 1072 2739 5729 5175 1946 2717 251 2466 1064 776 1001 3229 1170 410 399 936 491 445 760 554 429 3177 834 412
is_linear=0
shrinkage=0.03


Tree=4
num_leaves=31
num_cat=0
split_feature=16 18 95 75 200 77 65 103 76 221 97 77 44 46 86 237 95 16 65 160 8 17 73 65 2 2 15 17 82 77
split_gain=1928.7 585.502 375.095 298.57 245.182 287.267 131.93 125.426 120.931 117.524 116.36 137.8 95.5009 95.0354 92.472 90.3079 135.962 87.3835 161.558 88.1963 92.4581 86.5121 71.0513 67.9075 64.6582 65.751 76.8733 62.0608 61.9697 55.4544
threshold=2.6367630897448455 1.0000000180025095e-35 -0.69401170498662046 -0.78959622781232797 1.1363679820496555 0.7156264162599163 0.47843650602350346 1.5000000000000002 2.3546459007582867 0.47172287614804848 0.43056080633163735 0.30870051752567801 8.9645385742187514e-05 -0.0088806152343749983 -0.77842545089296589 -0.0019766997708173246 -0.55137525186003089 -0.19659396578533764 -0.58151108472866808 1.0637775364088231 0.62181903647766046 0.54311221520583686 0.77898654173286952 -0.28577048157925294 -0.35847715441529809 -0.31804204519494184 -0.087962546471687733 -0.026457206047309004 0.23908412888371852 -0.5909689479942587
decision_type=2 2 2 2 2 2 2 2 2 2 2 2 2 2 2 2 2 2 2 2 2 2 2 2 2 2 2 2 2 2
left_child=1 2 3 -1 5 8 24 9 10 15 17 27 13 -2 -5 16 -3 18 -4 -19 -21 29 -13 -10 -6 -26 -27 -12 -23 -20
right_child=12 7 4 14 6 -7 -8 -9 23 -11 11 22 -14 -15 -16 -17 -18 19 21 20 -22 28 -24 -25 25 26 -28 -29 -30 -31
leaf_value=-0.054381172295980627 -0.053827286360849387 0.042057798581116079 -0.044945081797895865 -0.046944008649523382 0.03156437058102312 0.053071634934748056 0.047774190623971334 0.054800149276116282 -0.045463653963642561 0.048394790426990297 -0.029877570776616236 -0.034346942126338667 -0.038369885318730972 0.051558703867776515 0.048822431942994175 -0.053319568489427586 -0.054313020975683801 -0.043931103621642022 0.02735535464758506 -0.045513186250044919 0.025888775508626408 -0.05490873644446987 0.0018662604114755544 0.029211023340417908 -0.052143360639098024 0.0090160123093916029 -0.052194843993007708 0.033077324289164566 0.026844442216053109 -0.0061161745760178795
leaf_weight=32.050198018550873 7.8073901385068885 23.642784908413887 129.37743550539017 9.5290544927120191 52.985296532511711 51.318491205573082 75.884294077754021 11.480261862277983 13.185306310653685 11.648928701877592 16.953678220510483 126.62537813186646 11.188696593046187 566.5902723968029 190.26459020376205 378.71923872828484 29.76035213470459 341.17126147449017 68.023539051413536 29.531572327017784 36.488615959882736 40.959532827138901 79.299030840396881 64.942734643816948 24.183799102902412 139.49187290668488 21.282862693071365 83.518265888094902 10.479801937937735 129.08288563787937
leaf_count=209 51 52 783 59 141 85 141 18 79 22 91 701 63 950 344 2453 194 2048 194 179 107 262 315 181 150 505 135 219 30 557
internal_value=1.79679e-07 -0.0127651 -0.00494745 0.0306194 -0.0103202 -0.0163992 0.0133307 -0.0431021 -0.0194473 -0.0456348 -0.0220281 -0.00634856 0.0484354 0.0501263 0.0442549 -0.0481696 -0.0116475 -0.0281471 -0.0177583 -0.0377893 -0.00605012 -0.00360657 -0.0204017 0.0166085 0.00234605 -0.00602416 0.000913108 0.0224543 -0.0382531 0.00543521
internal_weight=2807.47 2221.88 1766.63 231.844 1534.79 1220.96 313.828 455.252 1169.64 443.771 1091.51 306.396 585.586 574.398 199.794 432.122 53.4031 785.115 377.923 407.191 66.0202 248.546 205.924 78.128 237.944 184.959 160.775 100.472 51.4393 197.106
internal_count=11318 10254 7515 612 6903 5831 1072 2739 5746 2721 5486 1326 1064 1001 403 2699 246 4160 1826 2334 286 1043 1016 260 931 790 640 310 292 751
is_linear=0
shrinkage=0.03


Tree=5
num_leaves=31
num_cat=0
split_feature=1 18 75 75 200 4 97 103 65 221 65 81 68 68 97 215 7 97 69 75 60 235 47 17 160 62 75 173 5 9
split_gain=1797.53 580.469 342.254 250.165 234.221 139.908 123.534 118.782 117.171 111.287 100.647 248.443 128.271 130.417 110.769 103.056 90.2539 96.3581 70.4411 68.4761 68.1435 83.0752 68.0603 67.8852 149.383 119.249 73.6406 61.0395 59.6094 57.0205
threshold=2.84549066858844 1.0000000180025095e-35 -0.53450747894671491 -0.81768615104709075 1.1363679820496555 3.5460780184036018 -0.33024551995351381 1.5000000000000002 0.51295916089524474 0.47172287614804848 -0.58151108472866808 -0.42178493536742401 1.1292901941765729 -0.02811377822400226 0.44698168441098113 -0.86027516847692154 -0.40676582653297388 0.47757107184947684 -0.14922501083666218 -0.33848698873719479 -0.68599896877196043 0.15384817386578303 0.0010857582092285158 0.1244908580092991 1.0498107249519681 1.3318345413017221 -0.21050469219987208 -8.9173340651916038e-17 -0.0052184080948176918 -0.16992711185830761
decision_type=2 2 2 2 2 2 2 2 2 2 2 2 2 2 2 2 2 2 2 2 2 2 2 2 2 2 2 2 2 2
left_child=1 2 3 -1 5 10 28 9 16 20 29 15 13 14 18 -12 19 -18 -13 -6 21 -3 -2 -15 25 -25 -26 -14 -5 -4
right_child=22 7 4 6 8 -7 -8 -9 -10 -11 11 12 27 23 -16 -17 17 -19 -20 -21 -22 -23 -24 24 26 -27 -28 -29 -30 -31
leaf_value=-0.05159251018803325 0.051058329822249227 -0.043700594198672393 -0.0472499758221675 -0.02953446222209918 -0.016261298676976014 0.041257753785985375 0.046892749955485175 0.053477890543927688 0.047240185469744012 0.04712223187366589 -0.033549826325301457 -0.036791582280744882 -0.056012502528079003 -0.048102774150360537 0.025627450854439047 0.031891099382423224 -0.035787272063633829 0.043678970525612787 -0.0025575931219018219 0.031169483795431368 -0.051168971992727644 0.039333437626045194 -0.01625265234205947 -0.045122666583700677 -0.046873985872274072 0.041544233056032685 0.035242502673726278 0.011620153478605471 0.036208239106774322 0.0066590718587693637
leaf_weight=33.083201304078102 523.42445454001427 28.999073654413223 133.06672590970993 32.847193166613579 37.465843170881271 37.725875198841095 200.25855438411236 11.412195205688475 72.343064174056053 11.605247527360914 26.018922612071037 107.21691577136517 13.210957854986189 205.68001556396484 63.194609075784683 129.2184496819973 70.901291146874428 17.031951621174812 109.17925395071507 101.9065370708704 383.95668244361877 17.321893468499184 13.878076940774916 169.65646575391293 12.554933831095694 15.602650657296179 45.264904528856277 132.10664488375187 19.952373474836349 20.360203355550766
leaf_count=214 871 177 826 175 176 82 375 18 133 22 144 612 86 1281 183 338 400 35 462 266 2487 40 65 1035 75 35 116 462 48 79
internal_value=2.555e-07 -0.0117296 -0.00411079 0.0259877 -0.00977794 -0.0156147 0.03613 -0.0420817 0.0139871 -0.0445497 -0.0174294 -0.0140494 -0.0202634 -0.0253979 -0.00931504 0.0209227 0.00340381 -0.0203953 -0.0195194 0.0184192 -0.0470222 -0.0126497 0.0493197 -0.0354181 -0.024685 -0.0378235 0.0174118 0.00547161 -0.00469102 -0.0400961
internal_weight=2796.45 2259.14 1805.85 286.141 1519.71 1220.06 253.058 453.295 299.649 441.883 1182.33 1028.9 873.667 728.35 279.591 155.237 227.306 87.9332 216.396 139.372 430.278 46.321 537.303 448.759 243.079 185.259 57.8198 145.318 52.7996 153.427
internal_count=11318 10382 7638 812 6826 5816 598 2744 1010 2726 5734 4829 4347 3799 1257 482 877 435 1074 442 2704 217 936 2542 1261 1070 191 548 223 905
is_linear=0
shrinkage=0.03


end of trees

feature_importances:
control_strain__diff_std=16
attitude_error_mag__lag1_autocorrelation=11
attitude_error_mag__q10=10
control_strain__lag1_autocorrelation=9
attitude_error_mag__diff_std=8
battery_missing__mean=8
attitude_error_mag__diff_abs_max=7
gps_speed_residual__min=6
gps_speed_residual__diff_abs_max=6
gps_speed_residual__diff_std=5
gps_speed_residual__missing_fraction=5
attitude_error_mag__q90=5
gps_speed_residual__range=4
gps_speed_residual__lag1_autocorrelation=4
attitude_error_mag__min=4
control_strain__q10=4
innovation_check_flags_bit_count__max=4
timeout_flags_bit_count__mean=4
gps_speed_residual__std=3
gps_speed_residual__median=3
gps_speed_residual__q75=3
alt_local_residual__q25=3
control_strain__mean=3
battery_missing__lag1_autocorrelation=3
gps_health_missing__std=3
gps_speed_residual__mean=2
alt_local_residual__std=2
alt_local_residual__median=2
alt_local_residual__q75=2
attitude_error_mag__mean=2
control_strain__median=2
control_strain__q25=2
control_strain__q75=2
timeout_flags_bit_count__min=2
gps_health_missing__diff_std=2
gps_health_missing__lag1_autocorrelation=2
gps_speed_residual__max=1
gps_speed_residual__q10=1
gps_speed_residual__q90=1
attitude_error_mag__std=1
attitude_error_mag__max=1
attitude_error_mag__median=1
attitude_error_mag__range=1
attitude_error_mag__linear_slope=1
control_strain__std=1
control_strain__min=1
innovation_check_flags_bit_count__mean=1
innovation_check_flags_bit_count__diff_std=1
timeout_flags_bit_count__range=1
timeout_flags_bit_count__linear_slope=1
timeout_flags_bit_count__diff_std=1
battery_missing__diff_std=1
gps_health_missing__diff_abs_max=1

parameters:
[boosting: gbdt]
[objective: binary]
[metric: average_precision,binary_logloss]
[tree_learner: serial]
[device_type: cpu]
[data_sample_strategy: bagging]
[data: ]
[valid: ]
[num_iterations: 500]
[learning_rate: 0.03]
[num_leaves: 31]
[num_threads: 20]
[seed: 4]
[deterministic: 0]
[force_col_wise: 0]
[force_row_wise: 0]
[histogram_pool_size: -1]
[max_depth: -1]
[min_data_in_leaf: 20]
[min_sum_hessian_in_leaf: 0.001]
[bagging_fraction: 0.8]
[pos_bagging_fraction: 1]
[neg_bagging_fraction: 1]
[bagging_freq: 0]
[bagging_seed: 17945]
[bagging_by_query: 0]
[feature_fraction: 0.8]
[feature_fraction_bynode: 1]
[feature_fraction_seed: 386]
[extra_trees: 0]
[extra_seed: 27504]
[early_stopping_round: 0]
[early_stopping_min_delta: 0]
[first_metric_only: 0]
[max_delta_step: 0]
[lambda_l1: 0]
[lambda_l2: 0]
[linear_lambda: 0]
[min_gain_to_split: 0]
[drop_rate: 0.1]
[max_drop: 50]
[skip_drop: 0.5]
[xgboost_dart_mode: 0]
[uniform_drop: 0]
[drop_seed: 27159]
[top_rate: 0.2]
[other_rate: 0.1]
[min_data_per_group: 100]
[max_cat_threshold: 32]
[cat_l2: 10]
[cat_smooth: 10]
[max_cat_to_onehot: 4]
[top_k: 20]
[monotone_constraints: ]
[monotone_constraints_method: basic]
[monotone_penalty: 0]
[feature_contri: ]
[forcedsplits_filename: ]
[refit_decay_rate: 0.9]
[cegb_tradeoff: 1]
[cegb_penalty_split: 0]
[cegb_penalty_feature_lazy: ]
[cegb_penalty_feature_coupled: ]
[path_smooth: 0]
[interaction_constraints: ]
[verbosity: -1]
[saved_feature_importance_type: 0]
[use_quantized_grad: 0]
[num_grad_quant_bins: 4]
[quant_train_renew_leaf: 0]
[stochastic_rounding: 1]
[linear_tree: 0]
[max_bin: 255]
[max_bin_by_feature: ]
[min_data_in_bin: 3]
[bin_construct_sample_cnt: 200000]
[data_random_seed: 51]
[is_enable_sparse: 1]
[enable_bundle: 1]
[use_missing: 1]
[zero_as_missing: 0]
[feature_pre_filter: 1]
[pre_partition: 0]
[two_round: 0]
[header: 0]
[label_column: ]
[weight_column: ]
[group_column: ]
[ignore_column: ]
[categorical_feature: ]
[forcedbins_filename: ]
[precise_float_parser: 0]
[parser_config_file: ]
[objective_seed: 17345]
[num_class: 1]
[is_unbalance: 0]
[scale_pos_weight: 1]
[sigmoid: 1]
[boost_from_average: 1]
[reg_sqrt: 0]
[alpha: 0.9]
[fair_c: 1]
[poisson_max_delta_step: 0.7]
[tweedie_variance_power: 1.5]
[lambdarank_truncation_level: 30]
[lambdarank_norm: 1]
[label_gain: ]
[lambdarank_position_bias_regularization: 0]
[eval_at: ]
[multi_error_top_k: 1]
[auc_mu_weights: ]
[num_machines: 1]
[local_listen_port: 12400]
[time_out: 120]
[machine_list_filename: ]
[machines: ]
[gpu_platform_id: -1]
[gpu_device_id: -1]
[gpu_use_dp: 0]
[num_gpu: 1]

end of parameters

pandas_categorical:[]
