tree
version=v4
num_class=1
num_tree_per_iteration=1
label_index=0
max_feature_idx=139
objective=binary sigmoid:1
feature_names=xtrack_error__mean xtrack_error__std xtrack_error__min xtrack_error__max xtrack_error__median xtrack_error__q10 xtrack_error__q25 xtrack_error__q75 xtrack_error__q90 xtrack_error__range xtrack_error__first xtrack_error__last xtrack_error__last_minus_first xtrack_error__linear_slope xtrack_error__diff_mean xtrack_error__diff_std xtrack_error__diff_abs_max xtrack_error__lag1_autocorrelation xtrack_error__missing_fraction xtrack_error__stale_fraction alt_error__mean alt_error__std alt_error__min alt_error__max alt_error__median alt_error__q10 alt_error__q25 alt_error__q75 alt_error__q90 alt_error__range alt_error__first alt_error__last alt_error__last_minus_first alt_error__linear_slope alt_error__diff_mean alt_error__diff_std alt_error__diff_abs_max alt_error__lag1_autocorrelation alt_error__missing_fraction alt_error__stale_fraction gps_speed_residual__mean gps_speed_residual__std gps_speed_residual__min gps_speed_residual__max gps_speed_residual__median gps_speed_residual__q10 gps_speed_residual__q25 gps_speed_residual__q75 gps_speed_residual__q90 gps_speed_residual__range gps_speed_residual__first gps_speed_residual__last gps_speed_residual__last_minus_first gps_speed_residual__linear_slope gps_speed_residual__diff_mean gps_speed_residual__diff_std gps_speed_residual__diff_abs_max gps_speed_residual__lag1_autocorrelation gps_speed_residual__missing_fraction gps_speed_residual__stale_fraction roll_error__mean roll_error__std roll_error__min roll_error__max roll_error__median roll_error__q10 roll_error__q25 roll_error__q75 roll_error__q90 roll_error__range roll_error__first roll_error__last roll_error__last_minus_first roll_error__linear_slope roll_error__diff_mean roll_error__diff_std roll_error__diff_abs_max roll_error__lag1_autocorrelation roll_error__missing_fraction roll_error__stale_fraction pitch_error__mean pitch_error__std pitch_error__min pitch_error__max pitch_error__median pitch_error__q10 pitch_error__q25 pitch_error__q75 pitch_error__q90 pitch_error__range pitch_error__first pitch_error__last pitch_error__last_minus_first pitch_error__linear_slope pitch_error__diff_mean pitch_error__diff_std pitch_error__diff_abs_max pitch_error__lag1_autocorrelation pitch_error__missing_fraction pitch_error__stale_fraction airspeed_error__mean airspeed_error__std airspeed_error__min airspeed_error__max airspeed_error__median airspeed_error__q10 airspeed_error__q25 airspeed_error__q75 airspeed_error__q90 airspeed_error__range airspeed_error__first airspeed_error__last airspeed_error__last_minus_first airspeed_error__linear_slope airspeed_error__diff_mean airspeed_error__diff_std airspeed_error__diff_abs_max airspeed_error__lag1_autocorrelation airspeed_error__missing_fraction airspeed_error__stale_fraction path_dev_mag__mean path_dev_mag__std path_dev_mag__min path_dev_mag__max path_dev_mag__median path_dev_mag__q10 path_dev_mag__q25 path_dev_mag__q75 path_dev_mag__q90 path_dev_mag__range path_dev_mag__first path_dev_mag__last path_dev_mag__last_minus_first path_dev_mag__linear_slope path_dev_mag__diff_mean path_dev_mag__diff_std path_dev_mag__diff_abs_max path_dev_mag__lag1_autocorrelation path_dev_mag__missing_fraction path_dev_mag__stale_fraction
feature_infos=[-85.029680803268676:35.935256794485518] [-1.0164277196463165:93.179394637861122] [-58.912585814161886:9.8354883291674824] [-62.949018289075802:57.627030872074947] [-96.898271430634253:55.027464239314064] [-49.913774436809376:13.155232772368915] [-62.584848144367427:24.468485354824637] [-104.62486446071652:65.322953828293933] [-94.9190217426072:63.860314923355368] [-0.98170402814259938:62.874887137332216] [-38.617020393813185:19.007327368234034] [-70.745493983482262:48.980113034770476] [-97.621650801898966:128.00009062544581] [-896.01943546571579:343.67305610134525] [-1200.5870099917574:329.77679976890067] [-1.0605110462070164:309.33477310207746] [-1.2185959287756101:274.56982663815018] [-92.167099227238367:1.061001110276256] [0:1] [0:1] [-4.7956038118236659:4.8183425074685795] [-1.1434771879428367:27.717960840665278] [-6.2302943956693797:5.6291547027620608] [-4.3237804895019973:4.9786585347961871] [-4.7722530761121558:4.7402641501382217] [-5.8918441856091741:5.3232269383515751] [-5.1212466564275605:4.7877232191607275] [-4.4524569054064882:4.7865347425281142] [-4.3687339527262692:4.8673724632918631] [-1.2233332892659445:21.383333038020943] [-5.6613711146591532:4.7892975176701] [-4.4162405147332491:5.338235376012336] [-12.820647425814148:36.826073803337884] [-18.121657266130505:214.50312117181014] [-18.384778340207792:316.01738734571512] [-1.4231068748563847:189.58827855024768] [-1.4102542606337907:163.79462514644763] [-104.79897635752357:1.2415899953123641] [0:1] [0:1] [-5.7498271042718514:8.1949339822888003] [-1.8539413646480651:4.9847280665554381] [-1.7170298624498577:1.4398604820846539] [-1.6268925724547747:3.9857104862868353] [-4.7757385722448262:5.1492947294750442] [-1.6427878022848408:1.4104855609222573] [-2.0084646400776176:1.3366323397747881] [-1.8914176204898858:4.1048046921473382] [-1.7394855568415031:4.403429400121766] [-1.6738453235809436:1.931667186122989] [-3.7910331757535003:9.1489093342685717] [-4.6322479516056232:5.6636304131437765] [-6.5904563449734326:4.0914774858851866] [-146.18041312943592:61.881510785510045] [-63.874876492582871:29.617266389296855] [-1.7052607186230462:3.4411422686343891] [-1.5288736875175688:2.1479923617807843] [-1.7791451155757132:3.7596603558794954] [0:1] [0:1] [-16.713760970606259:11.627255409139677] [-1.2223087606008551:7.62382708457472] [-8.0749830650631189:3.1741368008873532] [-4.9358572447061055:5.4453913006883896] [-22.045176790983742:16.051123587828965] [-11.497391547562541:3.5856576122864534] [-18.970837031356623:11.353877545952036] [-9.0938748416590549:9.6114488588979903] [-6.3109926153715508:6.3183577977288294] [-1.2225173502537168:5.3663694634408818] [-11.291451056219602:9.663362917262841] [-12.229330640626088:12.04912077153741] [-19.375918574096964:18.100058570748104] [-31.123466625541724:130.72192734761802] [-38.770224902639562:141.18170044688921] [-1.6590021953885157:22.454831140994823] [-1.6207851446784556:16.387920534455784] [-33.979291631135041:1.3924013088154095] [0:1] [0:1] [-12.966275000620673:34.426716769416764] [-1.3763175038613393:8.216567709902451] [-4.7130857736727521:12.376803333136017] [-3.3483853690702232:9.1794319521876204] [-11.518102457403685:30.841965956601747] [-5.7681374235794456:16.392074353111052] [-7.9831019757383777:22.240549435336369] [-12.788154949090673:32.935243732365507] [-4.7180902261361171:12.477182728811933] [-1.5072303577440482:5.1704765875198389] [-6.7112483832814736:17.27494959675666] [-7.5693439134556018:16.274644258243033] [-11.569482862393166:9.995759326340723] [-36.384424207113476:74.441349656600778] [-32.844152052399458:59.97830522446359] [-2.1329606809927868:8.6037873994549603] [-1.9609307670815534:9.6668678010742362] [-41.746677874892683:1.5219570127292394] [0:1] [0:1] [-1.0014306479581496:23.990147820962029] [-0.59411422804872416:882.56683920444823] [-1:22.8831958771] [-1.0101012436486605:25.062921327174415] [-1:24.060153961200001] [-1:23.100082778939999] [-1:23.425413131700001] [-1:24.598327636699999] [-1.0101012436486605:24.976473331307801] [-1:1252.6718459025492] [-1:24.812286377] [-1:22.8831958771] [-12.2962999344:11.09819793698] [-25146.141128018979:8338.8917466931834] [-0.77128616969166652:0.28456917787128205] [-0.60485837890913385:211.28956515056811] [-1:407.26587756409583] [-1.2237423042358275:0.34534632929202291] [0:1] [0:1] [-0.050160621600155671:2.7762120185578998] [-0.23969055608573595:41.193539762066358] [-0.030325882846059329:3.9161651765169432] [-0.098878148533567176:2.2369222548740786] [-0.036222313635167473:2.8184439638037091] [-0.028898319858228994:3.7858577712502881] [-0.032507186180287764:3.52891433926915] [-0.062490604935253664:2.2939016228479572] [-0.083432427853598834:2.2704731042645419] [-0.26394571364633179:28.270779298633915] [-0.047745209465383333:2.3982104139962108] [-0.051677485107266316:3.1297474308893065] [-172.63112973966264:80.987612653505394] [-197.83706967142572:66.330745174031918] [-203.99533625307103:76.734443880717095] [-0.45082528328278898:111.33113228432263] [-0.30661012920428243:163.93243393802058] [-74.388445069297788:0.56903870826403324] [0:1] [0:1]
tree_sizes=3454

Tree=0
num_leaves=31
num_cat=0
split_feature=122 31 6 102 46 100 46 35 42 76 10 11 123 43 100 137 77 75 55 10 86 40 56 42 121 43 131 96 132 42
split_gain=2232.3 566.607 228.37 182.122 119.096 99.8424 55.5226 61.6931 46.2575 39.0072 43.657 27.4227 22.0626 30.1887 18.8818 28.2638 16.9772 29.6528 19.4531 14.8384 13.4855 12.9669 7.98604 7.5977 3.55504 8.80537 14.177 3.42446 2.76664 0.42054
threshold=-0.0033270963146631223 0.13842709716650667 -5.2690417309818125 15.63467073440254 1.0677778688989159 -0.97657514603135587 -0.18491585676990427 -0.50345755026935712 0.57828655458391698 3.8216273107459142 -0.86793834450108032 -4.4414786812773031 1.3010350378382689 0.41648498851706522 -0.92285685865681788 -1.0000000180025095e-35 -0.23456022897818987 -0.24479208427114404 -0.024177064294223911 -2.0985182612818298 -0.27351054250394441 0.47067831295034906 -1.5114539016189883 -0.12901797764956033 0.059096409379397453 -0.2326588112942283 0.82679787597225862 1.6861511533522429 -1.0273064149665423 -0.34542158879595036
decision_type=2 2 2 2 2 2 2 2 2 2 2 2 2 2 2 2 2 2 2 2 2 2 2 2 2 2 2 2 2 2
left_child=8 2 5 9 6 20 7 23 11 -3 -11 -1 14 -14 15 -8 27 -18 -19 -7 -2 -5 -6 -4 29 26 -26 -9 -20 -16
right_child=1 3 4 21 22 19 12 16 -10 10 -12 -13 13 -15 24 -17 17 18 28 -21 -22 -23 -24 -25 25 -27 -28 -29 -30 -31
leaf_value=-0.0081881706034419993 -0.0032248463515405635 0.059494251363640477 0.0050589702203077038 -0.0050666686971867275 0.060000069617557293 0.060000069617557286 0.036674415448033973 -0.059999926152058521 -0.037540856574803369 0.060000069617557279 -0.055790286431326296 0.060000069617557293 0.030292222966771962 -0.054717135056940633 -0.052246407104483104 -0.059999926152058534 0.026345843028039499 -0.0010046242461438342 -0.034021462883722799 -0.00039863109834195138 -0.059999926152058521 -0.059999926152058521 0.009612013850986945 0.054646155715567885 -0.0030483385344637283 -0.059384509033033966 -0.057464316620293755 -0.03531106544020704 -0.057464316620293741 -0.059925430163089294
leaf_weight=5.3843980878591529 5.8070876747369793 72.585879892110825 4.6778612732887268 5.0784375518560436 8.0311021506786329 26.206754386425022 4.7220878899097443 28.148369312286377 4.5169056057929984 5.7063094228506088 6.0245949774980527 374.29162918031216 6.1793881356716147 9.6015056669712049 6.5419003069400778 6.4251712560653669 7.6366883814334861 9.0276487022638268 5.8574768006801596 4.255171686410903 10.708618760108946 16.215908408164978 4.3719007372856131 6.8576491326093656 7.5703484565019634 41.210056617856026 10.002081945538519 6.1634373366832724 20.004163891077049 340.43946082890034
leaf_count=21 23 343 19 20 38 124 21 92 16 27 20 1771 27 32 22 21 33 36 21 17 35 53 18 32 30 135 33 22 66 1113
internal_value=7.39482e-08 -0.0324226 -0.044052 0.0314931 -0.0496361 0.0193596 -0.051823 -0.030154 0.0578976 0.0512912 0.000534067 0.0590331 -0.0562487 -0.0214297 -0.0575667 -0.0190477 -0.039866 -0.0271994 -0.0389195 0.0515631 -0.0400372 -0.046899 0.0422389 0.0345376 -0.0586249 -0.0518025 -0.0340215 -0.0555651 -0.0521547 -0.0597807
internal_weight=1070.25 686.057 580.446 105.611 533.468 46.9776 521.065 88.3733 384.193 84.3168 11.7309 379.676 432.692 15.7809 416.911 11.1473 76.8378 42.526 34.8893 30.4619 16.5157 21.2943 12.403 11.5355 405.764 58.7825 17.5724 34.3118 25.8616 346.981
internal_count=4281 2473 2010 463 1811 199 1755 321 1808 390 47 1792 1434 59 1375 42 270 156 123 141 58 73 56 51 1333 198 63 114 87 1135
is_linear=0
shrinkage=1


end of trees

feature_importances:
gps_speed_residual__min=3
xtrack_error__first=2
gps_speed_residual__max=2
gps_speed_residual__q25=2
airspeed_error__mean=2
xtrack_error__q25=1
xtrack_error__last=1
alt_error__last=1
alt_error__diff_std=1
gps_speed_residual__mean=1
gps_speed_residual__diff_std=1
gps_speed_residual__diff_abs_max=1
roll_error__diff_std=1
roll_error__diff_abs_max=1
roll_error__lag1_autocorrelation=1
pitch_error__q25=1
pitch_error__diff_abs_max=1
airspeed_error__min=1
path_dev_mag__std=1
path_dev_mag__min=1
path_dev_mag__max=1
path_dev_mag__last=1
path_dev_mag__last_minus_first=1
path_dev_mag__lag1_autocorrelation=1

parameters:
[boosting: gbdt]
[objective: binary]
[metric: average_precision,binary_logloss]
[tree_learner: serial]
[device_type: cpu]
[data_sample_strategy: bagging]
[data: ]
[valid: ]
[num_iterations: 500]
[learning_rate: 0.03]
[num_leaves: 31]
[num_threads: 20]
[seed: 4]
[deterministic: 0]
[force_col_wise: 0]
[force_row_wise: 0]
[histogram_pool_size: -1]
[max_depth: -1]
[min_data_in_leaf: 20]
[min_sum_hessian_in_leaf: 0.001]
[bagging_fraction: 0.8]
[pos_bagging_fraction: 1]
[neg_bagging_fraction: 1]
[bagging_freq: 0]
[bagging_seed: 17945]
[bagging_by_query: 0]
[feature_fraction: 0.8]
[feature_fraction_bynode: 1]
[feature_fraction_seed: 386]
[extra_trees: 0]
[extra_seed: 27504]
[early_stopping_round: 0]
[early_stopping_min_delta: 0]
[first_metric_only: 0]
[max_delta_step: 0]
[lambda_l1: 0]
[lambda_l2: 0]
[linear_lambda: 0]
[min_gain_to_split: 0]
[drop_rate: 0.1]
[max_drop: 50]
[skip_drop: 0.5]
[xgboost_dart_mode: 0]
[uniform_drop: 0]
[drop_seed: 27159]
[top_rate: 0.2]
[other_rate: 0.1]
[min_data_per_group: 100]
[max_cat_threshold: 32]
[cat_l2: 10]
[cat_smooth: 10]
[max_cat_to_onehot: 4]
[top_k: 20]
[monotone_constraints: ]
[monotone_constraints_method: basic]
[monotone_penalty: 0]
[feature_contri: ]
[forcedsplits_filename: ]
[refit_decay_rate: 0.9]
[cegb_tradeoff: 1]
[cegb_penalty_split: 0]
[cegb_penalty_feature_lazy: ]
[cegb_penalty_feature_coupled: ]
[path_smooth: 0]
[interaction_constraints: ]
[verbosity: -1]
[saved_feature_importance_type: 0]
[use_quantized_grad: 0]
[num_grad_quant_bins: 4]
[quant_train_renew_leaf: 0]
[stochastic_rounding: 1]
[linear_tree: 0]
[max_bin: 255]
[max_bin_by_feature: ]
[min_data_in_bin: 3]
[bin_construct_sample_cnt: 200000]
[data_random_seed: 51]
[is_enable_sparse: 1]
[enable_bundle: 1]
[use_missing: 1]
[zero_as_missing: 0]
[feature_pre_filter: 1]
[pre_partition: 0]
[two_round: 0]
[header: 0]
[label_column: ]
[weight_column: ]
[group_column: ]
[ignore_column: ]
[categorical_feature: ]
[forcedbins_filename: ]
[precise_float_parser: 0]
[parser_config_file: ]
[objective_seed: 17345]
[num_class: 1]
[is_unbalance: 0]
[scale_pos_weight: 1]
[sigmoid: 1]
[boost_from_average: 1]
[reg_sqrt: 0]
[alpha: 0.9]
[fair_c: 1]
[poisson_max_delta_step: 0.7]
[tweedie_variance_power: 1.5]
[lambdarank_truncation_level: 30]
[lambdarank_norm: 1]
[label_gain: ]
[lambdarank_position_bias_regularization: 0]
[eval_at: ]
[multi_error_top_k: 1]
[auc_mu_weights: ]
[num_machines: 1]
[local_listen_port: 12400]
[time_out: 120]
[machine_list_filename: ]
[machines: ]
[gpu_platform_id: -1]
[gpu_device_id: -1]
[gpu_use_dp: 0]
[num_gpu: 1]

end of parameters

pandas_categorical:[]
