tree
version=v4
num_class=1
num_tree_per_iteration=1
label_index=0
max_feature_idx=139
objective=binary sigmoid:1
feature_names=xtrack_error__mean xtrack_error__std xtrack_error__min xtrack_error__max xtrack_error__median xtrack_error__q10 xtrack_error__q25 xtrack_error__q75 xtrack_error__q90 xtrack_error__range xtrack_error__first xtrack_error__last xtrack_error__last_minus_first xtrack_error__linear_slope xtrack_error__diff_mean xtrack_error__diff_std xtrack_error__diff_abs_max xtrack_error__lag1_autocorrelation xtrack_error__missing_fraction xtrack_error__stale_fraction alt_error__mean alt_error__std alt_error__min alt_error__max alt_error__median alt_error__q10 alt_error__q25 alt_error__q75 alt_error__q90 alt_error__range alt_error__first alt_error__last alt_error__last_minus_first alt_error__linear_slope alt_error__diff_mean alt_error__diff_std alt_error__diff_abs_max alt_error__lag1_autocorrelation alt_error__missing_fraction alt_error__stale_fraction gps_speed_residual__mean gps_speed_residual__std gps_speed_residual__min gps_speed_residual__max gps_speed_residual__median gps_speed_residual__q10 gps_speed_residual__q25 gps_speed_residual__q75 gps_speed_residual__q90 gps_speed_residual__range gps_speed_residual__first gps_speed_residual__last gps_speed_residual__last_minus_first gps_speed_residual__linear_slope gps_speed_residual__diff_mean gps_speed_residual__diff_std gps_speed_residual__diff_abs_max gps_speed_residual__lag1_autocorrelation gps_speed_residual__missing_fraction gps_speed_residual__stale_fraction roll_error__mean roll_error__std roll_error__min roll_error__max roll_error__median roll_error__q10 roll_error__q25 roll_error__q75 roll_error__q90 roll_error__range roll_error__first roll_error__last roll_error__last_minus_first roll_error__linear_slope roll_error__diff_mean roll_error__diff_std roll_error__diff_abs_max roll_error__lag1_autocorrelation roll_error__missing_fraction roll_error__stale_fraction pitch_error__mean pitch_error__std pitch_error__min pitch_error__max pitch_error__median pitch_error__q10 pitch_error__q25 pitch_error__q75 pitch_error__q90 pitch_error__range pitch_error__first pitch_error__last pitch_error__last_minus_first pitch_error__linear_slope pitch_error__diff_mean pitch_error__diff_std pitch_error__diff_abs_max pitch_error__lag1_autocorrelation pitch_error__missing_fraction pitch_error__stale_fraction airspeed_error__mean airspeed_error__std airspeed_error__min airspeed_error__max airspeed_error__median airspeed_error__q10 airspeed_error__q25 airspeed_error__q75 airspeed_error__q90 airspeed_error__range airspeed_error__first airspeed_error__last airspeed_error__last_minus_first airspeed_error__linear_slope airspeed_error__diff_mean airspeed_error__diff_std airspeed_error__diff_abs_max airspeed_error__lag1_autocorrelation airspeed_error__missing_fraction airspeed_error__stale_fraction path_dev_mag__mean path_dev_mag__std path_dev_mag__min path_dev_mag__max path_dev_mag__median path_dev_mag__q10 path_dev_mag__q25 path_dev_mag__q75 path_dev_mag__q90 path_dev_mag__range path_dev_mag__first path_dev_mag__last path_dev_mag__last_minus_first path_dev_mag__linear_slope path_dev_mag__diff_mean path_dev_mag__diff_std path_dev_mag__diff_abs_max path_dev_mag__lag1_autocorrelation path_dev_mag__missing_fraction path_dev_mag__stale_fraction
feature_infos=[-13.122221730099694:5.999326762826394] [-0.57351915525278352:103.10822409088836] [-14.905882706151711:3.2379674579002558] [-26.880634474212187:24.851921027582986] [-13.86258463334892:8.2497758513417363] [-14.219038129301005:4.0019948640992284] [-13.53686435240321:5.6305980561089006] [-23.729605351895529:15.106037757257264] [-35.523341886044378:24.360106382056895] [-0.66072851865288262:73.529019425287956] [-14.329901893347744:7.5266548832580993] [-31.158115926694784:22.268831224704439] [-1381.7306139236605:1887.052363788039] [-12401.681357841102:4791.9051822120073] [-16285.138925318441:4701.5265604456745] [-0.51273043858996259:317.05150823429983] [-0.56324836883899376:248.21272855439446] [-173.47609518338854:1.5299200129495438] [0:1] [0:1] [-6.1289228040369119:2.7611931590700576] [-0.66889324992570376:61.372854104888702] [-5.8350828869601603:2.8600175278335214] [-5.8377080676785482:2.7327210348923536] [-6.2198355373769685:2.7312616283581614] [-5.9666714497767517:2.8686006627370082] [-6.0657365901176687:2.8208016863352885] [-5.9288467971074406:2.5645998351360664] [-5.8961454357928842:2.6726186229106044] [-0.69161607796795055:47.086828232938814] [-6.0541144938427633:2.8211093087994308] [-6.1911698935485857:2.8662251329835877] [-306.55504429942141:1769.4413597253422] [-613.37489160072289:1800.155972142499] [-687.66368237665586:1797.9057847835052] [-0.73938219862421772:90.494949185343984] [-0.77451071595814813:229.26470029666447] [-106.97494572801406:1.8163783547561516] [0:1] [0:1] [-7.1959664992086712:77.271326674384213] [-0.039549658046858463:21.831048352961393] [-2.073922333757189:0.21987932071715538] [-0.40808596472495157:24.322406702877121] [-5.8329288828055823:6.0570499261009054] [-2.142677036711901:0.44732158948751749] [-2.754710468178708:1.4877342961929718] [-1.3202407772144182:42.096039523315604] [-0.70412003634437814:36.460382350006697] [-0.036914251059139265:12.6782843228463] [-14.811842135249501:202.00088574135549] [-15.955682106906654:18.828923988946869] [-300.30974208344475:32.197592092540276] [-2887.269292510643:169.00292674978343] [-2421.7198311133607:226.04382030826721] [-0.014495408987644587:8.4917538810807169] [-0.015180303131407528:9.2185712149047241] [-1.1689386406024649:1.354116449447057] [0:1] [0:1] [-9.4254887428338936:5.8385617931548417] [-0.69461482752099291:7.4424627937307761] [-5.6694632438525252:2.2511772387575624] [-11.742536197654015:9.8810791277127947] [-7.1629579341704082:5.1171516278179414] [-8.107233162118451:3.1265090848503934] [-11.772440149554436:7.9074716257216249] [-6.1749849290648715:5.8027729062586886] [-8.1267495547139585:5.7805944641838503] [-0.67090409395132011:4.2404059353689858] [-6.3021416171331879:3.3445852241334966] [-3.9394019499277579:3.2824144178414438] [-742.78566940178348:1269.4793359494608] [-2992.8658354070872:12570.182440479999] [-3486.7070936952746:12700.768914662045] [-0.7804205768260607:16.849205771615026] [-0.76036063014293065:11.420655852848856] [-57.182189902603675:2.0694296096216798] [0:1] [0:1] [-131.16906927005627:345.72668833972733] [-0.76611991463323659:9.2827550832172427] [-7.6516501902765857:8.7825242775536339] [-3.6743465534002473:12.168807768700665] [-115.23603585966296:303.27530343847218] [-9.3514308910666717:13.067127165502706] [-10.438056986514875:22.746726108224244] [-14.632100513428073:38.967074786892894] [-7.6275532881812067:22.941231492371958] [-0.76072122542340592:7.2768606611189375] [-131.87143916336558:355.82981606877428] [-294.92272261545725:343.47554797465352] [-719.15960035744297:621.33687113767996] [-1894.9426724436928:3708.829838386192] [-2100.9183043773141:3836.5911499865165] [-0.79633332811940383:5.0337722189867931] [-0.81737912825931047:5.9259440021454468] [-68.763586378546847:2.3060000020669196] [0:1] [0:1] [-1.2499999999999989:26.749112606049977] [0:1434.0023122058765] [-1:20.207641601599999] [-1:22.340164184599999] [-1.0101012436486605:21.804737547277181] [-1:20.552415466319999] [-1.0101012436486605:21.282405186810635] [-1.0101012436486605:22.415908062324583] [-3.3333333333333255:74.269320170133156] [0:1266.5562631972384] [-1:22.1917438507] [-1.0101012436486605:20.934169484678161] [-12.256298065200001:7.9413127898999996] [-5.1122196417188714:3.1935113448404939] [-1.1087037324875002:0.70114755632499959] [0:425.48696074783049] [0:414.30602633509102] [-1.2091147412647338:0.3599738922631166] [0:1] [0:1] [-0.7796463811672445:225.10054309318119] [-0.058540488098728562:10499.956137667516] [-0.47547375711109929:222.23667184043796] [-1.0065322681651427:223.43994612748901] [-0.7903573388659223:224.37698798111103] [-0.53064853846945903:222.71787043338406] [-0.61898120636098686:223.09417575973356] [-0.99061568880333339:227.28738412417152] [-0.99202364760858786:222.01178713420936] [-0.05204798204779857:6071.4161854769436] [-0.9627723627315905:225.13253362134441] [-0.68552643391548673:224.98102804515571] [-73681.857455706588:356.20956965207819] [-96850.312092233667:317.81449139415582] [-75300.914217239289:346.70283907565943] [-0.024119496977244165:18633.539463192275] [-0.023653637478359052:42724.203182449957] [-100.09998817032073:0.40186477541899945] [0:1] [0:1]
tree_sizes=3429 3437 3438 3435 3436 3438

Tree=0
num_leaves=31
num_cat=0
split_feature=131 128 43 122 14 11 137 83 129 95 10 8 57 65 123 72 126 136 67 122 137 1 46 129 44 57 45 86 68 84
split_gain=3883.17 1123.23 258.459 240.888 160.558 135.287 118.793 48.2931 48.1504 58.4534 38.9191 31.2728 30.9074 22.336 21.8153 23.8343 27.1717 18.5004 28.6394 26.4037 13.1969 12.6079 8.75887 8.5682 5.90032 5.0285 26.3732 3.92083 4.98823 2.20966
threshold=-0.34645324361551422 0.13256220903118723 -0.1036711523759629 -0.27074015446338723 -175.15267201924374 2.8255899110769169 0.38513478530032358 -1.0000000180025095e-35 4.6535864740911341 0.048928774552627563 2.3174200468622952 -2.994798958904223 1.1641303607018394 -2.0549719513796219 0.90959420175629602 109.66322646913422 0.71174975838446286 5.4416082820771106 -0.28701846559105093 0.52900045792560124 0.39550064299163695 4.192495945958453 -0.70725900635643657 13.809926244039737 -1.3543965732304424 0.86805597063072171 0.08626013334274428 -0.7959673677935607 -1.0754725201452431 -8.5425025081547883
decision_type=2 2 2 2 2 2 2 2 2 2 2 2 2 2 2 2 2 2 2 2 2 2 2 2 2 2 2 2 2 2
left_child=2 4 3 -1 11 8 7 -3 12 22 20 -2 25 -11 15 16 -9 18 -8 -20 24 -15 -10 -7 -6 -4 -27 -23 -29 -26
right_child=1 6 5 -5 10 23 17 14 9 13 -12 -13 -14 21 -16 -17 -18 -19 19 -21 -22 27 -24 -25 29 26 -28 28 -30 -31
leaf_value=-0.059999959439236299 0.05765336517006573 -0.037993210721740917 0.059565969830172032 0.060000040560763697 -0.034735671639001549 -0.059999959439236299 -0.055439140818340872 0.039035962502556421 -0.059999959439236285 -0.0015952192785153379 0.0054562715035128915 -0.021079550771394458 -0.016219882485589806 0.0073701355141925157 0.060000040560763697 0.060000040560763697 -0.038180766307298761 -0.059999959439236299 0.060000040560763711 -0.027178095810473434 -0.023647405151938635 0.059296680409037926 -0.0059137693739788827 -0.010128178466473497 -0.043623891810149362 -0.016219882485589796 0.060000040560763697 0.02000155124722457 0.060000040560763628 -0.059914282374586278
leaf_weight=36.084949478507042 12.384202942252161 5.6348000913858405 602.56386820971966 25.834089517593384 8.5894505977630597 8.2341495454311353 6.797224357724196 9.7038338333368355 5.0857982486486435 8.4927099645137769 8.5250300168991071 7.1686854362487784 4.9567375630140296 5.5218994319438925 82.410745561122894 13.433726549148558 7.104045331478118 7.9919686764478675 6.9752041697502118 5.6671201437711716 9.3806333094835264 41.318383201956742 5.7317602485418302 4.9728975892066947 7.5722470432519904 4.9567375630140331 23.250680565834045 5.8125603795051575 5.4251587986946159 723.66875657439232
leaf_count=149 48 23 2333 100 35 34 28 38 21 34 34 29 20 22 319 52 29 33 27 23 38 160 23 20 31 20 90 23 21 2988
internal_value=4.17776e-08 -0.0417623 0.0489025 -0.00993312 -0.0560914 0.0539182 0.0346715 0.0477157 0.0556802 0.0333373 -0.0582816 0.0287875 0.0584 0.0438475 0.0520028 0.0302095 0.00639942 -0.0215759 -0.00577901 0.0209211 -0.0590069 0.0504926 -0.031342 -0.0412216 -0.0594552 0.0589864 0.0466063 0.0550234 0.0393114 -0.0597456
internal_weight=1711.25 923.008 788.242 61.919 777.289 726.323 145.719 118.287 713.116 77.3883 757.736 19.5529 635.728 66.5707 112.652 30.2416 16.8079 27.4315 19.4395 12.6423 749.211 58.078 10.8176 13.207 739.83 630.771 28.2074 52.5561 11.2377 731.241
internal_count=6845 3775 3070 249 3203 2821 572 461 2767 304 3126 77 2463 260 438 119 67 111 78 50 3092 226 44 54 3054 2443 110 204 44 3019
is_linear=0
shrinkage=1


Tree=1
num_leaves=31
num_cat=0
split_feature=131 128 43 120 14 3 137 123 83 129 95 5 8 57 123 95 136 67 122 85 41 137 27 69 136 57 125 122 55 101
split_gain=3656.83 1057.78 243.384 226.86 151.217 114.349 111.865 54.7106 45.4792 37.3986 65.5511 33.948 29.4515 29.1201 20.5615 22.7819 17.4253 26.967 24.8647 15.282 13.9093 12.4513 6.08152 15.9621 5.03965 4.74074 25.5246 4.13056 6.0942 3.38294
threshold=-0.34645324361551422 0.13256220903118723 -0.1036711523759629 -0.5652839606497595 -175.15267201924374 3.5350388072808649 0.38513478530032358 -0.14173958735449205 -1.0000000180025095e-35 4.6535864740911341 0.048928774552627563 1.9691087506623617 -2.994798958904223 1.1641303607018394 0.90959420175629602 0.22364811723188832 5.4416082820771106 -0.28701846559105093 0.52900045792560124 -0.24559835408849612 0.97662285268188298 0.39550064299163695 -0.53205195593402388 0.95039327080191027 5.5143509083049844 0.86805597063072171 -0.20433800100238572 -0.27074015446338723 1.0413774964046258 318.40199036803284
decision_type=2 2 2 2 2 2 2 2 2 2 2 2 2 2 2 2 2 2 2 2 2 2 2 2 2 2 2 2 2 2
left_child=2 4 3 -1 12 9 8 -7 -3 13 24 21 -2 25 15 -10 17 -8 -19 22 -17 27 23 -12 -11 -4 -27 28 -6 -29
right_child=1 6 5 -5 11 7 16 -9 14 10 19 -13 -14 -15 -16 20 -18 18 -20 -21 -22 -23 -24 -25 -26 26 -28 29 -30 -31
leaf_value=-0.058252935345872135 0.055970687808157574 -0.036866892877921581 0.057830747640904068 0.058252932649091843 -0.05855398676822076 -0.054167238398681421 -0.053817767029553765 0.04465013562826959 -0.012519314686918501 -0.015885527387677369 -0.0038304145880146048 0.00053725056928009786 -0.020449501057215061 -0.015734372419627673 0.058252932649091843 0.0016283916783672364 -0.058252935345872135 0.058252932649091843 -0.026367713547209074 -0.0047516834338117665 0.058624603912446269 -0.02294126225331598 0.058408797967207979 0.053609019138453166 -0.058402596259782988 -0.016573496424427837 0.058427104336972437 -0.05817934328902661 -0.014774351532280818 -0.033179859176046218
leaf_weight=36.052493527531624 12.373918101191522 5.6327670961618415 602.02966825664043 25.810852646827698 6.7759881615638715 13.102618128061296 6.7920040637254777 8.1971934735774976 8.4410698860883731 4.9562627822160703 5.9876965135335949 9.2499842643737775 7.1678892076015464 4.9564115703105918 82.336619943380356 5.0022794902324703 7.9847804456949225 6.9689302146434766 5.6660736501216888 4.9878984391689292 16.779889345169067 9.3793218880891782 32.266928732395172 15.961067289113997 5.0816553384065628 4.9549039006233242 23.231275051832199 721.81577591598034 4.9536838084459305 4.9047315567731848
leaf_count=149 48 23 2333 100 28 54 28 32 34 20 24 37 29 20 319 20 33 27 23 20 65 38 125 62 21 20 90 2983 20 20
internal_value=1.58284e-09 -0.0405442 0.0474759 -0.00964393 -0.054456 0.052345 0.0336581 -0.0161376 0.0463216 0.0544158 0.0334796 -0.0565828 0.0279399 0.0566981 0.0504845 0.0293213 -0.0209438 -0.00560927 0.0203054 0.0454988 0.0455354 -0.0572893 0.0501219 0.0379393 -0.0374096 0.0572677 0.0452426 -0.0577256 -0.0400649 -0.0580106
internal_weight=1709.8 922.226 787.577 61.8633 776.621 725.714 145.604 21.2998 118.193 704.414 69.2415 757.079 19.5418 635.172 112.56 30.2232 27.4118 19.427 12.635 59.2036 21.7822 747.83 54.2157 21.9488 10.0379 630.216 28.1862 738.45 11.7297 726.721
internal_count=6845 3775 3070 249 3203 2821 572 86 461 2735 272 3126 77 2463 438 119 111 78 50 231 85 3089 211 86 41 2443 110 3051 48 3003
is_linear=0
shrinkage=0.03


Tree=2
num_leaves=31
num_cat=0
split_feature=131 128 43 122 14 11 137 83 129 95 10 8 57 65 132 136 67 122 85 137 17 128 55 71 136 44 83 57 55 84
split_gain=3449.3 997.822 229.542 214.022 142.684 120.578 105.492 42.8948 42.8561 51.6203 35.1239 27.7844 27.5063 20.505 18.1872 16.4456 25.4286 23.4538 13.3363 11.8065 8.31052 8.10128 19.6114 8.05166 7.98456 5.4922 4.65475 4.49264 24.5548 1.98652
threshold=-0.34645324361551422 0.13256220903118723 -0.1036711523759629 -0.27074015446338723 -175.15267201924374 2.8255899110769169 0.38513478530032358 -1.0000000180025095e-35 4.6535864740911341 0.048928774552627563 2.3174200468622952 -2.994798958904223 1.1641303607018394 -2.0549719513796219 113.61612012328808 5.4416082820771106 -0.28701846559105093 0.52900045792560124 -0.14973074830834832 0.39550064299163695 -7.2337899486727091 0.93916969240746095 0.80880920350598007 -0.32338496967784452 5.5143509083049844 -1.3543965732304424 0.33535102927764332 0.86805597063072171 0.0019205344438762357 -8.5425025081547883
decision_type=2 2 2 2 2 2 2 2 2 2 2 2 2 2 2 2 2 2 2 2 2 2 2 2 2 2 2 2 2 2
left_child=2 4 3 -1 11 8 7 -3 12 24 19 -2 27 -11 21 16 -8 -18 20 25 -15 22 -9 -7 -10 -6 -24 -4 -29 -27
right_child=1 6 5 -5 10 23 15 14 9 13 -12 -13 -14 18 -16 -17 17 -19 -20 -21 -22 -23 26 -25 -26 29 -28 28 -30 -31
leaf_value=-0.056654139549036114 0.054423543044774543 -0.03579860561849782 0.056241404595829242 0.056654137505660868 -0.032269878818964134 -0.057251312118083833 -0.052320557598210131 -0.016293828582655771 -0.0051027918543648737 -0.0021920480418263781 0.0055284502215466706 -0.019842450113042684 -0.015265271651055241 0.023101497211219266 -0.0042007287702061124 -0.056654139549036114 0.056654137505660875 -0.025590480221389066 0.00091335526924821696 -0.022262114964672498 0.057025025929877939 0.056654137505660868 0.024395564224303744 -0.0088567268325666047 -0.056791525411771335 -0.041120810698035637 0.057109928816014795 0.056928925885619298 -0.016670654380542424 -0.056582086174841263
leaf_weight=35.959093302488327 12.344317957758905 5.6269129812717429 600.49247892200947 25.743985176086426 8.57367956638336 8.213224917650221 6.7769800722599092 4.9533972740173366 5.7299693524837476 8.4876268804073316 8.5241135507822019 7.1655957102775565 4.9554725736379615 7.5869651138782421 5.4841173142194739 7.9640944898128501 6.9508759975433332 5.6630600541830063 5.0018805563449922 9.375544920563696 45.337211847305298 79.548914194107056 5.0624814182519939 4.9642394036054602 5.0692081451416016 7.557390257716178 17.260088264942169 23.178764849901203 4.9511427283287039 721.16386696696281
leaf_count=149 48 23 2333 100 35 34 28 20 23 34 34 29 20 30 22 33 27 23 20 38 176 309 20 20 21 31 67 90 20 2988
internal_value=8.8114e-09 -0.0394246 0.0461649 -0.00937924 -0.0529548 0.0508989 0.03272 0.0450314 0.0525659 0.0314645 -0.0550242 0.0271471 0.0551375 0.0413558 0.0490811 -0.0203582 -0.005451 0.0197302 0.0477366 -0.0557155 0.0521619 0.0518165 0.0377077 -0.03902 -0.0293658 -0.0561409 0.0496907 0.0556925 0.0439747 -0.0564217
internal_weight=1705.67 919.995 785.671 61.7031 774.705 723.968 145.291 117.936 710.791 77.2129 755.195 19.5099 633.578 66.4137 112.309 27.355 19.3909 12.6139 57.9261 746.67 52.9242 106.825 27.276 13.1775 10.7992 737.295 22.3226 628.622 28.1299 728.721
internal_count=6845 3775 3070 249 3203 2821 572 461 2767 304 3126 77 2463 260 438 111 78 50 226 3092 206 416 107 54 44 3054 87 2443 110 3019
is_linear=0
shrinkage=0.03


Tree=3
num_leaves=31
num_cat=0
split_feature=131 123 43 120 7 11 127 16 129 95 5 57 62 62 135 123 127 137 17 41 46 85 17 45 88 57 136 130 47 120
split_gain=3258.39 943.212 216.79 202.234 141.635 113.926 101.125 79.1175 40.6943 48.7078 39.4712 26.0428 20.0824 19.2748 28.7892 19.2199 23.1488 15.5632 13.0013 7.82984 7.62557 7.24872 7.15674 5.67222 5.58331 4.27572 23.6629 4.21992 3.69035 1.98229
threshold=-0.34645324361551422 0.10120779010087272 -0.1036711523759629 -0.5652839606497595 -4.9852415408038544 2.8255899110769169 1.0734589650643234 1.696148664420376 4.6535864740911341 0.048928774552627563 2.300237350658914 1.1641303607018394 -2.1980278553427515 -1.5514658642088377 3.6470126899790092 0.55429381795823063 0.40043117878510676 0.39550064299163695 -17.517715648790844 1.121789862861134 -0.70725900635643657 -0.20860109803389196 -7.2337899486727091 -1.3124548456092764 2.2211055888754094 0.86805597063072171 0.0046744626790312721 -0.18803716520061772 1.0407098358234015 -0.44324439056326886
decision_type=2 2 2 2 2 2 2 2 2 2 2 2 2 2 2 2 2 2 2 2 2 2 2 2 2 2 2 2 2 2
left_child=2 4 3 -1 24 8 7 15 11 20 18 25 -11 14 -9 16 17 -3 -6 -7 -10 22 -14 -20 -2 -4 -27 -19 -17 -25
right_child=1 6 5 -5 10 19 -8 13 9 12 -12 -13 21 -15 -16 28 -18 27 23 -21 -22 -23 -24 29 -26 26 -28 -29 -30 -31
leaf_value=-0.055186053679213719 0.017319324697180106 -0.048142807501454297 0.054780677534882444 0.055186048368844429 -0.0081306448474232334 -0.055953246533725118 0.055251098936931357 -0.040688750640635846 -0.05541700478496811 -0.00080475694087077008 0.014630726956910742 -0.014811853041018438 0.023791750496110473 0.056377393087271431 0.051624481566052649 -0.057283367375508674 0.047890657461353382 -0.014501301157455624 -0.025322731408025968 -0.0081849873466639713 -0.0048494295514300671 0.012498462171691708 0.054899071228115812 -0.042471676804489683 0.05681207936979709 0.055546382504870498 -0.016765049774379294 0.024541678221396815 -0.026025395954230909 -0.055079122686240781
leaf_weight=35.810368314385414 5.0220220834016791 9.6935000568628364 598.04475140571594 25.637510418891907 5.447414204478263 8.1889906972646695 74.353773444890976 5.5968977659940702 5.049876794219017 9.2383536249399167 7.5506045669317237 4.9539756625890723 7.8388188481330792 22.083254158496857 6.6567562967538834 11.108498290181162 5.6355433762073508 4.9262591302394867 5.8890632241964331 4.9581110626459113 5.7285580486059171 5.0325134098529878 44.12401570379734 11.401407495141028 8.9878131449222547 23.095392525196079 4.9448492228984824 5.04105396568775 4.898177057504653 722.15231792628765
leaf_count=149 20 40 2333 100 22 34 290 23 21 37 30 20 31 86 26 46 22 20 24 20 23 20 172 47 35 90 20 20 20 3004
internal_value=1.69154e-08 -0.0383923 0.0449557 -0.0091362 -0.0518561 0.0495645 0.0304062 0.00598367 0.0511892 0.0306017 -0.0536158 0.0537017 0.0402262 0.0396342 0.0094601 -0.0219914 -0.00571243 -0.0210771 -0.0543076 -0.0379386 -0.0285412 0.0468769 0.0502064 -0.0546477 0.0426553 0.0542439 0.0427944 0.00524502 -0.0477182 -0.0548832
internal_weight=1699.09 916.444 782.646 61.4479 766.451 721.198 149.994 75.6399 708.051 77.0121 752.441 631.039 66.2337 34.3369 12.2537 41.303 25.2964 19.6608 744.89 13.1471 10.7784 56.9953 51.9628 739.443 14.0098 626.085 28.0402 9.96731 16.0067 733.554
internal_count=6845 3775 3070 249 3182 2821 593 303 2767 304 3127 2463 260 135 49 168 102 80 3097 54 44 223 203 3075 55 2443 110 40 66 3051
is_linear=0
shrinkage=0.03


Tree=4
num_leaves=31
num_cat=0
split_feature=131 128 43 120 14 11 137 129 81 83 10 8 57 115 62 132 67 129 122 20 137 43 71 128 55 85 44 128 35 57
split_gain=3082.15 891.448 205.011 191.376 128.623 107.796 94.9119 38.768 45.2586 38.3864 32.0929 25.1816 24.7104 18.4654 40.0697 16.2706 14.1262 19.1101 18.1951 11.3508 10.9604 9.80681 7.53815 7.29977 17.8055 7.21308 5.12758 7.45726 4.31073 4.085
threshold=-0.34645324361551422 0.13256220903118723 -0.1036711523759629 -0.5652839606497595 -175.15267201924374 2.8255899110769169 0.38513478530032358 4.6535864740911341 0.037519349310880037 -1.0000000180025095e-35 2.3174200468622952 -2.994798958904223 1.1641303607018394 0.68385029253774865 -1.4723681840194485 113.61612012328808 -0.28701846559105093 23.308282338925096 0.52900045792560124 -0.45353632236179547 0.39550064299163695 0.96396333833277559 -0.32338496967784452 0.93916969240746095 0.80880920350598007 -0.35983116559004863 -1.1674169916832973 -0.10854751318395937 0.089820554368973363 0.86805597063072171
decision_type=2 2 2 2 2 2 2 2 2 2 2 2 2 2 2 2 2 2 2 2 2 2 2 2 2 2 2 2 2 2
left_child=2 4 3 -1 11 7 9 12 21 -3 20 -2 29 14 -10 23 -8 18 -18 -16 26 -9 -7 24 -11 -15 27 -6 -26 -4
right_child=1 6 5 -5 10 22 16 8 13 15 -12 -13 -14 25 19 -17 17 -19 -20 -21 -22 -23 -24 -25 28 -27 -28 -29 -30 -31
leaf_value=-0.053833789277231966 0.052070290353374751 -0.033865910724918451 0.05343397070608822 0.053833789239736085 -0.0056569727818125311 -0.054655547532347991 -0.051121234472435467 0.0011538418743861402 -0.059521000815645903 -0.015688384840643482 0.0056208791776955602 -0.018759071493089325 -0.014373396519504429 0.054884091614888074 0.0039669350396447315 -0.0038197501715678765 0.044474788802491887 -0.054585694680397069 -0.025715956322332013 0.054566305428014425 -0.020666862352233493 -0.056778883581727745 -0.0077346985570725946 0.05383574656860074 0.02288954453909281 0.016691628518915997 -0.053661909099169763 -0.054985591710849706 0.054452765934326602 0.041692572044405775
leaf_weight=35.611522883176804 12.252910763025286 5.6031369417905799 594.7719856351614 25.495150685310364 4.9413394927978516 8.1515644043683988 8.6499177962541598 5.2230285406112653 4.8377632349729565 4.9446294456720379 8.5208435207605344 7.155753642320632 4.9519723504781714 38.375951081514359 5.9774201661348387 5.4753781557083121 7.6263836324214953 5.0352916419506064 5.891525462269783 12.000990539789196 9.353827163577078 5.2966789454221725 4.9546292573213568 78.780748218297958 5.0411532968282726 5.0343244075775138 719.12920691072941 6.2428696751594526 17.118137985467911 27.920119971036911
leaf_count=149 48 23 2333 100 20 34 36 21 20 20 34 29 20 150 24 22 30 21 24 47 38 22 20 309 20 20 3008 26 67 110
internal_value=2.05422e-08 -0.0374347 0.043837 -0.00891233 -0.0502904 0.0483295 0.0310136 0.0499156 0.0297886 0.0427527 -0.0522683 0.0259563 0.0523767 0.0389704 0.01712 0.0466078 -0.01946 -0.00469888 0.0138835 0.0377431 -0.0529351 -0.0280153 -0.0369177 0.0492155 0.0357862 0.0504549 -0.0533484 -0.0331915 0.0472723 0.0529075
internal_weight=1690.37 911.763 778.603 61.1067 767.597 717.496 144.166 704.39 76.7462 116.963 748.188 19.4087 627.644 66.2264 22.8162 111.36 27.2031 18.5532 13.5179 17.9784 739.667 10.5197 13.1062 105.885 27.1039 43.4103 730.313 11.1842 22.1593 622.692
internal_count=6845 3775 3070 249 3203 2821 572 2767 304 461 3126 77 2463 261 91 438 111 75 54 71 3092 43 54 416 107 170 3054 46 87 2443
is_linear=0
shrinkage=0.03


Tree=5
num_leaves=31
num_cat=0
split_feature=127 123 6 47 123 3 20 127 16 95 15 40 100 45 123 127 62 135 15 134 68 135 47 132 0 45 18 47 135 132
split_gain=2750.83 924.621 216.826 182.905 183.205 87.5383 74.4757 70.5122 99.7298 61.5634 30.0577 27.4566 23.7765 18.7374 17.8613 21.1815 16.7042 30.1167 15.979 14.1761 11.8869 20.6306 10.9994 6.97955 12.6665 3.64199 3.60689 1.66288 8.22531 1.64384
threshold=-0.64552865797265901 0.10120779010087272 -1.7229383392433291 -0.29596314274966168 -0.99047908279370911 3.8967887346133567 1.4335257010687865 1.0734589650643234 1.696148664420376 0.60438360616117215 51.550639458292729 -0.91366056061853451 -1.2385934889109349 -1.2826129531607362 0.55429381795823063 0.40043117878510676 -1.5514658642088377 3.6470126899790092 4.8175549970707969 -151.14935203562854 -0.85878748777477198 2.2748575814173031 1.229811778726235 22.754946908335697 0.33755272879631182 -0.9530696937163422 0.43379790940766555 -0.15314447727374816 -0.0038614433054204251 -38.994969028731632
decision_type=2 2 2 2 2 2 2 2 2 2 2 2 2 2 2 2 2 2 2 2 2 2 2 2 2 2 2 2 2 2
left_child=3 2 9 4 11 18 10 8 14 12 13 -1 -2 -4 15 20 17 -10 23 -20 -3 -22 -11 27 -25 -7 -16 28 -5 -15
right_child=1 7 6 5 -6 25 -8 -9 16 22 -12 -13 -14 29 26 -17 -18 -19 19 -21 21 -23 -24 24 -26 -27 -28 -29 -30 -31
leaf_value=0.022481521090298665 -0.050688723859910204 -0.05425246379574606 -0.0027722822774834083 0.052682391308356176 0.051035062193981129 -0.055295172079504511 0.060377732833403377 0.052775013153274951 -0.039099107266966832 0.054527205747435838 0.020093590068435672 -0.052818509358883978 0.027311816449311237 -0.045323401934251356 -0.024350846562739038 0.04611505611685765 0.053984459395050054 0.050374481915723364 0.048221048633899873 -0.023394681920307303 0.032516479064728425 -0.042138308271060493 0.0051608185396934394 -0.0084239943107370305 0.052631540241202701 -0.019337268855602011 -0.055357357497936903 0.052118883896518114 0.0096817334343994033 -0.052631049087244829
leaf_weight=4.9700723886489859 11.773401796817781 6.2220544666051874 6.927812620997428 20.520714998245243 33.920548439025879 5.2819486260414124 5.4067317545413962 75.248214781284332 5.5733488500118247 22.41371634602547 5.2596936821937552 35.394778937101364 5.0155352205038062 28.841463178396225 4.8626674413681004 5.6099799871444693 34.07858407497406 8.6261819005012494 5.0612535178661346 4.8920412361621839 6.8045656085014379 6.5271948575973511 4.9612158089876166 4.9111370444297782 8.1048755645751935 4.8747301995754224 11.047990739345551 588.87454678118229 4.9739505052566519 702.64950133860111
leaf_count=20 49 26 28 81 134 22 21 297 23 88 21 149 20 120 20 22 134 34 20 20 27 27 20 20 32 20 46 2325 20 2959
internal_value=1.22839e-08 -0.0333273 -0.0467539 0.0442275 -0.000358447 0.0493428 -0.0505623 0.0313785 0.0133594 0.0178419 -0.0513688 -0.0435469 -0.0273868 -0.0518779 -0.0210018 -0.00527113 0.0425936 0.0152559 0.0507353 0.0130219 -0.0200138 -0.00403431 0.0455804 0.0513336 0.0295944 -0.0380371 -0.045881 0.0517941 0.0442931 -0.0523429
internal_weight=1679.63 957.85 793.249 721.781 74.2854 647.495 749.085 164.601 89.3526 44.1639 743.678 40.3649 16.7889 738.419 41.0745 25.1638 48.2781 14.1995 637.339 9.95329 19.5538 13.3318 27.3749 627.385 13.016 10.1567 15.9107 614.369 25.4947 731.491
internal_count=6845 3982 3326 2863 303 2560 3149 656 359 177 3128 169 69 3107 168 102 191 57 2518 40 80 54 108 2478 52 42 66 2426 101 3079
is_linear=0
shrinkage=0.03


end of trees

feature_importances:
gps_speed_residual__lag1_autocorrelation=10
path_dev_mag__lag1_autocorrelation=9
path_dev_mag__max=8
path_dev_mag__min=7
path_dev_mag__q90=7
path_dev_mag__range=7
gps_speed_residual__max=6
pitch_error__diff_std=6
path_dev_mag__diff_abs_max=6
pitch_error__max=5
path_dev_mag__q75=5
path_dev_mag__last=5
xtrack_error__q90=4
xtrack_error__last=4
xtrack_error__diff_mean=4
gps_speed_residual__q10=4
gps_speed_residual__q75=4
gps_speed_residual__diff_std=4
roll_error__min=4
roll_error__q75=4
pitch_error__q10=4
path_dev_mag__mean=4
path_dev_mag__last_minus_first=4
path_dev_mag__diff_std=4
xtrack_error__first=3
xtrack_error__lag1_autocorrelation=3
gps_speed_residual__median=3
xtrack_error__max=2
xtrack_error__q10=2
xtrack_error__diff_std=2
xtrack_error__diff_abs_max=2
alt_error__mean=2
gps_speed_residual__std=2
gps_speed_residual__q25=2
roll_error__q10=2
roll_error__q90=2
roll_error__last=2
pitch_error__median=2
xtrack_error__mean=1
xtrack_error__std=1
xtrack_error__q25=1
xtrack_error__q75=1
xtrack_error__missing_fraction=1
alt_error__q75=1
alt_error__diff_std=1
gps_speed_residual__mean=1
roll_error__range=1
roll_error__last_minus_first=1
pitch_error__std=1
pitch_error__q25=1
pitch_error__q90=1
airspeed_error__mean=1
airspeed_error__std=1
airspeed_error__diff_std=1
path_dev_mag__q10=1
path_dev_mag__q25=1
path_dev_mag__first=1
path_dev_mag__diff_mean=1

parameters:
[boosting: gbdt]
[objective: binary]
[metric: average_precision,binary_logloss]
[tree_learner: serial]
[device_type: cpu]
[data_sample_strategy: bagging]
[data: ]
[valid: ]
[num_iterations: 500]
[learning_rate: 0.03]
[num_leaves: 31]
[num_threads: 20]
[seed: 0]
[deterministic: 0]
[force_col_wise: 0]
[force_row_wise: 0]
[histogram_pool_size: -1]
[max_depth: -1]
[min_data_in_leaf: 20]
[min_sum_hessian_in_leaf: 0.001]
[bagging_fraction: 0.8]
[pos_bagging_fraction: 1]
[neg_bagging_fraction: 1]
[bagging_freq: 0]
[bagging_seed: 7719]
[bagging_by_query: 0]
[feature_fraction: 0.8]
[feature_fraction_bynode: 1]
[feature_fraction_seed: 2437]
[extra_trees: 0]
[extra_seed: 11797]
[early_stopping_round: 0]
[early_stopping_min_delta: 0]
[first_metric_only: 0]
[max_delta_step: 0]
[lambda_l1: 0]
[lambda_l2: 0]
[linear_lambda: 0]
[min_gain_to_split: 0]
[drop_rate: 0.1]
[max_drop: 50]
[skip_drop: 0.5]
[xgboost_dart_mode: 0]
[uniform_drop: 0]
[drop_seed: 21238]
[top_rate: 0.2]
[other_rate: 0.1]
[min_data_per_group: 100]
[max_cat_threshold: 32]
[cat_l2: 10]
[cat_smooth: 10]
[max_cat_to_onehot: 4]
[top_k: 20]
[monotone_constraints: ]
[monotone_constraints_method: basic]
[monotone_penalty: 0]
[feature_contri: ]
[forcedsplits_filename: ]
[refit_decay_rate: 0.9]
[cegb_tradeoff: 1]
[cegb_penalty_split: 0]
[cegb_penalty_feature_lazy: ]
[cegb_penalty_feature_coupled: ]
[path_smooth: 0]
[interaction_constraints: ]
[verbosity: -1]
[saved_feature_importance_type: 0]
[use_quantized_grad: 0]
[num_grad_quant_bins: 4]
[quant_train_renew_leaf: 0]
[stochastic_rounding: 1]
[linear_tree: 0]
[max_bin: 255]
[max_bin_by_feature: ]
[min_data_in_bin: 3]
[bin_construct_sample_cnt: 200000]
[data_random_seed: 38]
[is_enable_sparse: 1]
[enable_bundle: 1]
[use_missing: 1]
[zero_as_missing: 0]
[feature_pre_filter: 1]
[pre_partition: 0]
[two_round: 0]
[header: 0]
[label_column: ]
[weight_column: ]
[group_column: ]
[ignore_column: ]
[categorical_feature: ]
[forcedbins_filename: ]
[precise_float_parser: 0]
[parser_config_file: ]
[objective_seed: 8855]
[num_class: 1]
[is_unbalance: 0]
[scale_pos_weight: 1]
[sigmoid: 1]
[boost_from_average: 1]
[reg_sqrt: 0]
[alpha: 0.9]
[fair_c: 1]
[poisson_max_delta_step: 0.7]
[tweedie_variance_power: 1.5]
[lambdarank_truncation_level: 30]
[lambdarank_norm: 1]
[label_gain: ]
[lambdarank_position_bias_regularization: 0]
[eval_at: ]
[multi_error_top_k: 1]
[auc_mu_weights: ]
[num_machines: 1]
[local_listen_port: 12400]
[time_out: 120]
[machine_list_filename: ]
[machines: ]
[gpu_platform_id: -1]
[gpu_device_id: -1]
[gpu_use_dp: 0]
[num_gpu: 1]

end of parameters

pandas_categorical:[]
