tree
version=v4
num_class=1
num_tree_per_iteration=1
label_index=0
max_feature_idx=239
objective=binary sigmoid:1
feature_names=gps_speed_residual__mean gps_speed_residual__std gps_speed_residual__min gps_speed_residual__max gps_speed_residual__median gps_speed_residual__q10 gps_speed_residual__q25 gps_speed_residual__q75 gps_speed_residual__q90 gps_speed_residual__range gps_speed_residual__first gps_speed_residual__last gps_speed_residual__last_minus_first gps_speed_residual__linear_slope gps_speed_residual__diff_mean gps_speed_residual__diff_std gps_speed_residual__diff_abs_max gps_speed_residual__lag1_autocorrelation gps_speed_residual__missing_fraction gps_speed_residual__stale_fraction alt_baro_residual__mean alt_baro_residual__std alt_baro_residual__min alt_baro_residual__max alt_baro_residual__median alt_baro_residual__q10 alt_baro_residual__q25 alt_baro_residual__q75 alt_baro_residual__q90 alt_baro_residual__range alt_baro_residual__first alt_baro_residual__last alt_baro_residual__last_minus_first alt_baro_residual__linear_slope alt_baro_residual__diff_mean alt_baro_residual__diff_std alt_baro_residual__diff_abs_max alt_baro_residual__lag1_autocorrelation alt_baro_residual__missing_fraction alt_baro_residual__stale_fraction alt_local_residual__mean alt_local_residual__std alt_local_residual__min alt_local_residual__max alt_local_residual__median alt_local_residual__q10 alt_local_residual__q25 alt_local_residual__q75 alt_local_residual__q90 alt_local_residual__range alt_local_residual__first alt_local_residual__last alt_local_residual__last_minus_first alt_local_residual__linear_slope alt_local_residual__diff_mean alt_local_residual__diff_std alt_local_residual__diff_abs_max alt_local_residual__lag1_autocorrelation alt_local_residual__missing_fraction alt_local_residual__stale_fraction attitude_error_mag__mean attitude_error_mag__std attitude_error_mag__min attitude_error_mag__max attitude_error_mag__median attitude_error_mag__q10 attitude_error_mag__q25 attitude_error_mag__q75 attitude_error_mag__q90 attitude_error_mag__range attitude_error_mag__first attitude_error_mag__last attitude_error_mag__last_minus_first attitude_error_mag__linear_slope attitude_error_mag__diff_mean attitude_error_mag__diff_std attitude_error_mag__diff_abs_max attitude_error_mag__lag1_autocorrelation attitude_error_mag__missing_fraction attitude_error_mag__stale_fraction control_strain__mean control_strain__std control_strain__min control_strain__max control_strain__median control_strain__q10 control_strain__q25 control_strain__q75 control_strain__q90 control_strain__range control_strain__first control_strain__last control_strain__last_minus_first control_strain__linear_slope control_strain__diff_mean control_strain__diff_std control_strain__diff_abs_max control_strain__lag1_autocorrelation control_strain__missing_fraction control_strain__stale_fraction innovation_check_flags_bit_count__mean innovation_check_flags_bit_count__std innovation_check_flags_bit_count__min innovation_check_flags_bit_count__max innovation_check_flags_bit_count__median innovation_check_flags_bit_count__q10 innovation_check_flags_bit_count__q25 innovation_check_flags_bit_count__q75 innovation_check_flags_bit_count__q90 innovation_check_flags_bit_count__range innovation_check_flags_bit_count__first innovation_check_flags_bit_count__last innovation_check_flags_bit_count__last_minus_first innovation_check_flags_bit_count__linear_slope innovation_check_flags_bit_count__diff_mean innovation_check_flags_bit_count__diff_std innovation_check_flags_bit_count__diff_abs_max innovation_check_flags_bit_count__lag1_autocorrelation innovation_check_flags_bit_count__missing_fraction innovation_check_flags_bit_count__stale_fraction gps_check_fail_flags_bit_count__mean gps_check_fail_flags_bit_count__std gps_check_fail_flags_bit_count__min gps_check_fail_flags_bit_count__max gps_check_fail_flags_bit_count__median gps_check_fail_flags_bit_count__q10 gps_check_fail_flags_bit_count__q25 gps_check_fail_flags_bit_count__q75 gps_check_fail_flags_bit_count__q90 gps_check_fail_flags_bit_count__range gps_check_fail_flags_bit_count__first gps_check_fail_flags_bit_count__last gps_check_fail_flags_bit_count__last_minus_first gps_check_fail_flags_bit_count__linear_slope gps_check_fail_flags_bit_count__diff_mean gps_check_fail_flags_bit_count__diff_std gps_check_fail_flags_bit_count__diff_abs_max gps_check_fail_flags_bit_count__lag1_autocorrelation gps_check_fail_flags_bit_count__missing_fraction gps_check_fail_flags_bit_count__stale_fraction filter_fault_flags_bit_count__mean filter_fault_flags_bit_count__std filter_fault_flags_bit_count__min filter_fault_flags_bit_count__max filter_fault_flags_bit_count__median filter_fault_flags_bit_count__q10 filter_fault_flags_bit_count__q25 filter_fault_flags_bit_count__q75 filter_fault_flags_bit_count__q90 filter_fault_flags_bit_count__range filter_fault_flags_bit_count__first filter_fault_flags_bit_count__last filter_fault_flags_bit_count__last_minus_first filter_fault_flags_bit_count__linear_slope filter_fault_flags_bit_count__diff_mean filter_fault_flags_bit_count__diff_std filter_fault_flags_bit_count__diff_abs_max filter_fault_flags_bit_count__lag1_autocorrelation filter_fault_flags_bit_count__missing_fraction filter_fault_flags_bit_count__stale_fraction timeout_flags_bit_count__mean timeout_flags_bit_count__std timeout_flags_bit_count__min timeout_flags_bit_count__max timeout_flags_bit_count__median timeout_flags_bit_count__q10 timeout_flags_bit_count__q25 timeout_flags_bit_count__q75 timeout_flags_bit_count__q90 timeout_flags_bit_count__range timeout_flags_bit_count__first timeout_flags_bit_count__last timeout_flags_bit_count__last_minus_first timeout_flags_bit_count__linear_slope timeout_flags_bit_count__diff_mean timeout_flags_bit_count__diff_std timeout_flags_bit_count__diff_abs_max timeout_flags_bit_count__lag1_autocorrelation timeout_flags_bit_count__missing_fraction timeout_flags_bit_count__stale_fraction attitude_missing__mean attitude_missing__std attitude_missing__min attitude_missing__max attitude_missing__median attitude_missing__q10 attitude_missing__q25 attitude_missing__q75 attitude_missing__q90 attitude_missing__range attitude_missing__first attitude_missing__last attitude_missing__last_minus_first attitude_missing__linear_slope attitude_missing__diff_mean attitude_missing__diff_std attitude_missing__diff_abs_max attitude_missing__lag1_autocorrelation attitude_missing__missing_fraction attitude_missing__stale_fraction battery_missing__mean battery_missing__std battery_missing__min battery_missing__max battery_missing__median battery_missing__q10 battery_missing__q25 battery_missing__q75 battery_missing__q90 battery_missing__range battery_missing__first battery_missing__last battery_missing__last_minus_first battery_missing__linear_slope battery_missing__diff_mean battery_missing__diff_std battery_missing__diff_abs_max battery_missing__lag1_autocorrelation battery_missing__missing_fraction battery_missing__stale_fraction gps_health_missing__mean gps_health_missing__std gps_health_missing__min gps_health_missing__max gps_health_missing__median gps_health_missing__q10 gps_health_missing__q25 gps_health_missing__q75 gps_health_missing__q90 gps_health_missing__range gps_health_missing__first gps_health_missing__last gps_health_missing__last_minus_first gps_health_missing__linear_slope gps_health_missing__diff_mean gps_health_missing__diff_std gps_health_missing__diff_abs_max gps_health_missing__lag1_autocorrelation gps_health_missing__missing_fraction gps_health_missing__stale_fraction
feature_infos=[-0.52574358593922821:809.77719405283779] [-0.60018015417647874:142.81804083309123] [-0.25516466046331454:27367.333584427448] [-0.6176590780010327:688.67396963794499] [-0.47885164647402018:917.94119917889805] [-0.43946432385840684:3999.9147281461214] [-0.44999173800614345:1839.028684349011] [-0.54420467533793349:590.71291120842659] [-0.61189302254072342:453.66711168479122] [-0.63856552258990451:755.12494050503392] [-0.35119458790997116:874.99298045134765] [-0.40574786649048372:840.83640449743405] [-175.53775128811338:1077.7329506207848] [-97.363550316482659:149.18051898510518] [-665.31981472834616:2612.3438416971262] [-0.4252495602157641:322.36116165687969] [-0.50053794207387192:1554.1854587560856] [-7.1061715799714724:0.67611726748678069] [0:1] [0:1] [-1.307863712537102:1.2108141840720663] [-0.40133451952057408:1.0442951450610742] [-2.6405105590820312:1.0490150451660156] [-1.2313499450683594:2.9979324340820312] [-1.3936309814453125:0.83053970336914062] [-2.0597015380859376:0.93243408203125] [-1.6995038986206055:0.90508937835693359] [-0.73454189300537109:1.6215333938598633] [-0.73500976562500009:2.5537620544433586] [-1.9970626831054688:3.2465972900390625] [-1.6027183532714844:3.6723480224609375] [-2.679962158203125:3.5736885070800781] [-4.3924674987792969:3.524169921875] [-0.3644061610681793:0.40562772777657929] [-0.092818644663851604:0.20863499592259988] [-0.51615589513258597:0.18730663824237492] [-1.3993682861328125:2.9424018859863281] [-0.88807693173070601:0.72500319298317983] [-1:0] [-1:0] [-0.17419281005859374:0.088749389648437496] [0:0.035189408348289708] [-0.20052337646484375:0.0674285888671875] [-0.140533447265625:0.1273956298828125] [-0.183837890625:0.085552215576171875] [-0.19463729858398438:0.073786926269531247] [-0.19233512878417969:0.078821182250976562] [-0.15450286865234375:0.096231460571289062] [-0.14282150268554689:0.11003112792968751] [0:0.20323944091796875] [-0.18325042724609375:0.1091461181640625] [-0.20052337646484375:0.1273956298828125] [-0.12689971923828125:0.0994110107421875] [-0.010829378584589322:0.0094187453182023456] [-0.0037323446834788602:0.0020710627237955728] [0:0.031818471567994236] [0:0.13076400756835938] [-1.3236690858349174:0.32480724495466384] none none [-1.1152772328545042:65.798601158847546] [-1.0115552108165247:31.723622175939145] [-0.63983738981243954:206.29690979883742] [-1.0206932740511137:20.042131645446705] [-1.0401197788545802:75.405296737374613] [-0.96896653711354896:132.79453669108207] [-1.0908991609263046:106.95606063847414] [-1.0187905213311617:48.797396201791216] [-0.97621400135271008:32.485502732542464] [-0.98861602073193744:19.816390256059517] [-0.84234390305848139:54.706191604986053] [-0.78871093159778294:50.373086592371038] [-58.494777061820606:15.450482069494768] [-138.41815148498026:47.310014072267798] [-231.92824372074153:181.24458109187125] [-0.86194118416088106:13.87169127861981] [-0.8914086262617601:8.5906977386448649] [-3.6409364516314198:0.71186783280928545] none none [-1.0185729707601514:76.342034042536724] [-0.9666199832541903:13.388905345108972] [-0.62196826499028179:426.84967229499341] [-0.91898189876055092:22.103425578624766] [-0.91713607389132812:90.770451533507867] [-0.85450881808996704:218.41601206584627] [-0.87933709065205679:145.71288455965575] [-0.96543893715703855:57.606326503447832] [-0.98991494672223002:39.110652023425395] [-0.87831338863701325:22.223614114197062] [-0.59129435507312778:66.971372534613565] [-0.62971261682070501:63.53368630990073] [-29.382805646554235:49.177918885460691] [-57.364858481306833:87.996132347520671] [-292.25361035920184:236.60147151759844] [-1.0672663177816841:19.730334215992087] [-0.91965243087535065:31.97367018670738] [-3.2431709998874969:1.191599847632858] none none [0:2.808080808080808] [0:0.93933963131819553] [0:2] [0:4] [0:3] [0:2] [0:2] [0:4] [0:4] [0:3] [0:3] [0:4] [-2:2] [-0.14991521756878978:0.2903282995929794] [-0.040816326530612242:0.041666666666666664] [0:0.59475426765084149] [0:1] [-0.92910628019323704:0.11590700822438116] none none [0:0.2857142857142857] [0:0.45175395145262565] none [0:1] none none none none [0:1] [0:1] none none none none none [0:0.20412414523193151] [0:1] none none none none none none none none none none none none none none none none none none none none none none none [0:1.25] [0:1.2] [0:1.2] [0:1.3999999999999999] [0:1.2] [0:1.2] [0:1.2] [0:1.25] [0:1.3999999999999999] [0:3] [0:1.3999999999999999] [0:1.3999999999999999] [-3:1] [-0.99867176655049228:0.99854212849239243] [-1:1] [0:1.3416407864998738] [0:3] [-1.4412998405103674:0.056774382374358834] none none none none none none none none none none none none none none none none none none none none none none [-5.1366120218579265:20.032786885245912] [-14.13043999110632:3.3998647540719449] [0:1] [-1:0] [0:1] [0:1] [0:1] [0:1] [-1:0] [-1:0] [0:1] [0:1] [-1:1] [-92.671306367153164:716.37725647036996] [-0.020833333333333332:0.33333333333333331] [-14.335779810857275:4.7692578005806139] [-1:0] [-4.7936575969776039:12.33828653700853] none none [-1:0] [0:0.49690399499995336] [-1:0] [-1:0] [-1:0] [-1:0] [-1:0] [-1:0] [-1:0] [0:1] [-1:0] [-1:0] none [-1.4894204362328478:0.10835620983139813] none [0:0.47140452079103168] [0:1] [-0.59390322321356659:0.39546295388760422] none none
tree_sizes=3454 3452 3472 3487 3471 3471 3458 3474 3476 3486 3464 3460 3477 3475 3486 3477 3490 3479 3480 3474 3491 3488 3473 3468 3485 3470 3461 3490 3495 3490 3485 3479 3482

Tree=0
num_leaves=31
num_cat=0
split_feature=3 201 63 47 160 66 66 5 0 75 103 8 8 62 76 77 62 95 76 0 77 75 84 95 77 3 95 160 81 63
split_gain=2622.7 472.217 432.602 211.58 182.643 176.137 167.507 165.647 158.186 157.253 141.433 140.919 175.271 170.07 131.623 106.222 143.194 102.067 171.346 101.876 87.9223 78.2825 73.9987 80.5841 70.4218 160.368 86.9431 66.1041 65.5304 60.0476
threshold=1.9397552131302638 1.1052998696389531 1.880756509713162 1.0000000180025095e-35 0.59677419354838712 -0.13349200798254454 -0.79416404299298782 3490.2130076462804 -1.0000000180025095e-35 -0.11287541701123675 1.5000000000000002 -0.45586101970553866 0.5407586184656884 -0.12852804778340943 0.32441174364462982 0.6383893049428716 1.1969625421602015 -0.19507970988994255 0.084233111633565894 1.5267683299198254 0.28471783608500117 -0.35660247722585109 0.092280314408711969 -0.48987122117612497 -0.84986079495573585 -0.24748405606542709 -0.6761081466465334 0.99800000000000011 0.38217344379784229 1.3736814166638946
decision_type=2 2 2 2 2 2 2 2 2 2 2 2 2 2 2 2 2 2 2 2 2 2 2 2 2 2 2 2 2 2
left_child=1 2 3 5 -5 6 -1 19 9 -3 15 28 24 27 -4 17 -17 18 22 21 -16 -2 -7 -24 25 -13 -26 -14 -8 -19
right_child=7 8 14 4 -6 10 11 -9 -10 -11 -12 12 13 -15 20 16 -18 29 -20 -21 -22 -23 23 -25 26 -27 -28 -29 -30 -31
leaf_value=-0.046111663903350704 0.049385096413428246 -5.7118909371986232e-05 0.059438464614991693 0.039421388931400153 -0.059999979115456563 -0.053202571039730424 0.019205160503338099 -0.059999979115456563 -0.040750600236333298 0.039899480609071995 0.058667188090288785 0.045417872520756963 -0.033358693733155406 -0.040261616527528972 0.028081112835526192 0.053543868985216417 -0.051749958230474603 -0.050521888794910465 0.026532608716551196 0.056751284473501286 -0.031662848822853015 -0.033751407342336323 0.037581694394477991 -0.037508830254229214 0.016296286212081724 -0.059999979115456563 -0.03895438560709024 0.049104090620820204 -0.059999979115456563 -0.0120352305108243
leaf_weight=154.13503181934357 20.385511696338654 168.14372378587723 64.223503708839417 75.35971212387085 21.338524103164673 104.97510635852814 141.89165711402893 11.721161127090452 41.702824294567108 187.49765253067017 13.529495716094969 32.152083039283752 10.043978154659269 36.150852560997009 53.670156180858612 25.137729525566101 21.622934222221375 555.22734647989273 47.415225386619568 627.22194808721542 37.77157187461853 20.388498902320862 20.109167814254761 35.691972434520721 28.057414054870605 21.789337992668152 296.6719878911972 67.854213535785675 10.068176865577696 39.051417410373688
leaf_count=931 37 673 88 170 142 667 447 78 242 419 19 64 55 209 148 41 136 3462 134 934 204 112 47 202 92 145 1698 124 67 177
internal_value=2.15111e-08 -0.0152344 -0.0214129 -0.0256567 0.0174819 -0.0281672 -0.0180162 0.0518024 0.0145265 0.0210084 -0.0375659 -0.0112989 -0.0190882 0.013515 0.0265217 -0.039099 0.00485419 -0.0416602 -0.0235837 0.0537642 0.00340285 0.0078138 -0.0383637 -0.0104483 -0.0289078 0.00283492 -0.0341806 0.0384716 0.0139574 -0.0479928
internal_weight=2991 2311.28 1913.94 1758.27 96.6982 1661.58 798.815 679.717 397.344 355.641 862.76 644.68 492.72 114.049 155.665 849.231 46.7607 802.47 208.191 667.996 91.4417 40.774 160.776 55.8011 378.671 53.9414 324.729 77.8982 151.96 594.279
internal_count=11964 10803 9469 9029 312 8717 3832 1161 1334 1092 4885 2901 2387 388 440 4866 177 4689 1050 1083 352 149 916 249 1999 209 1790 179 514 3639
is_linear=0
shrinkage=1


Tree=1
num_leaves=31
num_cat=0
split_feature=3 201 63 19 43 97 0 84 0 83 77 0 75 6 173 103 221 76 89 43 67 0 9 77 66 17 160 77 62 17
split_gain=2469.49 444.535 407.242 195.64 256.866 295.032 206.878 193.143 171.973 151.142 148.97 148.883 148.05 147.614 135.79 127.449 127.827 124 119.275 114.071 103.805 96.0662 83.9064 82.7449 81.7712 81.3272 133.985 79.0928 77.0366 76.7844
threshold=1.9397552131302638 1.1052998696389531 1.880756509713162 1.0000000180025095e-35 0.0014209747314453127 0.53158870052417528 -0.29332960905565425 -0.51204674331605304 0.2884989339352706 -0.33567159156808207 -0.28231657209940303 -1.0000000180025095e-35 -0.11287541701123675 1036.6333611053681 0.017857838194905832 1.5000000000000002 0.48585983942026495 0.32441174364462982 -0.68800174481948995 0.022933959960937503 -0.36694146808759037 1.5267683299198254 7.3036079757904604 0.28471783608500117 -0.52108153638866861 -0.16440324125043468 0.99800000000000011 -0.87273845591514487 1.1098051494391858 0.037704649472869563
decision_type=2 2 2 2 2 2 2 2 2 2 2 2 2 2 2 2 2 2 2 2 2 2 2 2 2 2 2 2 2 2
left_child=1 2 3 4 5 6 7 20 9 18 24 12 -3 21 25 16 -5 -4 -7 -6 -1 22 -2 -19 -9 -8 27 -27 -29 -10
right_child=13 11 17 15 19 8 14 10 29 -11 -12 -13 -14 -15 -16 -17 -18 23 -20 -21 -22 -23 -24 -25 -26 26 -28 28 -30 -31
leaf_value=-0.048985571548915773 -0.033895219837551206 -5.5426604215819726e-05 0.057706753807036451 -0.058305510838476675 0.04240618248025025 -0.058843385565560923 -0.055694966434736419 0.036349458547347391 -0.03178603153223835 -0.034321542580501851 -0.021793112799863977 -0.039544683368630949 0.038718040802940841 -0.051423790158266175 0.010281081057398176 0.056451424421975982 0.055630314580062651 0.02724408450728287 0.051102882190984161 -0.059320175288415294 0.055585666352428759 0.055117691629546897 0.052254289280827732 -0.030720762541298217 -0.044878231726828532 0.0016268409590700728 0.012287134638969868 -0.047487015645889537 0.024974698081749541 0.038232599743660306
leaf_weight=116.60055075585842 21.133251115679741 168.14372378587723 64.166811406612396 229.618492141366 75.898636594414711 11.413884460926054 274.30811034142971 107.0859829634428 16.180275127291679 126.18705527484417 99.55746865272522 41.685517475008965 187.42304544150829 12.60346047580242 46.118279993534088 9.8046056628227216 9.2180427312850934 53.659577012062073 40.006793946027756 11.412615969777105 9.2190168499946576 625.82437443733215 19.622530862689018 37.762106895446777 12.450996175408362 36.294609531760216 48.196771398186684 354.70996351540089 13.715081438422201 109.41282133758068
leaf_count=725 117 673 88 1525 158 76 1791 255 88 702 497 242 419 80 165 14 14 148 69 76 14 932 32 204 75 143 167 2184 40 251
internal_value=1.8974e-08 -0.0147841 -0.0207809 -0.0248994 -0.020836 -0.0239038 -0.0310206 -0.0116992 0.00234408 -0.0166553 0.0053131 0.014094 0.0203825 0.0502882 -0.039638 -0.0495563 -0.0539081 0.0257389 0.026698 0.0291093 -0.0413235 0.0522113 0.00758286 0.00330146 0.0278888 -0.0428037 -0.0349962 -0.040627 -0.0447895 0.029212
internal_weight=2989.43 2310.25 1913 1757.41 1508.77 1421.46 1118.26 344.914 303.201 177.608 219.094 397.252 355.567 679.184 773.343 248.641 238.837 155.588 51.4207 87.3113 125.82 666.58 40.7558 91.4217 119.537 727.225 452.916 404.72 368.425 125.593
internal_count=11964 10803 9469 9029 7476 7242 6056 1566 1186 847 827 1334 1092 1161 4490 1553 1539 440 145 234 739 1081 149 352 330 4325 2534 2367 2224 339
is_linear=0
shrinkage=0.03


Tree=2
num_leaves=31
num_cat=0
split_feature=8 63 217 47 97 4 160 64 86 6 83 89 38 4 8 100 19 60 88 85 77 64 80 84 160 175 86 175 17 214
split_gain=2284.55 402.295 403.179 246.442 294.138 219.162 216.489 185.755 189.913 144.967 124.786 127.187 118.718 114.382 102.32 102.038 80.2512 85.0836 89.1821 78.5853 78.2412 68.8562 88.9722 67.8093 63.1689 63.234 63.1833 62.9581 85.4546 56.1955
threshold=1.9742435748468508 1.726855889617031 3.0949077173150328 1.0000000180025095e-35 0.53158870052417528 0.27569751246687813 0.59677419354838712 -0.40216254717031175 -0.46785173468134883 1036.6333611053681 -0.23803276638516366 -0.68800174481948995 -1.0000000180025095e-35 0.11398572659527406 -0.37036868709068388 1.9237786023500312 0.012903762903762906 0.062088619300607155 -0.19148710540518532 -0.14478318987801944 -0.28231657209940303 0.5768691718870339 1.0200779523490207 -0.37148598159802587 0.99800000000000011 0.08781977797025918 0.7648598092957607 0.08781977797025918 0.28548546978285094 -0.010929288103201146
decision_type=2 2 2 2 2 2 2 2 2 2 2 2 2 2 2 2 2 2 2 2 2 2 2 2 2 2 2 2 2 2
left_child=1 2 3 4 7 10 -5 8 29 -2 11 -6 -3 16 20 27 17 18 -4 -14 -10 -12 -23 -16 -7 -26 -27 -9 -29 -1
right_child=9 12 13 6 5 24 -8 15 14 -11 21 -13 19 -15 23 -17 -18 -19 -20 -21 -22 22 -24 -25 25 26 -28 28 -30 -31
leaf_value=0.030760375245511826 0.052899349528590066 -0.053010086744466334 0.017374846041126355 0.041793553201293007 -0.057296115736544834 -0.049513339303860288 -0.0569519488382835 -0.045150966584707096 0.030609477187882594 -0.049981778079427386 -0.04782815847697372 0.029079084977374922 -0.01004811139013855 -0.053491460510986265 -0.053483264498543084 0.054894104537823341 -0.059528357016752458 0.046569441356986888 -0.050875126793498759 0.040240123953365466 -0.014734917637033489 0.031724341803566244 -0.041747507194901556 -0.0064119952596847244 0.044147808521826405 0.030433243391488528 -0.05884158867568675 -0.034457094896577049 0.042621776420952655 -0.042697199325033248
leaf_weight=9.8244147598743421 615.54638484120369 16.054830923676491 180.60045988857746 89.017394587397575 19.785173669457436 9.0002058148384076 25.766027718782425 738.67884342372417 99.030572861433029 12.578411042690275 113.90108788013458 68.335422456264496 33.622756898403168 21.294482111930847 40.789293885231018 9.780604884028433 11.410739392042158 85.904934197664261 19.048638612031937 166.2717666476965 52.35275886952877 27.392533987760544 32.355212837457657 84.818218812346458 99.420930817723274 17.573455601930622 12.011643782258032 51.814949929714203 17.25638984143734 203.90829028189182
leaf_count=26 940 103 579 183 132 56 172 4520 257 80 708 183 149 138 264 14 76 162 119 355 246 72 192 368 197 46 80 290 36 1221
internal_value=4.84667e-08 -0.0135481 -0.0174843 -0.0229239 -0.0257835 -0.00326253 0.0196276 -0.0326654 -0.0180746 0.0508391 -0.0193907 0.00968579 0.0254777 0.0136713 -0.0016807 -0.0414236 0.0184873 0.0216048 0.0108631 0.0317815 0.0149281 -0.034146 -0.00806289 -0.0216977 0.0273293 0.0326903 -0.00581262 -0.0425898 -0.0152001 -0.0393207
internal_weight=2985.15 2357.02 2141.07 1822.81 1708.03 399.776 114.783 1308.25 490.724 628.125 261.769 88.1206 215.949 318.259 276.991 817.531 296.965 285.554 199.649 199.895 151.383 173.649 59.7477 125.608 138.006 129.006 29.5851 807.75 69.0713 213.733
internal_count=11964 10944 10337 9263 8908 1666 355 7242 2382 1020 1287 315 607 1074 1135 4860 936 860 698 504 503 972 264 632 379 323 126 4846 326 1247
is_linear=0
shrinkage=0.03


Tree=3
num_leaves=31
num_cat=0
split_feature=3 201 47 68 162 66 66 5 100 8 9 6 77 162 75 97 77 42 86 88 7 19 69 17 86 16 201 77 16 96
split_gain=2202.28 398.582 359.498 206.952 190.387 175.176 147.128 140.137 128.778 128.451 170.868 125.025 112.516 105.558 105.354 99.6252 93.5357 86.2976 84.0499 114.549 85.5138 83.7837 71.8821 66.9609 66.0927 61.1653 62.5591 90.8407 59.3426 67.1028
threshold=1.9397552131302638 1.1052998696389531 1.0000000180025095e-35 1.2051076863833654 1.0000000180025095e-35 -0.13349200798254454 -0.79416404299298782 3490.2130076462804 0.7020408163265307 -0.45586101970553866 0.6720898779836848 -1.0000000180025095e-35 0.67357703272911751 0.90000000000000013 -0.11287541701123675 0.32290164080144274 -0.40909644746413393 -0.034755706787109368 0.25190388285723936 0.14325940128488571 0.42372203174491002 1.0000000180025095e-35 1.8844040354874394 0.51159790747461853 -0.16666749629095076 -0.32516205399607462 -2.2574642913956677 -0.87273845591514487 -0.31942422328808301 2.6095278205427266
decision_type=2 2 2 2 2 2 2 2 2 2 2 2 2 2 2 2 2 2 2 2 2 2 2 2 2 2 2 2 2 2
left_child=1 2 3 5 -4 6 -1 17 15 -8 24 14 21 -12 -3 22 -15 -2 -17 -20 -21 28 -7 -16 25 -11 -27 -28 -5 -30
right_child=7 11 4 12 -6 8 9 -9 -10 10 13 -13 -14 16 23 18 -18 -19 19 20 -22 -23 -24 -25 -26 26 27 -29 29 -31
leaf_value=-0.042808905584998315 -0.057317049673471634 0.0022056771480809655 0.042768887189970822 -0.059423161947676467 -0.055169314615880628 -0.048421419328583189 0.013693813469640275 -0.055528406629710737 0.047961807983234357 -0.049291895722137824 -0.043955974710817566 -0.030397373018269322 0.055537048551476099 -0.037505558540100251 0.039614731535428549 -0.043434137226290158 0.048247306841642898 0.050546744163247108 0.032230314860869365 -0.046369290951485939 0.00057641343941789553 -0.056695122101094383 0.025322073404375547 -0.042467226090618336 -0.042014003179227564 -0.056707839536400156 0.04560233898158593 -0.013158372438116898 -0.015693425494995097 0.036346036187639368
leaf_weight=155.02981452643871 6.7441223859786978 161.64003525674343 114.24415887892246 10.800856575369833 21.174922406673431 471.42699010670185 153.52903413772583 11.645151972770689 15.979418933391569 42.826327115297318 20.048376962542534 51.109897568821907 36.373727977275848 13.896502584218977 174.4493392854929 127.47038315236568 64.967242807149887 656.93419110774994 41.344412669539452 75.24944218993187 65.159685268998146 22.597138091921806 12.204390928149222 9.4281795322895032 152.97282655537128 22.606779411435127 28.234216243028641 146.73693110048771 37.924560755491257 54.131301045417786
leaf_count=941 45 630 223 72 142 2991 518 78 28 270 122 278 50 81 371 777 114 1038 106 467 261 151 34 55 919 151 54 687 182 128
internal_value=1.30957e-07 -0.0139664 -0.0196576 -0.023259 0.0274547 -0.0265101 -0.0165643 0.0476404 -0.0363578 -0.0102642 -0.0177359 0.0133962 0.00908011 0.017511 0.0198742 -0.0380572 0.0331369 0.0494507 -0.0247579 -0.0116595 -0.0245832 -0.00438948 -0.0465605 0.035406 -0.0265985 -0.0167894 -0.00974428 -0.00367645 0.00710183 0.0149072
internal_weight=2978.88 2303.56 1906.93 1771.51 135.419 1609.68 800.848 675.323 808.835 645.818 492.289 396.627 161.828 98.9121 345.518 792.855 78.8637 663.678 309.224 181.754 140.409 125.454 483.631 183.878 393.377 240.404 197.578 174.971 102.857 92.0559
internal_count=11964 10803 9469 9104 365 8521 3857 1161 4664 2916 2398 1334 583 317 1056 4636 195 1083 1611 834 728 533 3025 426 2081 1162 892 741 382 310
is_linear=0
shrinkage=0.03


Tree=4
num_leaves=31
num_cat=0
split_feature=3 201 63 19 48 17 160 17 8 5 0 75 214 235 100 76 43 77 60 62 75 160 0 9 77 7 5 7 81 67
split_gain=2080.87 376.026 343.541 173.344 230.61 132.868 195.458 409.895 225.477 132.487 127.717 129.116 115.042 110.808 117.863 108.929 104.194 102.907 179.598 120.729 168.329 87.2683 84.7757 75.1897 73.7629 69.0633 66.3075 58.5935 50.8415 81.9635
threshold=1.9397552131302638 1.1052998696389531 1.880756509713162 1.0000000180025095e-35 0.0001989364624023438 -1.3185029511667341 0.99800000000000011 0.030538591210347493 -1.0000000180025095e-35 3490.2130076462804 -1.0000000180025095e-35 -0.11287541701123675 -0.010929288103201146 0.30678081317884648 1.9237786023500312 0.32441174364462982 0.022933959960937503 -1.1799024839209957 -0.82723660230283469 0.383893308489337 -0.74125941307276522 0.59677419354838712 1.5267683299198254 7.3036079757904604 0.28471783608500117 -0.35889978828304064 0.12916290519503912 0.11062629628596223 -0.27923935906624114 -0.35864395434153212
decision_type=2 2 2 2 2 2 2 2 2 2 2 2 2 2 2 2 2 2 2 2 2 2 2 2 2 2 2 2 2 2
left_child=1 2 3 4 5 -1 8 -8 12 22 11 28 -7 14 -5 -4 -6 18 27 25 -21 -22 23 -2 -17 -19 -9 -14 29 -3
right_child=9 10 15 13 16 6 7 26 -10 -11 -12 -13 17 -15 -16 24 -18 19 -20 20 21 -23 -24 -25 -26 -27 -28 -29 -30 -31
leaf_value=-0.043651161707929785 -0.033074927856069691 -0.0055227031548028462 0.053876341154662812 -0.054476864741808496 0.042031547880006986 0.040723661814540832 -0.039233888673727235 -0.03479426553013619 -0.049005851713274123 -0.054149491086169455 -0.036796202350709913 0.036016939835154228 -0.052981953194148064 0.057699781776454788 0.052306203529021308 0.025351675927893794 -0.056891941443392054 -0.015082661459249738 0.056890894600066751 -0.055092221441300819 0.044550010495692571 -0.05562422163742288 0.050939470678603077 0.048685735079647872 -0.029446341218294939 -0.038559579054781121 0.039925404078447996 0.0641645414259472 -0.040816189410463499 0.049099178294192525
leaf_weight=215.35128012299538 21.089751914143562 112.57630079984665 63.55289126932621 227.92229700088501 73.336085855960846 31.066269680857658 115.5670255869627 11.501580372452734 250.43745003640652 11.584335118532179 41.484140515327454 186.57451185584068 28.523543685674667 8.9001820087432844 9.6986896395683271 53.512872233986855 11.023079350590704 189.10639333724976 40.924236565828323 27.863545089960098 62.057927772402763 8.956453934311865 620.08250074088573 19.467413023114204 37.671520218253136 279.38481684029102 151.28851889073849 4.4409545660018912 23.842612713575363 31.683015987277031
leaf_count=1330 117 477 88 1527 144 69 687 65 1608 78 242 419 187 12 14 148 74 900 56 187 126 60 934 32 204 1653 324 6 139 57
internal_value=2.44622e-07 -0.0135794 -0.0191174 -0.0229115 -0.0190819 -0.0219518 -0.0180612 0.00397303 -0.024708 0.0464274 0.0130101 0.0188357 -0.0156572 -0.0462259 -0.0501184 0.0237263 0.0291054 -0.0183886 0.0149134 -0.0227255 0.00739721 0.0319159 0.048191 0.00617014 0.00271266 -0.0290831 0.0346462 -0.0372001 -0.000233668 0.00647365
internal_weight=2970.47 2298.25 1902.09 1747.35 1500.83 1416.47 1201.12 278.357 922.762 672.224 396.161 354.676 672.324 246.521 237.621 154.737 84.3592 641.258 73.8887 567.369 98.8779 71.0144 660.64 40.5572 91.1844 468.491 162.79 32.9645 168.102 144.259
internal_count=11964 10803 9469 9029 7476 7258 5928 1076 4852 1161 1334 1092 3244 1553 1541 440 218 3175 249 2926 373 186 1083 149 352 2553 389 193 673 534
is_linear=0
shrinkage=0.03


Tree=5
num_leaves=31
num_cat=0
split_feature=3 201 68 65 9 86 65 76 95 100 5 0 76 17 201 217 77 200 0 16 69 17 17 9 62 173 17 64 84 38
split_gain=1968.55 355.049 322.053 189.797 166.368 167.152 235.041 164.311 139.361 129.556 125.422 120.437 114.169 112.01 110.811 103.478 86.4559 83.8748 80.5649 75.2832 79.249 75.2152 77.5447 71.0134 59.6092 58.302 56.1084 53.1066 72.6837 51.1916
threshold=1.9397552131302638 1.1052998696389531 1.2051076863833654 0.14100852003185596 0.6720898779836848 -0.16666749629095076 -0.62510940379609692 -0.072791938493559458 -0.54635491650433354 0.2575510204081633 3490.2130076462804 -1.0000000180025095e-35 -0.41763800862405182 0.39508315078959705 -2.2574642913956677 0.89188187818728137 -0.75535220446982376 0.40492173751968147 1.5267683299198254 -0.34389198319143316 0.087080906807863248 0.53209423237072484 -0.021657515176316467 7.3036079757904604 -0.091774844709222744 0.021536147156319987 -0.10082865355984164 0.24762641862763815 0.73659597540225052 -1.0000000180025095e-35
decision_type=2 2 2 2 2 2 2 2 2 2 2 2 2 2 2 2 2 2 2 2 2 2 2 2 2 2 2 2 2 2
left_child=1 2 3 4 5 6 -1 -4 26 15 18 12 -3 14 -8 -5 -16 21 23 20 -14 22 -6 -2 -18 -10 -7 -17 -29 -9
right_child=10 11 7 9 17 8 13 29 25 -11 -12 -13 19 -15 16 27 24 -19 -20 -21 -22 -23 -24 -25 -26 -27 -28 28 -30 -31
leaf_value=-0.037218505615771058 -0.032121711340333911 -0.011072133439701764 0.053078698312978352 -0.043474607263890491 -0.0061456537857887319 -0.036736882051893197 -0.054416785517626305 -0.049978452199479183 -0.048118054887010105 0.039518581566020929 -0.052876585628883178 -0.035796711455300341 0.019219499206243568 -0.038480212298570127 0.043606300071996527 -0.039309920944750054 -0.0030333009325948308 -0.051015764123246654 0.049716425307770665 0.035967463620182091 -0.063461046125169049 -0.054326354913547106 0.034598302180407173 0.047459730093814052 0.034087325401708779 0.012861352032856349 0.053713905578034724 0.039885196405609349 -0.055402084547351786 0.00448409582664631
leaf_weight=204.55314634740353 21.064486816525459 89.12222184240818 73.504372149705887 514.87555837631226 66.935413733124733 9.079038932919504 22.582045793533325 18.137663811445236 272.23216511309147 19.541773587465286 11.508435219526289 41.364927992224693 36.136792361736298 50.600697472691536 70.092972636222839 22.96145287156105 171.61713092029095 19.44694659113884 616.33233763277531 214.18127100169659 14.668663531541823 13.36227263510227 113.03551830351353 19.372598171234131 50.358054980635643 14.882484316825865 19.278663322329521 31.096220731735229 9.3771660029888135 108.14736968278885
leaf_count=1207 117 400 102 3213 292 53 152 118 1753 41 78 242 111 300 137 139 725 127 934 483 98 90 265 32 124 52 30 70 63 416
internal_value=3.76988e-07 -0.0132138 -0.0186078 -0.0228519 -0.0154464 -0.0211714 -0.0114717 0.0174182 -0.0386908 -0.0364532 0.0453047 0.0126423 0.0183007 0.00294738 0.00960958 -0.0390203 0.01456 0.00837226 0.0470251 0.0281795 -0.00465221 0.014346 0.0194447 0.00600416 0.00538801 -0.0449572 0.0247551 -0.0028667 0.0178084 -0.00333808
internal_weight=2959.45 2291.17 1895.7 1695.91 1098.06 885.276 569.804 199.789 315.472 597.852 668.278 395.474 354.109 365.251 314.65 578.31 292.068 212.78 656.769 264.987 50.8055 193.333 179.971 40.4371 221.975 287.115 28.3577 63.4348 40.4734 126.285
internal_count=11964 10803 9469 8833 5307 4533 2645 636 1888 3526 1161 1334 1092 1438 1138 3485 986 774 1083 692 209 647 557 149 849 1805 83 272 133 534
is_linear=0
shrinkage=0.03


Tree=6
num_leaves=31
num_cat=0
split_feature=0 201 47 160 97 0 69 0 75 8 95 89 0 75 65 89 100 17 160 160 64 16 61 97 76 2 95 82 62 96
split_gain=1849.31 326.717 347.78 208.838 175.945 238.53 193.945 140.626 208.629 117.365 114.58 143.82 114.308 118.516 98.358 84.2822 80.4549 84.8929 212.548 76.5305 65.8609 61.4339 103.146 60.619 60.477 60.47 59.1513 57.1041 54.3957 53.5529
threshold=2.2220615523113358 1.1052998696389531 1.0000000180025095e-35 0.59677419354838712 0.53158870052417528 0.2884989339352706 1.8844040354874394 -0.29332960905565425 -0.29965881440122127 398.56996426147936 -0.56427341105168904 -0.68800174481948995 -1.0000000180025095e-35 -0.11287541701123675 -0.62510940379609692 -0.07728470835520411 1.9237786023500312 0.0061675627087860131 0.99800000000000011 0.99800000000000011 0.86076810995040909 -0.34389198319143316 -0.2982172345109908 -0.90497800754682722 -0.5308303928299446 -0.22107660545744065 0.18177228946198695 1.5608766617830827 1.1098051494391858 -0.57435772768645632
decision_type=2 2 2 2 2 2 2 2 2 2 2 2 2 2 2 2 2 2 2 2 2 2 2 2 2 2 2 2 2 2
left_child=1 2 4 -4 6 10 7 8 -1 -2 11 -6 13 29 -10 -16 17 -9 23 -7 -12 22 -15 24 -19 -17 -22 -21 -25 -3
right_child=9 12 3 -5 5 19 -8 16 14 -11 20 -13 -14 21 15 25 -18 18 -20 27 26 -23 -24 28 -26 -27 -28 -29 -30 -31
leaf_value=-0.036983058265627332 0.046588710510969543 0.024834779619308672 0.041548988453618881 -0.052660848499245093 -0.052709186711030524 -0.049402852181570936 0.019473700399054945 -0.046382208343297628 -0.028992845699303996 -0.051698377006959027 -0.046031476150231392 0.03092655847778903 -0.034921553777131936 0.053369328040056223 0.03754037253701805 0.029832002018038647 0.050200059998587114 -0.054526481334499013 0.02777968775738681 0.0374777700605382 0.034683367747449997 0.041582231917744385 -0.061981676957266925 -0.041271040118989293 0.052258182207578996 -0.033495206146922495 -0.034829175288983216 -0.039080110996922705 0.016343773181302226 -0.011807353670027923
leaf_weight=190.28436921536922 633.97513328492641 51.978245183825493 126.67047519981861 25.427771165966988 26.215003788471222 11.179709956049917 76.948933899402618 442.87974283099174 50.778813049197197 11.126134216785429 132.13681562244892 62.913913503289223 41.372317507863045 13.402929902076723 89.940638586878777 22.11526258289814 9.5843545496463758 7.4341047555208233 54.37281122803688 127.78016808629036 19.864423811435699 157.57046908140182 14.55121874809265 333.0273861438036 13.335929572582243 35.123938634991646 24.737757220864296 9.4146535545587522 15.431586071848868 116.03248402476311
leaf_count=1128 1042 149 241 173 178 71 235 2861 282 76 844 161 243 19 203 61 14 50 147 276 50 303 97 2064 22 200 143 55 52 524
internal_value=6.21571e-07 -0.0125772 -0.0177189 0.025799 -0.0214894 -0.00439951 -0.0267675 -0.0295819 -0.0145524 0.0448935 -0.0214059 0.00632723 0.01226 0.0177814 0.00700875 0.0194297 -0.0362424 -0.0371986 -0.0275971 0.0260738 -0.0353916 0.034311 -0.00667534 -0.0357519 0.0140373 -0.00902775 -0.00387045 0.0322242 -0.0387196 -0.00047121
internal_weight=2947.61 2302.51 1907.6 152.098 1755.5 414.242 1341.26 1264.31 388.243 645.101 265.868 89.1289 394.908 353.535 197.959 147.18 876.066 866.482 423.602 148.375 176.739 185.525 27.9541 369.229 20.77 57.2392 44.6022 137.195 348.459 168.011
internal_count=11964 10846 9511 414 9097 1778 7319 7084 1874 1118 1376 339 1335 1092 746 464 5210 5196 2335 402 1037 419 116 2188 72 261 193 331 2116 673
is_linear=0
shrinkage=0.03


Tree=7
num_leaves=31
num_cat=0
split_feature=3 201 63 19 48 97 4 84 66 173 8 3 63 6 235 100 18 76 43 67 89 77 66 2 42 77 76 96 17 160
split_gain=1773.65 317.621 296.283 156.876 199.17 220.739 148.616 131.171 124.156 115.446 109.995 104.457 109.601 103.561 98.9759 102.393 94.917 93.9689 93.4464 85.857 83.346 83.2389 78.8007 74.9133 72.2549 66.1897 58.0021 76.1344 57.6411 106.808
threshold=1.9397552131302638 1.1052998696389531 1.880756509713162 1.0000000180025095e-35 0.0001989364624023438 0.53158870052417528 -0.24054412560539173 -0.51204674331605304 -0.52815137130826562 0.017857838194905832 398.56996426147936 0.58994436959970065 -0.23555858505848695 -1.0000000180025095e-35 0.30678081317884648 1.9237786023500312 0.012903762903762906 0.32441174364462982 0.022933959960937503 -0.36694146808759037 -0.68800174481948995 -0.27132945998121466 0.37374231760948401 33.819557691583903 -0.034755706787109368 0.28471783608500117 0.078936444275437043 0.028598770625234266 -0.16440324125043468 0.99800000000000011
decision_type=2 2 2 2 2 2 2 2 2 2 2 2 2 2 2 2 2 2 2 2 2 2 2 2 2 2 2 2 2 2
left_child=1 2 3 4 5 6 7 19 21 28 24 12 20 16 15 -5 22 -4 -6 -1 -7 -9 -3 26 -2 -19 -14 -28 -8 -30
right_child=10 13 17 14 18 11 9 8 -10 -11 -12 -13 23 -15 -16 -17 -18 25 -20 -21 -22 -23 -24 -25 -26 -27 27 -29 29 -31
leaf_value=-0.043206256470877315 -0.053458878186675558 0.012582752920994167 0.050672579885839175 -0.051424900464958574 0.039709264393403547 -0.051607902657424667 -0.04797835944037037 0.032604210422078464 -0.030319033916697595 0.012147129228760137 -0.050605107816516427 0.028911925804295496 -0.051120992003552829 -0.028107133551558625 0.054993793380656047 0.049103672805596472 -0.059687064607403063 0.024302998250947568 -0.054559256394086389 0.051488494434368176 0.038749189519297456 -0.012037048378030013 0.04643246569308529 0.054020753269798952 0.045967996451361418 -0.027704277081816414 0.025518788361490415 -0.038144053447929975 -0.035591054240745379 0.011997667687936499
leaf_weight=112.1856951713562 6.6463256478309622 246.87859915196896 62.330653950572014 224.03119653463364 72.647337853908539 11.104885518550871 270.14853489398956 106.30975693464279 72.438599720597267 45.586969554424286 11.02699166536331 93.331875264644623 62.401307955384254 50.620848745107651 8.8289332985877973 9.5055834352970106 13.641134440898893 53.380263403058052 10.881496444344519 9.3341763317584974 53.215005069971085 58.156790152192116 82.606671214103699 10.260148644447325 641.08833388984203 37.494480639696121 29.274676948785782 40.016145020723343 380.43971559405327 47.776569813489914
leaf_count=708 45 825 88 1527 144 76 1790 262 409 164 76 239 414 278 12 14 91 148 74 15 116 275 140 14 1040 204 86 243 2281 166
internal_value=6.34594e-07 -0.0125523 -0.017681 -0.0212263 -0.017575 -0.0202563 -0.0264621 -0.0105927 0.00240536 -0.0341078 0.0433483 0.00257761 -0.00933786 0.0119494 -0.0436055 -0.0473331 0.0178589 0.0223034 0.0274287 -0.0359326 0.023149 0.0168187 0.0210694 -0.0240579 0.0449478 0.00284505 -0.0301411 -0.0112471 -0.0371272 -0.0302815
internal_weight=2933.59 2274.83 1881.08 1727.88 1485.51 1401.98 1102.38 358.425 236.905 743.952 658.762 299.604 206.272 393.747 242.366 233.537 343.126 153.205 83.5288 121.52 64.3199 164.467 329.485 141.952 647.735 90.8747 131.692 69.2908 698.365 428.216
internal_count=11964 10803 9469 9029 7476 7258 6070 1669 946 4401 1161 1188 949 1334 1553 1541 1056 440 218 723 192 537 965 757 1085 352 743 329 4237 2447
is_linear=0
shrinkage=0.03


Tree=8
num_leaves=31
num_cat=0
split_feature=3 217 63 214 19 48 15 16 15 84 160 77 5 85 75 4 221 104 214 6 67 48 62 38 62 75 0 9 8 175
split_gain=1681.9 301.848 295.418 165.34 144.291 168.639 109.028 154.884 139.562 138.482 123.166 117.876 107.555 97.4288 113.052 94.1799 91.1856 97.8551 89.1481 92.8722 88.7405 86.2413 85.7839 95.035 81.6269 74.2438 72.2355 63.6765 58.8663 57.9964
threshold=1.9397552131302638 3.0949077173150328 1.880756509713162 -0.010929288103201146 1.0000000180025095e-35 0.0001989364624023438 1.005538342063913 0.7014563320887145 -0.14622952100154374 -0.50572250960674159 0.59677419354838712 -0.81465826785121964 3490.2130076462804 0.43793333366198112 -0.78863864479725143 0.11398572659527406 0.48585983942026495 1.5000000000000002 -1.0000000180025095e-35 0.53246917461659848 -0.36694146808759037 0.01424522399902344 -0.29729619891961978 -1.0000000180025095e-35 0.31870260913055171 -0.11846986990360452 1.5267683299198254 7.3036079757904604 -0.017334426778380395 0.14322438729034526
decision_type=2 2 2 2 2 2 2 2 2 2 2 2 2 2 2 2 2 2 2 2 2 2 2 2 2 2 2 2 2 2
left_child=1 2 3 -1 5 6 7 8 9 20 -9 -11 26 -13 -15 25 17 -6 19 -10 28 -7 -4 -24 -12 -3 27 -2 -5 -8
right_child=12 15 22 4 16 21 29 10 18 11 24 13 -14 14 -16 -17 -18 -19 -20 -21 -22 -23 23 -25 -26 -27 -28 -29 -30 -31
leaf_value=0.036195577965621423 -0.031121554469018108 0.0026466949239711125 -0.034225973608462329 -0.04327135251091889 -0.050596302267458336 0.037599491918174459 -0.047295164868539109 -0.051869711102508355 -0.047950147799438965 0.033013796582838352 0.036937598520893587 -0.016905987756563254 -0.049699777618178814 -0.051732804901878982 0.044422705351311743 -0.048029965373816208 0.05022554817781659 0.048080042712032554 -0.037916963677000218 0.034878292083082907 0.0440696216522075 -0.053752914343924062 -0.053694444119588715 0.037867921000618844 -0.047612912100489443 0.031540719588955601 0.046611004088664816 0.044693196931659657 0.036313818080968445 -0.0022988717658095482
leaf_weight=45.26219616830349 20.946728140115738 152.95795691013336 21.152636617422104 158.35152907669544 228.24265706539154 66.443689435720444 177.6682448387146 21.087749361991882 19.508164137601852 72.325389012694359 93.085102275013924 277.13095781207085 11.213705390691755 14.006464555859564 51.345747664570808 20.852258250117302 9.0716637074947339 9.4180346578359586 412.96081992983818 32.448432549834251 12.413096129894255 10.814568340778349 11.081449225544928 128.57494845986366 11.551744028925894 167.88125406205654 602.04401850700378 19.027212202548981 8.831084877252577 30.156249493360519
leaf_count=107 117 591 118 1010 1568 136 1188 144 129 175 206 1388 78 96 98 138 14 14 2532 77 24 74 75 268 74 403 934 32 24 132
internal_value=5.98433e-07 -0.0122322 -0.0168491 -0.0204013 -0.0218934 -0.0183304 -0.0207234 -0.0172085 -0.0209449 -0.0113146 0.0142734 -0.00178664 0.0424092 -0.00913578 0.0238144 0.0137504 -0.0431228 -0.0466859 -0.0332573 0.00377866 -0.0333213 0.024812 0.0220752 0.0306026 0.0276034 0.0177657 0.044018 0.00496554 -0.0390674 -0.040766
internal_weight=2917.86 2264.62 1922.93 1762.12 1716.86 1470.13 1392.87 1185.05 1059.32 594.404 125.725 414.809 653.232 342.483 65.3522 341.691 246.732 237.661 464.917 51.9566 179.596 77.2583 160.809 139.656 104.637 320.839 642.018 39.9739 167.183 207.824
internal_count=11964 10803 9671 9210 9103 7507 7297 5977 5553 2815 424 1757 1161 1582 194 1132 1596 1582 2738 206 1058 210 461 343 280 994 1083 149 1034 1320
is_linear=0
shrinkage=0.03


Tree=9
num_leaves=31
num_cat=0
split_feature=3 217 63 214 97 48 66 86 160 84 5 17 4 173 103 62 38 82 16 209 77 8 16 63 8 17 49 63 75 8
split_gain=1596.46 285.485 279.446 156.248 127.378 143.597 126.538 146.542 117.206 112.997 102.213 94.5756 89.063 87.2717 81.4858 81.0693 89.9288 78.5581 70.5487 68.8364 151.852 83.3996 77.3022 65.3743 64.8489 61.2512 59.5597 59.1927 54.9535 72.8714
threshold=1.9397552131302638 3.0949077173150328 1.880756509713162 -0.010929288103201146 0.67186533007671045 0.0001989364624023438 -0.35907855563625107 -0.46785173468134883 0.59677419354838712 -0.39919683439204057 3490.2130076462804 -0.042332097009940138 0.11398572659527406 0.017857838194905832 1.5000000000000002 -0.29729619891961978 -1.0000000180025095e-35 -0.56859946704206976 -0.34389198319143316 -1.0000000180025095e-35 -0.73820527706360883 0.41343747623549892 -0.40635984031176264 -0.42468047383765434 0.39310623992972177 0.53209423237072484 0.040931701660156257 -1.0000000180025095e-35 -0.11846986990360452 -0.41569751043324071
decision_type=2 2 2 2 2 2 2 2 2 2 2 2 2 2 2 2 2 2 2 2 2 2 2 2 2 2 2 2 2 2
left_child=1 2 3 -1 5 6 7 -5 -7 -6 26 -11 18 14 17 -4 -17 -8 27 -9 -21 22 -22 -24 -15 -13 -2 -3 29 -20
right_child=10 12 15 4 9 8 13 19 -10 11 -12 25 -14 24 -16 16 -18 -19 28 20 21 -23 23 -25 -26 -27 -28 -29 -30 -31
leaf_value=0.035157539567674451 0.044588925990887748 0.0058359502902395688 -0.033225066945240363 -0.036308012364195882 -0.04568906743032515 0.030068205278372 0.054110403811240486 -0.040861211607049454 -0.048893281199516775 -0.02958364582871811 -0.048745118260656251 0.024195152444973948 -0.046952384056613533 -0.052444328482243972 0.047838592682006069 -0.052461919526420375 0.036917093318402226 -0.039079810045144693 0.033808031040197334 0.040333112326207621 0.045263048555503789 0.034595724169349945 -0.052394928377801797 -0.012224794840223919 0.026853012360710443 -0.041810889178618416 -0.014022719943715546 -0.059953655319853416 0.037605238145628814 -0.025265853192191812
leaf_weight=45.201485082507133 619.91071757674217 85.922182202339172 21.136384889483452 198.71816852688789 43.416259184479713 71.023370012640953 8.2292571365833265 39.843209013342857 22.208770617842674 47.710725963115692 11.092151910066603 146.98285928368568 20.693287432193756 12.765262901782988 10.063649490475653 11.002710565924643 127.93945311009884 761.51861515641212 39.948522552847862 68.455345541238785 16.047340363264084 31.674610003829002 50.574696987867355 130.66876177489758 34.012307181954384 13.844706833362578 16.006583675742149 14.36617538332939 144.53169672191143 35.489217147231102
leaf_count=107 1008 318 118 1215 287 169 12 253 156 269 78 422 138 87 15 75 268 4822 97 138 32 73 338 630 98 87 75 96 301 182
internal_value=6.35434e-07 -0.0119229 -0.0164303 -0.0198952 -0.0213523 -0.0247608 -0.0272254 -0.0158721 0.0112588 -0.00165781 0.0415388 0.0075092 0.0133673 -0.0345872 -0.0369747 0.0215124 0.0298392 -0.0380835 0.0172648 -0.00383119 0.00112944 -0.0105916 -0.0178463 -0.023434 0.00521334 0.0185131 0.0431136 -0.00358832 0.0267722 0.00601709
internal_weight=2901 2253.99 1913.04 1752.96 1707.76 1455.8 1362.57 535.982 93.2321 251.955 647.009 208.538 340.951 826.589 779.812 160.079 138.942 769.748 320.258 337.264 297.421 228.965 197.291 181.243 46.7776 160.828 635.917 100.288 219.969 75.4377
internal_count=11964 10803 9671 9210 9103 8038 7713 2679 325 1065 1161 778 1132 5034 4849 461 343 4834 994 1464 1211 1073 1000 968 185 509 1083 414 580 279
is_linear=0
shrinkage=0.03


Tree=10
num_leaves=31
num_cat=0
split_feature=3 201 63 19 48 97 0 75 0 83 5 0 18 173 77 235 100 75 89 76 96 43 2 73 0 69 17 160 77 76
split_gain=1515.8 273.237 251.36 140.334 169.147 194.924 150.672 133.492 119.869 121.781 97.1717 96.8464 102.357 94.9337 88.0615 87.503 88.3638 86.7127 86.4268 85.423 84.6634 81.7869 77.5467 73.8169 69.0647 62.8426 60.1259 83.3603 61.1897 60.6334
threshold=1.9397552131302638 1.1052998696389531 1.880756509713162 1.0000000180025095e-35 0.0001989364624023438 0.50178474921812255 -0.29332960905565425 -0.25115333478461077 0.2884989339352706 -0.33567159156808207 3490.2130076462804 0.082207265881514544 0.012903762903762906 0.017857838194905832 -1.0966703637979054 0.30678081317884648 1.9237786023500312 -0.11287541701123675 -0.68800174481948995 0.32441174364462982 -0.57435772768645632 0.022933959960937503 -0.22107660545744065 1.4774191351613826 1.5267683299198254 -0.21571694293150243 -0.12237903383478677 0.99800000000000011 -0.87273845591514487 -0.5308303928299446
decision_type=2 2 2 2 2 2 2 2 2 2 2 2 2 2 2 2 2 2 2 2 2 2 2 2 2 2 2 2 2 2
left_child=1 2 3 4 5 6 7 -1 9 18 24 12 17 26 -9 16 -5 20 -7 -4 -3 -6 -16 -11 -2 -22 -8 28 29 -28
right_child=10 11 19 15 21 8 13 14 -10 23 -12 -13 -14 -15 22 -17 -18 -19 -20 -21 25 -23 -24 -25 -26 -27 27 -29 -30 -31
leaf_value=-0.027714855436453027 0.0038874729681202418 0.037387034835438065 0.048153336727664663 -0.048612792338970964 0.037104800777696852 -0.049333353997731172 -0.046256574125884194 0.049993205261516592 0.023773371429196721 -0.039873733378308726 -0.047853752070536881 -0.044543116975279455 -0.056127164029346671 0.010243876904387092 0.028959802983362329 0.052202254178130209 0.046210411108397534 0.032685721240611372 0.045984638805226463 0.002140266818573155 -0.026850031717323784 -0.051979889857462415 -0.018501581818487486 0.01547986934987251 0.044814584841101776 0.019610924640461273 -0.051218065653354197 0.012449924434408264 -0.036525960094319319 0.032291468473457464
leaf_weight=163.83576163649559 39.59901151061058 45.39788556098938 60.777691602706909 218.10871280729771 71.509936735033989 10.871350228786467 272.02814799547195 38.62378317117691 131.74123591184616 107.05718329548836 10.961766034364699 26.204011455178261 17.266432151198387 43.815318182110786 48.431485176086426 8.6955088376998884 9.2186305522918683 185.84534332156181 40.29115803539753 90.208829566836357 76.421218276023865 10.65744538605213 86.000008568167686 27.188970923423767 590.08405388891697 39.870951235294342 11.646463960409163 41.102479949593544 336.36937609314919 23.847514852881432
leaf_count=924 149 102 88 1527 144 76 1858 58 370 675 78 172 116 161 136 12 14 421 71 352 399 74 440 97 934 124 80 142 2108 62
internal_value=8.14751e-07 -0.0116233 -0.0164343 -0.0197271 -0.0162685 -0.0187533 -0.0248977 -0.00830633 0.00189343 -0.0136533 0.0406992 0.0111647 0.0151662 -0.0325671 0.0100682 -0.041195 -0.0447675 0.0187082 0.0257308 0.0206622 0.00264263 0.0255502 -0.00140272 -0.0286629 0.0422408 -0.0109208 -0.0353054 -0.0280917 -0.0325729 0.0048899
internal_weight=2883.68 2243.03 1852.03 1701.04 1465.02 1382.85 1065.7 336.891 317.15 185.409 640.645 391.006 364.802 728.809 173.055 236.023 227.327 347.535 51.1625 150.987 161.69 82.1674 134.431 134.246 629.683 116.292 684.994 412.966 371.863 35.494
internal_count=11964 10803 9469 9029 7476 7258 5969 1558 1289 919 1161 1334 1162 4411 634 1553 1541 1046 147 440 625 218 576 772 1083 523 4250 2392 2250 142
is_linear=0
shrinkage=0.03


Tree=11
num_leaves=31
num_cat=0
split_feature=3 201 68 65 75 9 86 65 75 77 8 100 5 217 8 16 15 17 5 75 95 1 83 49 3 16 15 173 64 80
split_gain=1440.45 258.759 244.513 148.379 161.266 131.045 131.844 167.955 120.083 117.56 106.888 99.9132 92.4578 90.874 89.5505 89.5738 85.3355 89.3833 70.0705 58.3902 67.1229 57.5177 56.867 56.5856 55.5465 53.3786 66.3627 52.7688 46.6715 70.8512
threshold=1.9397552131302638 1.1052998696389531 1.2051076863833654 0.14100852003185596 -0.57813817983147098 0.6720898779836848 -0.16666749629095076 -0.62510940379609692 -0.16430369291695165 -0.27132945998121466 -0.14917619399136814 0.2575510204081633 3490.2130076462804 0.89188187818728137 -0.0090015088354695929 -0.34389198319143316 0.30982417683237451 -0.021657515176316467 -0.36962918957070134 -0.11846986990360452 -0.53999410751699284 -0.38864962695907174 4.6470493755543236 0.040931701660156257 -0.56210238830593995 -0.31942422328808301 -0.17054907655556792 0.021536147156319987 0.24762641862763815 0.40665259530124886
decision_type=2 2 2 2 2 2 2 2 2 2 2 2 2 2 2 2 2 2 2 2 2 2 2 2 2 2 2 2 2 2
left_child=1 2 3 4 -1 6 7 -6 -4 10 -9 13 23 -5 15 18 -7 -18 24 20 -17 -22 -16 -2 -3 -10 -27 -8 -15 -30
right_child=12 14 8 11 5 16 27 9 25 -11 -12 -13 -14 28 22 19 17 -19 -20 -21 21 -23 -24 -25 -26 26 -28 -29 29 -31
leaf_value=0.036875118201832868 0.042885057232413239 -0.057339157266734012 0.04799148579979761 -0.038670005926948213 -0.034168447944189204 -0.050075993698102533 -0.040333117584206761 0.030141296376558983 -0.054148744636389169 -0.016454977053545327 -0.0380281776234771 0.035914939105900642 -0.047019919779133071 -0.035063793232960015 -0.045586404147793372 0.036765239351072218 -0.015709809328458516 0.028724826514415523 -0.029080393459322111 0.037654641997782921 0.016511099777581834 -0.049993497830411397 0.051230561060256141 -0.014374996893544373 0.029805505260763157 0.039605594729188079 -0.010104062566764618 0.014570758135503686 0.053611927333840043 -0.027431646572088474
leaf_weight=54.918421193957329 607.06315539777279 7.618155673146247 67.809106096625328 494.79110744595528 195.06094515323639 21.808816656470299 278.83964581787586 133.6715545207262 15.234472930431364 167.97456996142864 24.494273096323013 18.810622438788414 10.82355749607086 22.095599293708801 35.333309933543205 36.670343309640884 63.474445447325706 113.77118706703186 57.953579619526863 150.34373167157173 22.932782769203186 23.90407507121563 6.4580624699592581 15.940488860011099 48.441894724965096 35.46222947537899 75.908139646053314 16.698306381702423 22.941708862781525 16.831154927611351
leaf_count=121 1008 51 98 3213 1194 152 1817 344 104 857 155 41 78 139 231 84 320 290 308 301 74 152 9 75 124 77 357 57 37 96
internal_value=8.18955e-07 -0.0113411 -0.0160428 -0.0198004 -0.0131974 -0.0159046 -0.0212241 -0.0121477 0.0157749 0.0010227 0.0195843 -0.0320859 0.0399097 -0.0343838 0.010868 0.0158528 0.00592194 0.0128121 -0.00594926 0.0264824 0.00636821 -0.0174308 -0.0306252 0.04142 0.0179632 -0.00148024 0.00572434 -0.037231 -0.000105265 0.0193158
internal_weight=2864.08 2230.25 1840.6 1646.18 1070.71 1015.79 816.739 521.201 194.414 326.14 158.166 575.47 633.827 556.66 389.656 347.865 199.054 177.246 114.014 233.851 83.5072 46.8369 41.7914 623.004 56.0601 126.605 111.37 295.538 61.8685 39.7729
internal_count=11964 10803 9469 8833 5307 5186 4424 2550 636 1356 499 3526 1161 3485 1334 1094 762 610 483 611 310 226 240 1083 175 538 434 1874 272 133
is_linear=0
shrinkage=0.03


Tree=12
num_leaves=31
num_cat=0
split_feature=0 214 63 19 217 48 75 162 17 15 75 63 88 62 86 5 235 100 38 16 62 3 62 68 75 93 3 66 4 16
split_gain=1378.03 251.636 225.554 181.922 156.167 154.032 110.013 124.488 322.103 187.167 149.384 108.089 102.355 98.105 92.1546 89.8195 82.6186 81.3515 73.1958 72.2843 71.7537 63.3074 63.2573 56.9311 56.1564 64.663 50.4879 50.2711 48.1765 46.3059
threshold=2.2220615523113358 -0.010811126694717156 1.726855889617031 1.0000000180025095e-35 3.0949077173150328 0.0001989364624023438 0.72843413754171482 0.90000000000000013 -0.035750134270558072 -0.14622952100154374 -0.22894638971123635 -0.43248895871874776 -0.082692030124581622 0.20091472236134331 -0.24507970883375851 3490.2130076462804 0.30678081317884648 1.9237786023500312 -1.0000000180025095e-35 2.1382630520604682 -0.20749766065702746 0.67954734814662288 -0.29729619891961978 0.34224378412887912 -0.45557078844773324 0.26295927102017724 0.61613957269563835 -0.72669109222329709 0.2208224869265264 -0.13195379383308906
decision_type=2 2 2 2 2 2 2 2 2 2 2 2 2 2 2 2 2 2 2 2 2 2 2 2 2 2 2 2 2 2
left_child=1 -1 3 4 5 6 7 9 19 10 24 -12 -7 14 27 21 17 -5 -4 -9 29 26 -20 -24 25 28 -2 -6 -3 -13
right_child=15 2 18 16 13 12 -8 8 -10 -11 11 20 -14 -15 -16 -17 -18 -19 22 -21 -22 -23 23 -25 -26 -27 -28 -29 -30 -31
leaf_value=0.031251279092167961 0.046661969146039456 -0.027772164602147417 -0.04454287980396425 -0.047083014551548119 -0.013328120534636716 0.042217918051823795 -0.040460879407566791 -0.041452882056531366 0.029526061714676432 -0.039732803460646345 0.04317033448788242 -0.020684728016817745 -0.027752901206431816 0.04151577108904736 -0.039136315055012749 -0.046238558349512876 0.051007342824865971 0.044751659941029122 -0.017934099875282116 0.018467850970534508 0.022402735936456204 0.043362431389018366 -0.027164197192182247 0.037669289594360118 -0.040697209627960251 0.026144023113222184 -0.050009687216027145 0.024224769053677708 0.066089538985543303 0.047251923083482923
leaf_weight=120.60538820922375 8.1907017230987567 110.03997009992599 15.408505842089651 230.3934668302536 50.943319454789162 63.215281248092651 187.5389174669981 119.77447040379047 162.93349194526672 319.30682711303234 54.4205042719841 133.48702922463417 26.789064019918442 63.141815990209579 44.993393167853355 10.678456366062163 8.6018786430358869 9.0214340984821302 27.576875612139702 21.348408579826355 62.662511274218559 578.30862341821194 13.438359409570692 131.19041542708874 127.83185449242592 29.591254159808159 11.964687243103979 86.658540919423103 5.1519566178321829 9.6847589761018735
leaf_count=298 12 640 103 1631 235 114 1241 798 407 2093 100 716 142 120 272 78 12 14 134 73 202 945 71 263 814 84 83 240 7 22
internal_value=1.18451e-06 -0.0108973 -0.0133006 -0.016357 -0.0128153 -0.0166025 -0.0191473 -0.0156903 0.00078948 -0.0215702 -0.0106868 0.00557009 0.0213917 0.00928151 -0.00186517 0.0400021 -0.0403406 -0.0436226 0.0181005 -0.0323884 -0.00437103 0.0415409 0.0237056 0.0316452 -0.0262066 -0.0134126 -0.0107245 0.0103218 -0.0235742 -0.0160892
internal_weight=2844.89 2235.75 2115.14 1927.53 1679.51 1433.78 1343.77 1156.23 304.056 852.177 532.87 260.255 90.0043 245.737 182.595 609.142 248.017 239.415 187.614 141.123 205.834 598.464 172.206 144.629 272.615 144.783 20.1554 137.602 115.192 143.172
internal_count=11964 10846 10548 9977 8320 7453 7197 5956 1278 4678 2585 1040 256 867 747 1118 1657 1645 571 871 940 1040 468 334 1545 731 95 475 647 738
is_linear=0
shrinkage=0.03


Tree=13
num_leaves=31
num_cat=0
split_feature=3 217 63 214 65 75 8 86 65 77 17 160 48 64 17 102 5 4 75 62 64 17 56 42 77 4 68 1 75 17
split_gain=1304.53 232.538 228.275 135.669 94.5322 142.601 131.688 141.583 123.76 137.787 114.947 120.378 116.193 96.8861 153.752 93.8176 83.9161 75.07 72.8785 64.1571 61.0594 59.5439 53.2808 89.7068 48.3576 46.2029 45.8171 45.7611 43.0384 72.6246
threshold=1.9397552131302638 3.0949077173150328 1.726855889617031 -0.010929288103201146 0.14100852003185596 -0.57813817983147098 0.51595795703091485 -0.16666749629095076 -0.62510940379609692 -0.73820527706360883 -0.14762460773691818 0.99800000000000011 0.00058326721191406296 0.82552357715255964 0.044859836415619164 1.0000000180025095e-35 3490.2130076462804 0.11398572659527406 -0.14712870971131667 3.6698883461100427 0.24762641862763815 0.34884561755464205 0.0071353912353515634 -0.0053768157958984366 0.16238728604578631 2.7584672185769556 0.5014266003789517 0.10698199120027409 -0.29965881440122127 0.38541718298139199
decision_type=2 2 2 2 2 2 2 2 2 2 2 2 2 2 2 2 2 2 2 2 2 2 2 2 2 2 2 2 2 2
left_child=1 2 3 -1 5 -5 7 8 -7 -10 -8 12 -12 -6 15 25 22 20 -4 27 28 -11 -2 -24 26 -15 -20 -16 -3 -30
right_child=16 17 18 4 13 6 10 -9 9 21 11 -13 -14 14 19 -17 -18 -19 24 -21 -22 -23 23 -25 -26 -27 -28 -29 29 -31
leaf_value=0.033232285661073842 0.042803133395003606 -0.0090113189286803487 0.046424310365848931 0.035427456404133514 -0.037687858152482982 -0.03272574904742101 -0.026581937727626785 -0.041219323192079431 0.03445934109076973 -0.004373400320602119 -0.048681276696049797 0.037358417174565242 0.035312543921684363 -0.044785632348961144 0.047818848958688098 0.047665131406238306 -0.045505171865301425 -0.044074782604276545 -0.031820022667363751 -0.049659337583702959 0.036919970724065276 -0.039753394947988657 0.028620563670212613 -0.074193125927823012 -0.011495706822392765 0.047157752476284738 0.041775993626144516 -0.0029741741255041691 0.027380270430779053 -0.030804007250527496
leaf_weight=44.783522561192513 550.82444281876087 87.309032529592514 54.958052694797516 49.672712042927742 401.35872782766819 187.72091995179653 81.700053125619888 252.11435857415199 72.149774938821793 175.41879604756832 37.815934434533119 100.37145279347897 24.378426730632782 113.35632440447807 45.988622918725014 11.870965868234633 10.527322232723234 20.085304602980614 9.4440304636955243 10.393005490303038 88.272464707493782 56.633564680814743 48.901873052120209 9.0514720380306226 69.319970265030861 5.1420696079730979 39.268811836838722 24.451086074113846 117.37731365859509 23.107960268855095
leaf_count=107 900 387 81 112 2653 1163 474 1698 165 789 267 207 51 797 82 18 78 138 52 73 181 365 119 64 323 11 74 109 301 125
internal_value=1.18863e-06 -0.0108066 -0.0149395 -0.0182893 -0.0196872 -0.0141717 -0.0166646 -0.0229392 -0.0135705 -0.00174989 0.00244778 0.0170371 -0.0157581 -0.029033 -0.0125857 -0.0327409 0.0384722 0.0121641 0.0178882 0.0199213 0.015738 -0.0130081 0.0399243 0.0125626 0.00460128 -0.0407959 0.0275078 0.0301875 0.00752975 0.0178097
internal_weight=2823.77 2204.46 1868.31 1695.32 1650.54 1037.98 988.303 744.037 491.923 304.202 244.266 162.566 62.1944 612.561 211.202 130.369 619.305 336.152 172.991 80.8327 316.067 232.052 608.778 57.9533 118.033 118.498 48.7128 70.4397 227.794 140.485
internal_count=11964 10803 9671 9141 9034 5291 5179 4180 2482 1319 999 525 318 3743 1090 826 1161 1132 530 264 994 1154 1083 183 449 808 126 191 813 426
is_linear=0
shrinkage=0.03


Tree=14
num_leaves=31
num_cat=0
split_feature=3 201 68 66 115 9 76 75 5 8 16 17 201 66 77 8 86 5 160 76 84 17 160 214 49 83 3 62 16 16
split_gain=1241.49 223.095 210.753 125.944 119.699 111.945 110.951 88.7337 79.9816 79.4479 79.6323 70.929 88.3171 98.7639 135.105 86.5652 114.638 64.2295 58.7162 57.1329 56.8445 55.9869 92.4514 73.8519 51.9051 50.9221 50.651 49.8512 69.7374 45.1627
threshold=1.9397552131302638 1.1052998696389531 1.2051076863833654 -0.0073607770735251354 0.14174774902052867 1.2510453888257353 -0.072791938493559458 -0.57813817983147098 3490.2130076462804 -0.0090015088354695929 -0.34389198319143316 0.44860507663927907 -0.94228662991583889 -0.79416404299298782 -1.0776855418303473 0.14832774227916409 -0.16666749629095076 -0.36962918957070134 0.99800000000000011 -0.41763800862405182 -0.77350499596919009 1.0000000180025095e-35 0.99800000000000011 0.01092928810320115 0.040931701660156257 4.6470493755543236 -0.56210238830593995 -0.23135523413929127 -0.40635984031176264 -0.29524147993417088
decision_type=2 2 2 2 2 2 2 2 2 2 2 2 2 2 2 2 2 2 2 2 2 2 2 2 2 2 2 2 2 2
left_child=1 2 3 5 21 7 -4 20 24 10 17 12 -9 -14 -15 16 27 26 -17 -12 -1 -5 23 -23 -2 -11 -3 28 -16 -30
right_child=8 9 6 4 -6 -7 -8 11 -10 25 19 -13 13 14 15 18 -18 -19 -20 -21 -22 22 -24 -25 -26 -27 -28 -29 29 -31
leaf_value=-0.048491092720109853 0.040660111898232744 -0.055019833881366213 0.045693458359339925 -0.038012894567798078 0.041349200965058286 0.025281591712118561 -0.0021302052165433085 -0.041073805445356937 -0.044815759375164577 -0.043554671349364922 -0.013778908540444538 -0.037979949006941752 -0.035755165262404222 0.039813366630122152 0.035808366320010249 -0.012733709556630416 -0.040248922851862642 -0.027853008823746032 0.036146620381276306 0.030743771703142145 0.038787748079321199 -0.033830550425910544 0.013190978017714343 0.034605684355006626 -0.014410662262128362 0.049069394339229383 0.028595283451445266 0.015894261996405753 -0.040772335711132528 -0.0058998393666282465
leaf_weight=8.0098577141761762 585.55390308797359 7.5402738302946082 67.712905704975128 381.33691211044788 21.5354323387146 69.631754860281944 122.91377782821655 87.76873542368412 10.370952218770979 34.700853496789932 29.78473125398159 119.60679385066032 102.10556711256504 57.665459334850311 22.186999216675758 36.590679034590721 115.74937409162521 57.795925199985504 55.915488958358765 200.93969771265984 41.578085094690323 208.36714567244053 58.5020981580019 15.228841468691824 15.819300979375837 6.3139618039131156 48.196840703487396 77.65595655143261 60.734408020973206 74.329324305057526
leaf_count=57 1008 51 102 2583 40 190 534 599 78 231 141 786 662 112 54 188 781 308 120 470 85 1346 198 38 75 9 124 269 378 347
internal_value=1.48141e-06 -0.0105514 -0.0149746 -0.0184969 -0.0282577 -0.0113041 0.0148573 -0.0142667 0.0377869 0.0101726 0.0148749 -0.0166507 -0.0129572 -0.00886427 -0.00338192 -0.00900261 -0.0158128 -0.00569396 0.0168121 0.0249962 0.0246897 -0.0305172 -0.0203847 -0.0291694 0.0392115 -0.0292958 0.0172836 -0.00377193 -0.0134838 -0.021581
internal_weight=2802.14 2190.4 1805.13 1614.5 684.97 929.528 190.627 859.897 611.744 385.272 344.257 810.309 690.702 602.933 500.828 443.162 350.656 113.533 92.5062 230.724 49.5879 663.435 282.098 223.596 601.373 41.0148 55.7371 234.907 157.251 135.064
internal_count=11964 10803 9469 8833 4205 4628 636 4438 1161 1334 1094 4296 3510 2911 2249 2137 1829 483 308 611 142 4165 1582 1384 1083 240 175 1048 779 725
is_linear=0
shrinkage=0.03


Tree=15
num_leaves=31
num_cat=0
split_feature=8 214 63 19 97 87 48 75 15 17 83 9 235 66 67 103 75 38 7 17 69 62 103 68 173 96 86 61 160 83
split_gain=1184.95 214.387 219.72 170.661 179.016 179.114 146.708 140.571 199.39 115.723 93.5826 120.234 75.7254 71.7322 71.5294 71.3803 70.6101 69.2971 66.8819 65.2674 64.2964 60.7053 55.0174 51.6077 50.7488 50.5308 48.9246 45.3175 45.3122 151.24
threshold=1.9742435748468508 -0.010811126694717156 1.726855889617031 1.0000000180025095e-35 0.50178474921812255 -0.041804477713774456 0.0001989364624023438 -0.24025120108832229 -0.061693491264528194 0.38541718298139199 -0.16543735328628467 0.82270850020410691 0.30678081317884648 -0.79848758959789234 0.54765011643914907 1.5000000000000002 -0.80467945723693413 -1.0000000180025095e-35 335.69946254270548 -0.035750134270558072 0.29826168890430543 -0.29729619891961978 1.0000000180025095e-35 0.34224378412887912 0.017857838194905832 0.30844888193994929 0.38712508641783389 2.3027644065609856 0.57256984530131627 0.31465240272286804
decision_type=2 2 2 2 2 2 2 2 2 2 2 2 2 2 2 2 2 2 2 2 2 2 2 2 2 2 2 2 2 2
left_child=1 -1 3 4 5 6 7 26 9 13 16 14 15 25 -12 -5 -6 -4 28 -16 -21 27 -10 -23 -7 -9 -3 -19 29 -2
right_child=18 2 17 12 10 24 -8 8 22 -11 11 -13 -14 -15 19 -17 -18 21 -20 20 -22 23 -24 -25 -26 -27 -28 -29 -30 -31
leaf_value=0.029534652688163021 0.038544619987563832 -0.028676467521525313 -0.043162458602542225 -0.045239284617638154 -0.047241947547575408 -0.034064713996649891 0.036326011012773995 -0.049690863299257031 -0.03754809686550991 -0.025972406035375355 -0.037414974550650078 0.027289958645260765 0.049410382986961474 0.027372926721856719 -0.036143606947003123 0.042584257328881742 0.033999063454621149 0.021205288735214864 -0.029931755461233191 -0.043678120042737995 0.037682397497092283 -0.025188145205462809 0.049402574710204643 0.036477854975912299 0.0063329601010453027 0.026827547974112031 0.047777570323265107 -0.05579537628660456 0.043806358436868573 -0.080861474866187971
leaf_weight=117.99106864631176 53.083501666784286 319.5689427703619 15.184378832578657 223.28172905743122 10.483751922845839 448.68141916394234 60.964565694332123 20.17817011475563 118.17142912745476 57.955442309379578 86.460654497146606 74.870597139000893 8.460638225078581 216.07786917686462 27.04577599465847 8.651861757040022 118.02672083675861 13.7178330719471 12.361053645610808 10.994727417826651 42.662162631750107 13.398341745138167 6.9336014091968527 138.20298592746258 29.848798274993896 12.628273651003836 7.7148673832416526 13.798005372285841 481.19957534968853 11.640193387866018
leaf_count=296 96 1889 103 1631 76 2917 125 142 788 334 549 193 12 588 176 14 277 41 82 74 94 71 12 278 118 40 13 93 758 84
internal_value=1.6961e-06 -0.00981556 -0.0120223 -0.0151147 -0.0117114 -0.016959 -0.00844914 -0.0120445 -0.000808016 0.0122069 0.00668117 -0.00430459 -0.0387473 0.0210973 -0.0184554 -0.0419632 0.0273715 0.0183709 0.0390741 0.00185684 0.021011 0.0235873 -0.0327291 0.0310279 -0.0315449 -0.0202364 -0.0268743 -0.0174072 0.0406366 0.0170701
internal_weight=2780.24 2221.95 2103.96 1909.66 1669.27 1298.72 820.193 759.229 431.945 306.84 370.544 242.034 240.394 248.884 167.163 231.934 128.51 194.302 558.284 80.7027 53.6569 179.117 125.105 151.601 478.53 32.8064 327.284 27.5158 545.923 64.7237
internal_count=11964 10944 10648 10062 8405 6966 3931 3806 1904 1104 1439 1086 1657 770 893 1645 353 586 1020 344 168 483 800 349 3035 182 1902 134 938 180
is_linear=0
shrinkage=0.03


Tree=16
num_leaves=31
num_cat=0
split_feature=8 214 83 19 97 209 77 65 77 48 83 9 67 96 235 40 100 4 160 4 68 87 17 95 39 3 4 62 2 160
split_gain=1129.55 203.488 207.456 179.495 145.638 145.139 186.913 157.196 100.625 93.8642 90.5757 109.416 77.5969 73.5884 72.4875 69.1088 68.3025 68.1952 65.6141 92.8527 108.273 65.045 64.7446 63.8099 63.3147 61.8002 55.0927 54.8137 44.8849 44.0307
threshold=1.9742435748468508 -0.010929288103201146 3.8298600627078323 1.0000000180025095e-35 0.51138382432857521 -1.0000000180025095e-35 -0.2514105512620543 -0.63490312152625605 -1.0117649811517213 0.0001989364624023438 -0.16543735328628467 0.82270850020410691 0.54765011643914907 0.30844888193994929 0.30678081317884648 -0.00082366943359374995 1.9237786023500312 519.83654837790743 0.99800000000000011 0.086128471223701805 -0.20233590960107684 1.1835385421315641 -0.035750134270558072 -0.98247646465588034 -1.0000000180025095e-35 -0.12988722745485923 3.1048737169663814 0.42475310324430832 33.819557691583903 0.57256984530131627
decision_type=2 2 2 2 2 2 2 2 2 2 2 2 2 2 2 2 2 2 2 2 2 2 2 2 2 2 2 2 2 2
left_child=1 -1 3 4 5 26 7 13 -9 18 23 12 -12 25 16 -10 -5 29 19 20 -8 -14 -20 -6 -4 -7 -3 -22 -23 -2
right_child=17 2 24 14 10 6 9 8 15 -11 11 -13 21 -15 -16 -17 -18 -19 22 -21 27 28 -24 -25 -26 -27 -28 -29 -30 -31
leaf_value=0.032732195160493777 0.016689368300501856 -0.040021451076478469 -0.04846000082223835 -0.044592649124332182 -0.040275808089281273 -0.037375629657600183 -0.034183456063241441 0.040332487735489073 -0.048576243111443942 0.03112676378914514 -0.036544077149268057 0.026210030768856959 0.026266650277751828 0.038013589056754789 0.048481683187741514 0.0087476014203737556 0.04194158865756635 -0.033500855262428561 -0.042925317042560279 -0.044765522350830284 -0.011048397727770566 -0.040875052105291951 0.029228000759873994 0.033457888115133713 0.031215397461221515 0.036538184345137767 0.043824019784422574 0.027807168643979974 0.047549270141002846 0.043151251851455019
leaf_weight=97.732697129249573 64.253013864159584 215.94787092506886 9.7036069035530073 223.10012154281139 11.637560650706289 116.45803210139275 196.71289594471455 94.703094676136971 20.590066507458687 29.194731444120407 91.326023086905479 73.65932135283947 48.189491003751755 15.649572968482969 8.3654595017433149 234.48623965680599 8.5228535085916501 11.606751307845114 15.922058731317518 179.31487618386745 145.83732971549034 31.472646147012711 37.681323751807213 114.43079271912575 119.76572893559933 11.156043112277983 7.2911939322948447 42.110915824770927 6.1812362074851981 474.65194404125214
leaf_count=224 180 1523 69 1651 81 754 1223 179 150 67 582 191 139 40 12 868 14 81 110 1293 742 212 95 267 281 30 15 123 9 759
internal_value=2.06435e-06 -0.00958689 -0.0115476 -0.0139534 -0.0105988 -0.0151628 -0.0108304 0.00308379 0.0139248 -0.0214373 0.005907 -0.00451929 -0.0172952 -0.0233847 -0.0382751 0.00412035 -0.0414085 0.0384467 -0.0239222 -0.0269368 -0.0186258 0.00318305 0.00779597 0.0266514 0.0252438 -0.0309141 -0.037283 -0.00234258 -0.0263594 0.0399962
internal_weight=2757.66 2207.14 2109.41 1979.94 1739.95 1363.06 1139.82 493.043 349.779 646.774 376.897 250.829 177.169 143.264 239.988 255.076 231.623 550.512 617.579 563.976 384.661 85.8434 53.6034 126.068 129.469 127.614 223.239 187.948 37.6539 538.905
internal_count=11964 10944 10720 10370 8693 7212 5674 2021 1197 3653 1481 1133 942 824 1677 1018 1665 1020 3586 3381 2088 360 205 348 350 784 1538 865 221 939
is_linear=0
shrinkage=0.03


Tree=17
num_leaves=31
num_cat=0
split_feature=0 214 68 217 19 48 97 15 48 0 160 76 17 65 97 95 5 235 100 16 64 84 217 16 160 38 8 160 89 86
split_gain=1094.13 201.373 156.18 147.795 99.2092 124.904 135.055 120.18 90.679 89.0696 86.6425 86.0685 77.8815 75.3481 81.8658 80.3507 72.6192 68.6294 67.3504 65.3904 64.8429 71.4067 64.5647 64.0782 74.5825 70.8171 56.1626 49.9009 48.1976 48.0861
threshold=2.2220615523113358 -0.010811126694717156 1.2645708387362651 3.0949077173150328 1.0000000180025095e-35 0.0001989364624023438 0.50178474921812255 -0.12508864211866358 0.01424522399902344 0.2714373956892433 1.0080816326530615 -0.072791938493559458 0.20941556256492552 -0.62510940379609692 -0.64190120726074029 -0.43895427606229592 3490.2130076462804 0.30678081317884648 1.9237786023500312 -0.090292814475285657 0.27685839303633242 -0.23385793392206808 1.2504959404689211 -0.31942422328808301 1.1056165433968126 -1.0000000180025095e-35 -0.44863878418190345 0.59677419354838712 2.0873219221147057 -0.3076551450958378
decision_type=2 2 2 2 2 2 2 2 2 2 2 2 2 2 2 2 2 2 2 2 2 2 2 2 2 2 2 2 2 2
left_child=1 -1 3 4 5 6 7 13 -7 22 -9 -4 -12 -3 15 -15 -2 18 -6 26 21 -5 -8 -13 25 -25 29 -11 -27 -16
right_child=16 2 11 20 17 8 9 10 -10 27 12 23 -14 14 19 -17 -18 -19 -20 -21 -22 -23 -24 24 -26 28 -28 -29 -30 -31
leaf_value=0.028305265894437746 0.03837851455507961 -0.028255206313853767 0.043553378031308085 0.0073773586808233626 -0.044083797793954396 0.032691576032514942 -0.02496562747514517 -0.03803093809884843 -0.051248122195938377 -0.051408299567137876 -0.026594116846916517 -0.04934436489210129 0.034654735514815335 -0.037167431220173595 0.018313634314486359 0.037689954944865753 -0.043296439928786942 0.04761358096274098 0.043406754856516419 0.04634486533703884 0.034567110292307655 -0.03812494459984709 0.015699945783147255 -0.041941484508180901 -0.054731409294079499 -0.012835350266985389 -0.029091813597533534 0.024894606815728304 0.037793287330856455 -0.032753811914190238
leaf_weight=118.32436835765839 560.72784805297852 163.59165145456791 58.638130441308022 156.12644447386265 196.85272191464901 73.789922297000885 125.53429897129536 439.25026565790176 13.739512637257574 8.2701348364353162 51.057087644934654 19.994864970445633 29.468605607748032 16.105247840285301 55.444504573941231 64.947940528392792 9.9717521965503675 8.2639712095260602 8.2507234215736371 15.856963336467741 57.577009409666061 38.74173541367054 48.797539547085762 15.898364081978796 14.872723683714865 21.852183237671852 128.63448698818684 114.67150782048702 75.022017762064934 23.683456391096115
leaf_count=298 1040 1025 93 567 1495 158 751 3077 97 58 308 135 65 100 178 132 78 12 13 38 129 240 168 111 103 109 782 305 154 145
internal_value=1.7359e-06 -0.00974614 -0.0119479 -0.0147248 -0.018118 -0.0151602 -0.0175216 -0.0228557 0.0195155 0.0002073 -0.0327866 0.0128045 -0.00417993 -0.0118324 -0.00301425 0.0228158 0.0369514 -0.0371491 -0.0405643 -0.0123766 0.00659567 -0.00166895 -0.0135829 0.000592036 0.00841427 0.0167421 -0.0168584 0.0197618 0.0263728 0.00302885
internal_weight=2733.96 2163.26 2044.93 1838.66 1586.21 1372.84 1285.31 988.04 87.5294 297.273 519.776 206.278 80.5257 468.264 304.673 81.0532 570.7 213.367 205.103 223.619 252.445 194.868 174.332 147.64 127.645 112.773 207.762 122.942 96.8742 79.128
internal_count=11964 10846 10548 9843 8907 7387 7132 5850 255 1282 3450 705 373 2400 1375 232 1118 1520 1508 1143 936 807 919 612 477 374 1105 363 263 323
is_linear=0
shrinkage=0.03


Tree=18
num_leaves=31
num_cat=0
split_feature=0 214 63 19 97 87 48 75 15 77 83 0 5 235 64 95 75 103 38 68 175 101 62 68 81 63 68 115 5 16
split_gain=1042.79 191.112 170.244 152.429 141.67 170.915 120.973 119.923 174.779 112.543 89.785 87.4799 69.3191 66.0462 63.8324 64.9627 63.3587 62.2897 57.5649 56.8718 54.8886 54.5159 53.1685 43.7999 42.5766 39.7185 44.0859 40.6815 39.3098 38.9658
threshold=2.2220615523113358 -0.010929288103201146 1.726855889617031 1.0000000180025095e-35 0.50178474921812255 -0.041804477713774456 0.0001989364624023438 -0.24025120108832229 -0.061693491264528194 -0.2514105512620543 -0.16543735328628467 0.78870292047841872 3490.2130076462804 0.30678081317884648 -0.74906179616275215 -0.20223778200144876 -0.80467945723693413 1.5000000000000002 -1.0000000180025095e-35 -0.19311033549236589 0.08781977797025918 0.24090154716562193 -0.29729619891961978 0.34224378412887912 2.7619928436219534 -0.47577685194320679 -0.3318693505207958 0.20631927964450317 -0.37601422552244729 0.72065765412096738
decision_type=2 2 2 2 2 2 2 2 2 2 2 2 2 2 2 2 2 2 2 2 2 2 2 2 2 2 2 2 2 2
left_child=1 -1 3 4 5 6 7 -3 9 14 16 29 -2 17 15 -9 -6 -5 -4 -11 -13 -10 24 -24 -20 26 -7 28 -27 -12
right_child=12 2 18 13 10 25 -8 8 21 19 11 20 -14 -15 -16 -17 -18 -19 22 -21 -22 -23 23 -25 -26 27 -28 -29 -30 -31
leaf_value=0.031391027517780563 0.037747331696342666 -0.024155508598199676 -0.04071607380055612 -0.043239389318391656 -0.045742531257971203 -0.045347077770216272 0.034269030772021702 -0.040318339942082393 -0.036049447485300715 -0.025840986951174118 -0.023956900428186829 0.033611499467975058 -0.042733302315996299 0.046800658995147924 0.036301897243967318 0.041394132345063263 0.032235458576340512 0.04075098554871933 0.019940452969549414 0.015529999937122481 -0.044521386877598365 0.04725747586449016 -0.02305344002834055 0.034156249456735212 -0.054720959904548172 0.018407171493380191 0.054911893079371978 0.048797541624546345 -0.034536221586350217 0.014154038048333699
leaf_weight=98.038015976548195 553.11629474163055 330.74185672402382 14.696739777922629 213.85233213752508 10.198658391833304 6.5139523595571545 58.223188295960426 22.193535789847374 112.12013827264309 76.970766112208366 136.2506015598774 59.617521658539772 9.8026223182678205 8.1569059491157514 142.76974976062775 14.462809845805166 116.5264585018158 8.2536445409059507 13.923100680112841 48.907030060887337 9.3628547638654691 7.5455283969640723 13.311474055051802 126.50899088382721 13.577984273433684 13.006803527474402 10.017689123749731 5.5454403162002555 426.37154874205589 29.345241501927376
leaf_count=226 1040 1928 103 1631 76 49 123 144 772 450 798 131 78 12 301 33 276 14 43 182 56 13 71 265 92 47 24 8 2877 101
internal_value=1.59848e-06 -0.0095274 -0.0114852 -0.0141853 -0.0109701 -0.0156678 -0.00739871 -0.010609 -6.60731e-05 0.0119789 0.00561296 -0.00537907 0.0363458 -0.0370392 0.0272351 -0.00807858 0.0259599 -0.0401182 0.0162096 -0.00976721 0.0230064 -0.0307965 0.0212096 0.0287097 -0.0169218 -0.0302533 0.0154069 -0.0319498 -0.032969 -0.0172033
internal_weight=2709.93 2147.01 2048.97 1866.95 1636.69 1275.39 813.935 755.711 424.97 305.304 361.301 234.576 562.919 230.263 179.426 36.6563 126.725 222.106 182.018 125.878 68.9804 119.666 167.322 139.82 27.5011 461.455 16.5316 444.924 439.378 165.596
internal_count=11964 10846 10620 10046 8389 6951 3946 3823 1895 1110 1438 1086 1118 1657 478 177 352 1645 574 632 187 785 471 336 135 3005 73 2932 2924 899
is_linear=0
shrinkage=0.03


Tree=19
num_leaves=31
num_cat=0
split_feature=0 214 63 19 97 7 75 48 48 17 160 77 62 5 77 35 17 89 75 63 17 62 221 100 62 2 3 38 201 62
split_gain=994.132 181.816 160.454 144.621 134.275 131.569 171.66 146.291 76.9908 73.921 84.5643 86.6911 82.33 66.1957 66.0665 62.6619 69.5998 67.0519 77.7948 63.6818 73.5941 61.6521 60.7234 59.5586 59.3892 56.1271 54.9789 54.3985 49.501 49.275
threshold=2.2220615523113358 -0.010811126694717156 1.726855889617031 1.0000000180025095e-35 0.50178474921812255 -0.30583308754371008 -0.24604770264641437 0.0001989364624023438 0.01424522399902344 -0.12237903383478677 0.99800000000000011 -0.52452160006719994 1.0378374908606907 3490.2130076462804 -1.0966703637979054 -0.009199745673598823 0.53209423237072484 -0.19790213329611708 -0.74125941307276522 0.073861053001748625 -0.035750134270558072 -0.4582866530639213 0.48585983942026495 1.9237786023500312 0.023105482663634151 -0.22266498620157818 0.67954734814662288 -1.0000000180025095e-35 1.1391043205668525 -0.29729619891961978
decision_type=2 2 2 2 2 2 2 2 2 2 2 2 2 2 2 2 2 2 2 2 2 2 2 2 2 2 2 2 2 2
left_child=1 -1 3 4 5 6 -3 9 -9 -7 11 21 -13 26 -8 -6 17 18 -17 -19 -21 -11 23 -5 -12 -16 -2 -4 -27 -29
right_child=13 2 27 22 15 7 14 8 -10 10 24 12 -14 -15 25 16 -18 19 -20 20 -22 -23 -24 -25 -26 28 -28 29 -30 -31
leaf_value=0.027009523492986218 -0.012853743378418681 -0.022172157765886904 -0.039977920740329645 -0.042613371006364538 -0.047968104331338468 -0.039278307513223795 0.045508001802820053 0.030087291218367698 -0.049993638032275689 -0.048222648295764878 0.038866489228359495 -0.034223019881945212 0.031756075062755205 -0.042200882709456947 0.029519226977161615 -0.045846135276482992 -0.03789803975328123 -0.029773393649804365 0.039440318877514306 -0.023167331771889049 0.023191886697912809 0.016258453402423052 0.043066410742996337 0.040198583574334035 -0.025988032128933587 -0.019724451753344623 0.038955057980831737 -0.0162527693364155 0.023868719726141609 0.027909333340476138
leaf_weight=117.2134792804718 19.103638023138046 200.2886556237936 14.521708980202673 210.2464332729578 18.839625045657158 266.39155416190624 52.448825851082802 64.577185645699501 12.976091623306273 16.686715200543404 35.137755915522575 325.03978915512562 17.961705431342125 9.6311012208461744 63.244370177388191 10.662904664874075 27.074696943163872 44.306738421320915 98.957592189311981 41.918848603963852 116.38354043662548 66.643017753958702 8.3149057030677778 8.1181052476167661 19.907398849725723 74.579376518726349 526.30399878323078 27.253254994750023 34.190945416688919 137.27603389322758
leaf_count=298 95 1137 103 1629 136 1961 81 145 93 120 72 2204 51 78 170 80 181 262 193 242 342 237 14 14 110 411 945 134 92 334
internal_value=1.73422e-06 -0.00931208 -0.011426 -0.0140712 -0.0109092 -0.0155491 -0.00198235 -0.0225312 0.0166883 -0.0265988 -0.0195819 -0.0241001 -0.0307679 0.0357636 0.016033 0.00528595 0.00824284 0.0122439 0.0311444 0.0020179 0.0109159 0.00334616 -0.0365048 -0.0395347 0.0154115 0.0070458 0.0371404 0.0156815 -0.00602134 0.0205942
internal_weight=2686.2 2131.16 2013.95 1834.9 1608.22 1250.07 424.752 825.321 77.5533 747.768 481.376 426.331 343.001 555.039 224.464 358.144 339.304 312.23 109.62 202.609 158.302 83.3297 226.679 218.365 55.0452 172.015 545.408 179.051 108.77 164.529
internal_count=11964 10846 10548 9977 8320 6884 1891 4993 238 4755 2794 2612 2255 1118 754 1436 1300 1119 273 846 584 357 1657 1643 182 673 1040 571 503 468
is_linear=0
shrinkage=0.03


Tree=20
num_leaves=31
num_cat=0
split_feature=8 201 47 77 162 201 162 17 8 84 77 62 61 76 15 100 173 8 16 89 2 77 6 63 84 162 3 96 15 62
split_gain=942.836 168.488 185.263 144.07 125.165 100.749 113.508 217.719 148.438 126.944 121.984 98.1605 91.1128 73.7327 112.337 72.9379 70.672 66.4214 67.629 64.913 63.2936 62.571 61.4005 55.2046 52.6545 63.7909 50.8752 48.9194 76.7923 46.6613
threshold=1.9742435748468508 1.1052998696389531 1.0000000180025095e-35 0.65987466700593433 1.0000000180025095e-35 -0.94228662991583889 0.90000000000000013 1.0000000180025095e-35 -1.0000000180025095e-35 -0.51204674331605304 -0.81465826785121964 0.383893308489337 -0.21831879421000613 1.0000000180025095e-35 -0.31846206405821037 0.96959389816532682 0.021536147156319987 -0.0090015088354695929 -0.34389198319143316 -0.083203566414693564 -0.13216546631132431 0.3326432049152791 1036.6333611053681 1.0000000180025095e-35 -0.29735273841575033 1.0000000180025095e-35 0.67954734814662288 1.9255894793951425 -0.26092833073216187 0.10457210729478895
decision_type=2 2 2 2 2 2 2 2 2 2 2 2 2 2 2 2 2 2 2 2 2 2 2 2 2 2 2 2 2 2
left_child=1 2 3 5 -4 16 8 -8 9 -7 -11 13 -5 14 -12 -10 -1 18 23 20 -15 -9 -2 -3 -13 -26 -18 -21 -29 -20
right_child=22 17 4 12 -6 6 7 21 15 10 11 24 -14 19 -16 -17 26 -19 29 27 -22 -23 -24 -25 25 -27 -28 28 -30 -31
leaf_value=-0.040539524828954433 0.037739734938877632 0.0033123604756336643 0.03370112526721071 -0.044169917377274215 -0.044508792201498892 -0.030099531778109336 -0.036321300689736671 0.039541165212895864 -0.037250997275171491 0.034099103114947217 0.045996275124801846 -0.034930117156362066 0.041263146272841042 0.043953883831246245 -0.041630934720121526 0.040532971689953151 -0.025073487505671548 -0.027432397320037761 0.010711463102321203 -0.024391513932195859 -0.032528386371362294 -0.0016436162795800365 -0.036295745599253026 -0.056909299121021009 0.040726985884536514 -0.045020678568779254 0.050454071640363959 -0.05030480256091132 0.029336574186952499 0.038162933812628905
leaf_weight=225.2687696814537 508.8594794049859 95.780498772859573 113.6068049967289 13.802821911871431 21.979264095425606 212.79915733635426 75.464807644486427 101.62716096639633 323.90813923627138 70.464917793869972 14.728953212499617 13.11593087017536 60.389187932014465 38.989018306136131 124.15994460880756 11.225667253136633 19.221138395369053 39.336786359548569 121.932362601161 117.98952909559011 12.980325087904928 49.308851182460785 10.285503342747687 15.986295297741888 64.426812618970871 8.885151267051695 13.782075121998785 14.562382087111471 43.283561512827873 102.63493983447552
leaf_count=1708 940 375 236 106 172 1426 521 195 2336 153 28 91 105 84 862 21 119 241 412 715 80 196 80 108 139 67 23 102 124 199
internal_value=1.58715e-06 -0.00879077 -0.0126718 -0.0154739 0.0210229 -0.0174211 -0.014016 0.00528457 -0.0180941 -0.0105614 -0.00262057 -0.00833084 0.025369 -0.0151097 -0.0323382 -0.0346455 -0.0345329 0.00945326 0.0137673 -0.00460578 0.024851 0.0260866 0.0362729 -0.0053013 0.0204304 0.0303347 0.00646667 -0.0133119 0.00928732 0.0232577
internal_weight=2660.79 2141.64 1765.97 1630.38 135.586 1556.19 1297.92 226.401 1071.52 736.386 523.587 453.122 74.192 366.694 138.889 335.134 258.272 375.671 336.334 227.805 51.9693 150.936 519.145 111.767 86.4279 73.312 33.0032 175.835 57.8459 224.567
internal_count=11964 10944 9609 9201 408 8990 7140 912 6228 3871 2445 2292 211 1995 890 2357 1850 1335 1094 1105 164 391 1020 483 297 206 142 941 226 611
is_linear=0
shrinkage=0.03


Tree=21
num_leaves=31
num_cat=0
split_feature=3 217 68 65 75 9 86 65 75 77 160 107 217 160 48 17 203 103 61 5 4 16 215 16 160 39 2 17 62 85
split_gain=898.56 168.548 160.093 105.874 121.756 82.4473 109.568 103.568 81.0811 78.0982 76.3349 68.5563 68.3678 64.6812 93.3823 62.678 61.1615 65.2341 59.192 57.9685 56.7141 49.4098 48.497 47.9974 59.9413 61.33 45.6473 45.0282 44.7121 52.9974
threshold=1.9397552131302638 3.0949077173150328 1.2051076863833654 0.14100852003185596 -0.57813817983147098 0.6720898779836848 -0.16666749629095076 -0.62510940379609692 -0.16430369291695165 -0.20834672090741116 0.79800000000000015 1.0000000180025095e-35 0.89188187818728137 0.99800000000000011 0.00058326721191406296 0.067224064772510181 -1.0000000180025095e-35 1.0000000180025095e-35 0.40233663483352433 3490.2130076462804 0.11398572659527406 -0.38825637838809401 0.37412003519115594 -0.31942422328808301 1.1056165433968126 -1.0000000180025095e-35 0.12443617319282489 0.60043786611038297 0.10457210729478895 -0.085519578262596152
decision_type=2 2 2 2 2 2 2 2 2 2 2 2 2 2 2 2 2 2 2 2 2 2 2 2 2 2 2 2 2 2
left_child=1 2 3 4 -1 6 7 27 -4 10 -9 12 -5 14 -7 -15 -2 18 -18 -19 21 -3 -20 -10 25 -25 -8 -6 29 -23
right_child=16 20 8 11 5 13 26 9 23 -11 -12 -13 -14 15 -16 -17 17 19 22 -21 -22 28 -24 24 -26 -27 -28 -29 -30 -31
leaf_value=0.034098214425567944 0.041101017956421335 -0.019407364947624284 0.042257882234744026 -0.032984738011323747 -0.030034023960032501 -0.045600756641910087 -0.042318003519780038 0.022522275230253269 -0.049326993055273959 -0.013729792826058265 -0.044255910739959811 0.032474612543262615 -0.00087272308201468492 -0.014221803246342927 0.018906250409721582 0.035682247847096879 0.021093324608607394 0.036288637212272476 -0.073694165140877413 -0.041280195341061185 -0.039958014288665834 0.014421647739728094 0.015893210314246852 -0.039372517419595465 -0.051904036080771744 0.025087627276152435 -0.017587676971676954 0.029642398191064151 0.034113919713945444 -0.041653498290609776
leaf_weight=52.824143573641777 365.59405116736889 35.478597953915596 59.775282800197601 446.49932722002268 178.90632636845112 42.610635697841644 162.71276330947876 151.63525281846523 15.609905034303663 155.54463535547256 17.148541063070297 17.035968288779259 68.874909557402134 32.54889440536499 38.397700116038322 74.486454591155052 28.214571222662926 127.09062130749226 15.829983025789263 9.3057070672512037 18.679812550544739 153.74516306817532 8.2843642234802228 15.782705344259737 13.764274924993513 83.911520525813103 114.40310356765985 12.15242427587509 100.50743617117405 16.829412281513214
leaf_count=121 620 179 98 3216 1174 323 1214 443 113 828 132 41 328 187 108 149 80 243 114 78 138 493 26 116 98 238 702 42 218 104
internal_value=1.50075e-06 -0.00904403 -0.0127209 -0.0158679 -0.0102685 -0.0126586 -0.016896 -0.00871655 0.0133724 0.00160532 0.0157376 -0.026736 -0.0286933 0.00519996 -0.0150246 0.0205067 0.0339413 0.0200717 -0.00840402 0.0309965 0.010792 0.0138844 -0.0429169 -5.2297e-06 0.00678058 0.0148829 -0.0321085 -0.0262383 0.0182416 0.0088891
internal_weight=2634.18 2079.87 1754.62 1565.78 1033.37 980.547 792.503 515.387 188.844 324.328 168.784 532.41 515.374 188.044 81.0083 107.035 554.319 188.725 52.3289 136.396 325.24 306.561 24.1143 129.068 113.459 99.6942 277.116 191.059 271.082 170.575
internal_count=11964 10803 9671 9008 5423 5302 4535 2619 663 1403 575 3585 3544 767 431 336 1161 541 220 321 1132 994 140 565 452 354 1916 1216 815 597
is_linear=0
shrinkage=0.03


Tree=22
num_leaves=31
num_cat=0
split_feature=8 214 63 217 97 48 160 66 86 86 85 38 82 6 100 201 77 8 4 17 160 83 76 75 17 17 173 5 10 62
split_gain=861.916 157.296 164.878 101.803 89.4317 108.021 100.406 92.2949 96.548 66.5408 65.476 71.7414 59.8506 56.2944 49.7136 47.7453 85.4899 49.4673 51.2148 45.3414 45.0051 141.447 44.1269 88.5251 74.3522 42.2664 41.9532 41.3058 40.4768 38.0959
threshold=1.9742435748468508 -0.010929288103201146 1.3151574393879837 3.0949077173150328 0.67186533007671045 0.0001989364624023438 0.59677419354838712 -0.35907855563625107 -0.46785173468134883 -0.35607355702241167 -0.14478318987801944 -1.0000000180025095e-35 -0.56859946704206976 1036.6333611053681 1.0202020202020206 -0.57766558976555304 -0.73820527706360883 0.41343747623549892 -0.24054412560539173 0.52797372093353512 0.57256984530131627 0.31465240272286804 -0.76882551195830684 -0.48559032048800504 0.11965272639239451 0.60043786611038297 0.017857838194905832 2.435585142069963 -0.11424629568828955 -0.025835656780677445
decision_type=2 2 2 2 2 2 2 2 2 2 2 2 2 2 2 2 2 2 2 2 2 2 2 2 2 2 2 2 2 2
left_child=1 -1 3 4 5 7 -7 8 25 -6 -4 -12 -9 20 26 -10 -17 18 -18 -13 21 -2 -11 -24 -25 -3 -14 29 -5 -28
right_child=13 2 10 28 9 6 -8 12 15 22 11 19 14 -15 -16 16 17 -19 -20 -21 -22 -23 23 24 -26 -27 27 -29 -30 -31
leaf_value=0.02935718219767551 0.034790601723262031 -0.032974644488373936 -0.018629171147256512 0.012685017277767533 -0.032433473848583451 0.027589422149032306 -0.043541082730916253 0.052800460813154648 -0.031359021015847373 -0.043686453512076624 -0.038890150247594894 0.029155254566536604 -0.032429657889604668 -0.035317820759007766 0.040066274659454927 0.033668768955951105 0.0012788483975180601 0.029372160796096069 -0.031651063403140021 -0.044894663053316658 0.040108047619885699 -0.082240710214101773 0.042711449638348685 -0.031597584410578916 0.018097039880183262 0.026255187301854114 0.029046815134108988 0.04465869933387661 -0.013896139182328982 -0.046869958380263775
leaf_weight=94.7433822453022 48.572884067893028 169.89948408305645 47.899000361561775 169.61283904314041 43.152895249426365 75.634256407618523 23.381767094135284 8.0061187893152219 42.02811748534441 13.291986949741839 16.770983882248402 173.06545153260231 649.86323860287666 9.9578164368867856 9.0746300816535932 62.758480280637741 102.00808119773865 29.800966039299965 72.872528128325939 7.7763632684946051 432.60102605819702 11.494118794798849 59.188031986355782 46.586589597165585 64.769545838236809 11.582382515072821 8.9366627782583254 12.454233273863791 74.07612644135952 17.794727176427841
leaf_count=224 96 1165 257 573 308 179 188 12 285 104 125 428 4699 80 16 135 440 75 486 49 760 84 101 301 201 42 23 27 370 131
internal_value=1.94994e-06 -0.00841877 -0.0101974 -0.0133985 -0.016279 -0.0193212 0.0107926 -0.021812 -0.0118219 0.00109187 0.0128389 0.0204664 -0.0287579 0.035302 -0.0296932 -0.00163403 0.00303724 -0.00635485 -0.012443 0.025971 0.0367294 0.0123961 0.00896146 0.0130648 -0.00269304 -0.0291945 -0.0306119 -0.000466157 0.00460493 -0.02149
internal_weight=2609.65 2107.03 2012.29 1766.77 1523.08 1296.1 99.016 1197.08 490.95 226.989 245.512 197.613 706.13 502.626 698.123 309.468 267.44 204.682 174.881 180.842 492.668 60.067 183.836 170.544 111.356 181.482 689.049 39.1856 243.689 26.7314
internal_count=11964 10944 10720 9861 8918 7903 367 7536 2628 1015 859 602 4908 1020 4896 1421 1136 1001 926 477 940 180 707 603 502 1207 4880 181 943 154
is_linear=0
shrinkage=0.03


Tree=23
num_leaves=31
num_cat=0
split_feature=0 201 64 19 75 75 201 160 17 7 65 115 18 62 82 161 235 64 7 83 75 100 82 6 8 3 160 3 1 69
split_gain=831.949 152.012 127.629 123.363 112.673 154.558 93.9137 111.154 153.816 89.8185 113.144 93.602 62.439 80.2327 75.2322 60.6888 58.3978 56.1544 89.6693 55.1108 87.2232 53.4718 52.4983 52.3852 51.26 49.0525 48.3701 48.0009 45.3803 44.142
threshold=2.2220615523113358 1.1052998696389531 6.5486236407240863 1.0000000180025095e-35 -0.57813817983147098 -0.74125941307276522 -0.94228662991583889 0.99800000000000011 1.0000000180025095e-35 -0.3302654714393542 -0.64088362289082235 0.10180095783630137 0.012903762903762906 0.10457210729478895 -0.18611807838481098 0.19835132199832503 0.30678081317884648 0.84434272820977596 0.17727962301000563 -0.10788861319277761 -0.15916418494467624 1.9237786023500312 1.2486508692308698 1036.6333611053681 0.37578476717825759 0.67954734814662288 0.59677419354838712 0.67954734814662288 -0.3848228463828765 -0.74261465946421101
decision_type=2 2 2 2 2 2 2 2 2 2 2 2 2 2 2 2 2 2 2 2 2 2 2 2 2 2 2 2 2 2
left_child=1 2 3 4 5 -1 15 9 -9 10 -8 17 13 14 28 -6 21 19 -19 20 -11 -5 24 27 -10 -17 -22 -2 -3 -30
right_child=23 12 -4 16 6 -7 7 8 22 11 -12 -13 -14 -15 -16 25 -18 18 -20 -21 26 -23 -24 -25 -26 -27 -28 -29 29 -31
leaf_value=-0.043821126570824473 -0.012336969671621534 0.019745571319874915 0.041521597574562759 -0.041344506626372429 -0.039056182860822151 0.039472286496849883 -0.027784510174268896 -0.03508939802289112 -0.035820045140972666 -0.029491620928377017 0.01101702573700733 0.032609007146446871 -0.048750185837409525 0.031964173221918066 -0.038794837162242628 -0.024822967769847791 0.0452089375897348 0.027751710121087871 -0.04645143931387595 -0.034468070763436089 0.02085828225337032 0.04057325921614708 -0.035124713173512033 -0.034771208077439997 0.036484934257583548 0.043048837405620828 -0.04509823181249132 0.036983859396257486 0.053686854765847863 -0.017367128670309068
leaf_weight=26.59916977584362 18.423877686262131 125.50067168474197 38.65838834643364 193.50803952664137 170.83063425123692 81.430149659514427 97.497665122151375 48.932429783046246 9.4832524806261045 129.78214927017689 220.82478951662779 28.450925685465336 16.208516202867031 115.77156963944435 35.447523981332779 24.300860732793808 7.8285444974899283 43.873842723667622 22.009608879685402 309.23139078915119 65.433244794607162 7.4475287199020377 11.55906806886196 9.8131248205900174 127.01323276758194 15.824008062481878 11.813734501600264 492.50726763904095 8.8716755956411344 69.622391670942307
leaf_count=209 95 370 65 1604 1346 154 643 335 58 870 819 63 116 266 216 157 12 138 170 2184 229 13 66 80 255 31 90 943 16 351
internal_value=2.43201e-06 -0.00854754 -0.0123619 -0.0136216 -0.0105068 0.0189636 -0.0128883 -0.00944647 0.0110228 -0.0137872 -0.000867336 -0.0205228 0.00883207 0.0114596 0.00154548 -0.0312578 -0.035177 -0.0231195 0.00296275 -0.026448 -0.0144687 -0.0383086 0.0262629 0.0338867 0.0314615 0.00194357 0.0107713 0.0352054 0.00855529 -0.00933636
internal_weight=2584.5 2063.76 1692.33 1653.67 1444.89 108.029 1336.86 1125.91 196.988 928.917 318.322 610.595 371.422 355.214 239.442 210.956 208.784 582.144 65.8835 516.261 207.029 200.956 148.056 520.744 136.496 40.1249 77.247 510.931 203.995 78.4941
internal_count=11964 10846 9511 9446 7817 363 7454 5920 714 5206 1462 3744 1335 1219 953 1534 1629 3681 308 3373 1189 1617 379 1118 313 188 319 1038 737 367
is_linear=0
shrinkage=0.03


Tree=24
num_leaves=31
num_cat=0
split_feature=0 214 83 19 201 161 160 8 48 17 62 76 77 67 95 76 84 43 160 7 69 76 221 6 15 69 15 68 100 81
split_gain=795.165 148.016 150.941 143.49 96.3303 125.725 108.287 139.958 165.679 132.399 113.187 142.097 77.2846 130.548 74.414 93.5004 74.3558 68.7629 66.1308 62.1224 56.5187 54.8472 53.7358 53.6105 52.5984 104.616 67.7351 60.7376 49.0776 47.2978
threshold=2.60041985124152 -0.010929288103201146 3.8298600627078323 1.0000000180025095e-35 -0.94228662991583889 1.0000000180025095e-35 0.99800000000000011 -1.0000000180025095e-35 0.0001989364624023438 1.0000000180025095e-35 0.35506105557665657 -0.76882551195830684 -1.1799024839209957 -0.75666791803191125 -0.71512389780725683 0.17556838786050979 -0.82585848516832361 0.022933959960937503 0.59677419354838712 0.11062629628596223 -0.67376337636823991 -0.5886853648326581 0.48585983942026495 1036.6333611053681 -0.23448962325011175 -0.056030988005552423 -0.1129688184899785 0.96806445914398498 1.9237786023500312 -0.66024796697726496
decision_type=2 2 2 2 2 2 2 2 2 2 2 2 2 2 2 2 2 2 2 2 2 2 2 2 2 2 2 2 2 2
left_child=1 -1 3 4 5 -3 7 10 -9 -8 12 -12 13 19 16 20 -14 -10 -13 -6 21 29 28 -2 25 -17 -26 -28 -5 -16
right_child=23 2 -4 22 6 -7 9 8 17 -11 11 18 14 -15 15 24 -18 -19 -20 -21 -22 -23 -24 -25 26 -27 27 -29 -30 -31
leaf_value=0.02866188447516034 0.037154274738006692 -0.038306789756356298 0.022924934254523698 -0.040619347904193658 -0.032768806772139003 0.013234983522612159 -0.028805542458287828 -0.037765950662284047 0.026311782185415085 0.027823109795795452 -0.041456230779772882 0.039849407361857249 -0.044577188052964858 0.044959989053988868 -0.039571798709577541 0.025653477127675173 0.038669166262323237 -0.048334456638017706 -0.043649177924425929 0.065592528692697716 -0.032390371394109031 -0.050106220714388604 0.04160259524339735 -0.03423990329733962 0.027164652279421362 -0.033441690148365774 -0.037766557716075289 0.037480510477131544 0.037859081024019796 0.035122261942078646
leaf_weight=95.409735158085823 451.70762997865677 183.42000205814838 120.7786715850234 198.253502830863 44.750221483409405 55.476464755833149 48.705484986305237 249.86563402414322 61.997397869825363 156.73030899465084 27.495682753622532 117.47068181633949 12.312908902764319 60.501321136951447 9.9487076699733716 38.485688433051109 44.762929141521454 13.530544169247149 9.2056457400321943 6.6357735991477957 254.14120356738567 14.337965846061705 7.9719557762145987 9.668630585074423 85.60810948163271 90.033756598830223 35.295630685985088 13.289284482598303 7.44092734158039 32.733281686902046
leaf_count=227 866 1445 351 1649 299 215 322 1889 149 388 213 232 94 93 69 125 93 101 72 9 1648 103 14 80 262 578 247 32 14 85
internal_value=2.21374e-06 -0.00784424 -0.00958473 -0.0116728 -0.00870568 -0.0263378 -0.00575559 -0.00914248 -0.0259966 0.0143974 -0.00302856 0.0203633 -0.00788342 0.0150954 -0.0119583 -0.0152074 0.0207105 0.0129392 0.0337815 -0.0200668 -0.0263342 0.00065867 -0.0348186 0.0356581 -0.00202876 -0.0157454 0.0111079 -0.0171845 -0.0377804 0.0177119
internal_weight=2557.97 2096.59 2001.18 1880.4 1666.73 238.896 1427.84 1222.4 325.394 205.436 897.009 154.172 742.837 111.887 630.949 573.874 57.0758 75.5279 126.676 51.386 311.161 57.02 213.666 461.376 262.712 128.519 134.193 48.5849 205.694 42.682
internal_count=11964 11018 10791 10440 8763 1660 7103 6393 2139 710 4254 517 3737 401 3336 3149 187 250 304 308 1905 257 1677 946 1244 703 541 279 1663 154
is_linear=0
shrinkage=0.03


Tree=25
num_leaves=31
num_cat=0
