tree
version=v4
num_class=1
num_tree_per_iteration=1
label_index=0
max_feature_idx=239
objective=binary sigmoid:1
feature_names=gps_speed_residual__mean gps_speed_residual__std gps_speed_residual__min gps_speed_residual__max gps_speed_residual__median gps_speed_residual__q10 gps_speed_residual__q25 gps_speed_residual__q75 gps_speed_residual__q90 gps_speed_residual__range gps_speed_residual__first gps_speed_residual__last gps_speed_residual__last_minus_first gps_speed_residual__linear_slope gps_speed_residual__diff_mean gps_speed_residual__diff_std gps_speed_residual__diff_abs_max gps_speed_residual__lag1_autocorrelation gps_speed_residual__missing_fraction gps_speed_residual__stale_fraction alt_baro_residual__mean alt_baro_residual__std alt_baro_residual__min alt_baro_residual__max alt_baro_residual__median alt_baro_residual__q10 alt_baro_residual__q25 alt_baro_residual__q75 alt_baro_residual__q90 alt_baro_residual__range alt_baro_residual__first alt_baro_residual__last alt_baro_residual__last_minus_first alt_baro_residual__linear_slope alt_baro_residual__diff_mean alt_baro_residual__diff_std alt_baro_residual__diff_abs_max alt_baro_residual__lag1_autocorrelation alt_baro_residual__missing_fraction alt_baro_residual__stale_fraction alt_local_residual__mean alt_local_residual__std alt_local_residual__min alt_local_residual__max alt_local_residual__median alt_local_residual__q10 alt_local_residual__q25 alt_local_residual__q75 alt_local_residual__q90 alt_local_residual__range alt_local_residual__first alt_local_residual__last alt_local_residual__last_minus_first alt_local_residual__linear_slope alt_local_residual__diff_mean alt_local_residual__diff_std alt_local_residual__diff_abs_max alt_local_residual__lag1_autocorrelation alt_local_residual__missing_fraction alt_local_residual__stale_fraction attitude_error_mag__mean attitude_error_mag__std attitude_error_mag__min attitude_error_mag__max attitude_error_mag__median attitude_error_mag__q10 attitude_error_mag__q25 attitude_error_mag__q75 attitude_error_mag__q90 attitude_error_mag__range attitude_error_mag__first attitude_error_mag__last attitude_error_mag__last_minus_first attitude_error_mag__linear_slope attitude_error_mag__diff_mean attitude_error_mag__diff_std attitude_error_mag__diff_abs_max attitude_error_mag__lag1_autocorrelation attitude_error_mag__missing_fraction attitude_error_mag__stale_fraction control_strain__mean control_strain__std control_strain__min control_strain__max control_strain__median control_strain__q10 control_strain__q25 control_strain__q75 control_strain__q90 control_strain__range control_strain__first control_strain__last control_strain__last_minus_first control_strain__linear_slope control_strain__diff_mean control_strain__diff_std control_strain__diff_abs_max control_strain__lag1_autocorrelation control_strain__missing_fraction control_strain__stale_fraction innovation_check_flags_bit_count__mean innovation_check_flags_bit_count__std innovation_check_flags_bit_count__min innovation_check_flags_bit_count__max innovation_check_flags_bit_count__median innovation_check_flags_bit_count__q10 innovation_check_flags_bit_count__q25 innovation_check_flags_bit_count__q75 innovation_check_flags_bit_count__q90 innovation_check_flags_bit_count__range innovation_check_flags_bit_count__first innovation_check_flags_bit_count__last innovation_check_flags_bit_count__last_minus_first innovation_check_flags_bit_count__linear_slope innovation_check_flags_bit_count__diff_mean innovation_check_flags_bit_count__diff_std innovation_check_flags_bit_count__diff_abs_max innovation_check_flags_bit_count__lag1_autocorrelation innovation_check_flags_bit_count__missing_fraction innovation_check_flags_bit_count__stale_fraction gps_check_fail_flags_bit_count__mean gps_check_fail_flags_bit_count__std gps_check_fail_flags_bit_count__min gps_check_fail_flags_bit_count__max gps_check_fail_flags_bit_count__median gps_check_fail_flags_bit_count__q10 gps_check_fail_flags_bit_count__q25 gps_check_fail_flags_bit_count__q75 gps_check_fail_flags_bit_count__q90 gps_check_fail_flags_bit_count__range gps_check_fail_flags_bit_count__first gps_check_fail_flags_bit_count__last gps_check_fail_flags_bit_count__last_minus_first gps_check_fail_flags_bit_count__linear_slope gps_check_fail_flags_bit_count__diff_mean gps_check_fail_flags_bit_count__diff_std gps_check_fail_flags_bit_count__diff_abs_max gps_check_fail_flags_bit_count__lag1_autocorrelation gps_check_fail_flags_bit_count__missing_fraction gps_check_fail_flags_bit_count__stale_fraction filter_fault_flags_bit_count__mean filter_fault_flags_bit_count__std filter_fault_flags_bit_count__min filter_fault_flags_bit_count__max filter_fault_flags_bit_count__median filter_fault_flags_bit_count__q10 filter_fault_flags_bit_count__q25 filter_fault_flags_bit_count__q75 filter_fault_flags_bit_count__q90 filter_fault_flags_bit_count__range filter_fault_flags_bit_count__first filter_fault_flags_bit_count__last filter_fault_flags_bit_count__last_minus_first filter_fault_flags_bit_count__linear_slope filter_fault_flags_bit_count__diff_mean filter_fault_flags_bit_count__diff_std filter_fault_flags_bit_count__diff_abs_max filter_fault_flags_bit_count__lag1_autocorrelation filter_fault_flags_bit_count__missing_fraction filter_fault_flags_bit_count__stale_fraction timeout_flags_bit_count__mean timeout_flags_bit_count__std timeout_flags_bit_count__min timeout_flags_bit_count__max timeout_flags_bit_count__median timeout_flags_bit_count__q10 timeout_flags_bit_count__q25 timeout_flags_bit_count__q75 timeout_flags_bit_count__q90 timeout_flags_bit_count__range timeout_flags_bit_count__first timeout_flags_bit_count__last timeout_flags_bit_count__last_minus_first timeout_flags_bit_count__linear_slope timeout_flags_bit_count__diff_mean timeout_flags_bit_count__diff_std timeout_flags_bit_count__diff_abs_max timeout_flags_bit_count__lag1_autocorrelation timeout_flags_bit_count__missing_fraction timeout_flags_bit_count__stale_fraction attitude_missing__mean attitude_missing__std attitude_missing__min attitude_missing__max attitude_missing__median attitude_missing__q10 attitude_missing__q25 attitude_missing__q75 attitude_missing__q90 attitude_missing__range attitude_missing__first attitude_missing__last attitude_missing__last_minus_first attitude_missing__linear_slope attitude_missing__diff_mean attitude_missing__diff_std attitude_missing__diff_abs_max attitude_missing__lag1_autocorrelation attitude_missing__missing_fraction attitude_missing__stale_fraction battery_missing__mean battery_missing__std battery_missing__min battery_missing__max battery_missing__median battery_missing__q10 battery_missing__q25 battery_missing__q75 battery_missing__q90 battery_missing__range battery_missing__first battery_missing__last battery_missing__last_minus_first battery_missing__linear_slope battery_missing__diff_mean battery_missing__diff_std battery_missing__diff_abs_max battery_missing__lag1_autocorrelation battery_missing__missing_fraction battery_missing__stale_fraction gps_health_missing__mean gps_health_missing__std gps_health_missing__min gps_health_missing__max gps_health_missing__median gps_health_missing__q10 gps_health_missing__q25 gps_health_missing__q75 gps_health_missing__q90 gps_health_missing__range gps_health_missing__first gps_health_missing__last gps_health_missing__last_minus_first gps_health_missing__linear_slope gps_health_missing__diff_mean gps_health_missing__diff_std gps_health_missing__diff_abs_max gps_health_missing__lag1_autocorrelation gps_health_missing__missing_fraction gps_health_missing__stale_fraction
feature_infos=[-0.50633792754570306:786.16174272045987] [-0.57210974195973774:132.1235377576528] [-0.28512019699217761:27308.438777503616] [-0.63239920466850508:319.80577369473355] [-0.47119595198698305:913.43799842349131] [-0.45643494860794326:4040.709368076416] [-0.45774764688130926:1833.9399522225219] [-0.52090492057503779:567.83319985077253] [-0.55684551108837133:416.30804330848741] [-0.62079357668139834:302.31744128541936] [-0.37012950737640604:889.38872125049204] [-0.42003860924327541:842.26402221607077] [-729.55082888583922:1114.6767463672602] [-98.491959646885221:150.87986225406434] [-1078.3057243389719:2471.5115205884103] [-0.44156616349110284:283.90407502149742] [-0.51361302379117779:590.63121718552327] [-6.090004715812289:0.60463577464643559] [0:1] [0:1] [-2.6171036356381596:1.3177765237009664] [-0.38065618730767525:1.0649734772739732] [-3.2276725769042969:1.1474189758300781] [-2.6292877197265625:3.2425689697265625] [-2.5801124572753906:0.9502716064453125] [-2.7982315063476562:1.0255767822265625] [-2.6823482513427734:0.9973602294921875] [-2.4929752349853516:1.7710094451904297] [-2.5312969207763674:2.7418533325195309] [-1.947357177734375:3.2963027954101562] [-3.55230712890625:3.8218650817871094] [-3.6274795532226562:3.7172966003417969] [-4.3782081604003906:3.5384292602539062] [-0.36349183639248489:0.40654205245227371] [-0.056024142830096026:0.054808495380624461] [-0.25197652184605079:0.26599585718557855] [-0.8447418212890625:2.9980506896972656] [-0.53632941587022986:0.71345056304803545] [-1:0] [-1:0] [-0.17419281005859374:0.088749389648437496] [0:0.086984137938316983] [-0.25758743286132812:0.0674285888671875] [-0.140533447265625:0.44141006469726562] [-0.183837890625:0.085552215576171875] [-0.19463729858398438:0.073786926269531247] [-0.19233512878417969:0.078821182250976562] [-0.15450286865234375:0.096231460571289062] [-0.14282150268554689:0.11003112792968751] [0:0.69899749755859375] [-0.1956787109375:0.1091461181640625] [-0.20052337646484375:0.1273956298828125] [-0.12689971923828125:0.16124343872070312] [-0.010829378584589322:0.0094187453182023456] [-0.0037323446834788602:0.0032906824228714922] [0:0.11857138603214532] [0:0.51688003540039062] [-1.2801179323145466:0.36835839847503449] [0:0.13043478260869565] none [-1.1757470452149372:66.359564752671176] [-1.0273187863038282:29.686914955365484] [-0.7323196865812942:207.92346819931225] [-1.0056211194541818:18.455775354611593] [-1.1421314140877916:77.944781690916614] [-1.0727817571983791:139.15183563502799] [-1.1046763729212739:109.42656187495905] [-1.1091417087378188:48.885900936061198] [-1.0413514914135227:31.871356962394184] [-0.99606701954930976:18.370937921111764] [-0.89429974753103014:51.7484451837962] [-0.82299604133812188:48.751930057081196] [-53.325608230423839:15.987621964985239] [-126.76452857925693:88.714515011425505] [-183.72908823653233:143.588894171313] [-0.94940197140957694:12.976924935323641] [-0.97757930180204944:29.634712523209668] [-3.8580282598851565:0.78758217666334174] none none [-1.1601068853427632:383.1506173627111] [-0.98517810216218593:47.201272660450996] [-0.71785474798105209:1779.4569347396825] [-0.91987685291818966:92.976632712781196] [-1.0604840108708404:469.57479423965356] [-1.0287906184603657:1027.3602206667847] [-1.0475207635240154:741.42130235830882] [-1.0807512274527715:300.78468294937358] [-1.0518374717284495:194.45930543770231] [-0.88215580460695497:29.661004445322884] [-0.62955303120774919:324.97393257110826] [-0.67450719651628777:314.93299923835258] [-74.315058314772685:66.087197640153704] [-108.14701611806602:203.22834080452321] [-241.90675181568781:284.64419283124062] [-1.1073355482520033:101.55663369359064] [-0.93444244940976462:44.553188357665235] [-3.4160926278104964:1.2553112333999397] none none [0:2] [0:0.99979173174823588] [0:2] [0:3] [0:2] [0:2] [0:2] [0:3] [0:3] [0:3] [0:3] [0:2] [-3:2] [-0.27224139773502376:0.2835044619158249] [-0.0625:0.041666666666666664] [0:1.244730667916482] [0:3] [-0.79249011857707563:0.25252316984054446] none none [0:4.5666666666666664] [0:1.6514094551902176] [0:4] [0:5] [0:5] [0:4] [0:4] [0:5] [0:5] [0:5] [0:5] [0:5] [-5:3] [-0.36147940788366706:1.3589737149843897] [-0.13333333333333333:0.14285714285714285] [0:1.8427033281447005] [0:5] [-0.89217105719247891:0.10547331369014312] none none none none none none none none none none none none none none none none none none none none none none [0:1.4638041163946061] [0:1.8510802935469206] [0:1.5] [0:1.3999999999999999] [0:1.5] [0:1.5] [0:1.5] [0:1.25] [0:1.3999999999999999] [0:6] [0:1.75] [0:1.75] [-5:5] [-4.6309481174706546:0.99854212849239243] [-1:1] [0:2.8867513459481291] [0:6] [-1.4024377759125219:0.086051371724632286] none none none none none none none none none none none none none none none none none none none none none none [-6.4404217683717997:16.281386230443907] [-17.636779863227932:4.2435101999693492] none [-1:0] [0:1] none none [0:1] [-1:0] [-1:0] [0:1] [0:1] [-1:1] [-78.399249751947281:758.31089643561404] [-0.050000000000000003:0.5] [-17.357222604847752:7.8558854446166366] [-1:0] [-5.2442707098897738:12.178603764392109] none none [-1:0] [0:0.4969039949999533] [-1:0] [-1:0] [-1:0] [-1:0] [-1:0] [-1:0] [-1:0] [0:1] [-1:0] [-1:0] [-1:1] [-1.4894204362328478:1.408366403384508] [-0.125:0.20000000000000001] [0:0.70492097446941782] [0:1] [-0.57392101449014021:0.61439393939393994] none none
tree_sizes=3486 3476

Tree=0
num_leaves=31
num_cat=0
split_feature=1 45 15 69 88 160 76 95 62 64 88 207 68 8 77 87 95 16 162 64 214 162 38 19 1 160 77 17 97 76
split_gain=2328.55 718.529 611.562 332.877 307.605 354.941 232.425 262.763 235.735 204.121 203.107 180.157 163.043 162.334 162.3 225.141 184.574 129.555 111.145 144.893 105.435 112.649 99.1693 110.776 96.1928 95.6208 90.6321 86.5225 72.7503 68.0504
threshold=1.9971784114910682 -1.0000000180025095e-35 1.0000000180025095e-35 -0.78596492009053986 0.66213548114596865 0.6907722562171833 0.94112156169282823 -0.092278194331280386 -0.32757186039013525 0.17886740449414792 3.8753025787535749 1.0000000180025095e-35 4.1523478001307232 311.10253552508595 -1.1620149502426684 -0.63825124554013501 -0.74069746178069262 2.8407893663513204 0.87500000000000011 -0.47390827439015065 -0.010811126694717156 0.87500000000000011 -1.0000000180025095e-35 1.0000000180025095e-35 -0.29226365884665456 1.1530005520069397 -0.24535207660270411 0.45351050835750878 0.051719991651315737 0.0072446279837655647
decision_type=2 2 2 2 2 2 2 2 2 2 2 2 2 2 2 2 2 2 2 2 2 2 2 2 2 2 2 2 2 2
left_child=1 4 3 -3 5 11 7 9 -8 14 17 -1 18 -2 15 -5 -16 -4 19 28 -18 24 -11 -24 29 -23 -20 -10 -9 -22
right_child=13 2 10 6 -6 -7 8 12 27 22 -12 -13 -14 -15 16 -17 20 -19 26 -21 21 25 23 -25 -26 -27 -28 -29 -30 -31
leaf_value=0.03917484241761774 0.052506060933462932 -0.057788094835983211 -0.051603833133193597 -0.02331001423881552 0.054972635235068318 -0.059999952705165734 -0.038138665870608456 0.028443826956884338 0.040596760087371994 -0.059999952705165734 0.044324868810191931 -0.059999952705165734 0.060000047294834262 -0.059999952705165734 0.037285025059116468 0.057457886635448971 0.022181969583555321 0.018772698973432245 -0.059999952705165713 -0.052563545542831845 -0.031007315805940683 0.056478124185897559 0.054857867697303039 -0.019925395926944266 -0.052397914526093353 -0.041089999345120781 0.053705691250831106 -0.051002164029292613 -0.049063115262344713 0.001604924232902516
leaf_weight=125.04644984006882 639.48613451421261 119.29372613132 565.67724688351154 55.135893672704697 169.06415267288685 61.486117959022522 48.279091507196426 33.811558440327644 183.60693077743053 9.4941799789667112 21.919935062527657 18.988359957933426 16.124824643135071 11.754699021577833 53.340832963585854 71.136937290430069 44.949675470590591 24.564095735549927 9.1927774399518984 248.3760407269001 182.01915735006332 25.673689886927605 94.954309538006783 21.947488889098167 127.26711650192738 13.953538745641707 20.111519828438759 9.7750227451324445 16.083916291594505 84.234593212604523
leaf_count=285 1083 780 3545 277 268 408 274 93 407 63 45 126 22 78 126 105 136 78 61 1567 976 39 151 107 802 81 33 61 99 331
internal_value=4.87137e-08 -0.0132787 -0.0201033 -0.00972431 0.0249986 0.00034162 -0.0055375 -0.0112585 0.0211619 -0.00167138 -0.0453449 0.0261005 -0.0331303 0.0504754 -0.00838144 0.0221913 -0.0156457 -0.048675 -0.0377146 -0.0431919 -0.0215511 -0.0260895 0.033245 0.0408178 -0.0309444 0.0221224 0.0180362 0.0359666 0.00345929 -0.0206898
internal_weight=3126.75 2475.51 2100.92 1488.76 374.585 205.521 1369.47 1127.81 241.661 784.107 612.161 144.035 343.701 651.241 657.711 126.273 531.439 590.241 327.576 298.272 478.098 433.148 126.396 116.902 393.521 39.6272 29.3043 193.382 49.8955 266.254
internal_count=12507 11346 10259 6591 1087 819 5811 5069 742 3194 3668 411 1875 1161 2873 382 2491 3623 1853 1759 2365 2229 321 258 2109 120 94 468 192 1307
is_linear=0
shrinkage=1


Tree=1
num_leaves=31
num_cat=0
split_feature=1 43 8 69 76 95 67 18 8 66 15 162 62 67 77 81 8 95 77 214 68 67 163 48 56 200 67 0 221 217
split_gain=2193.06 856.446 570.925 333.175 232.109 251.265 209.133 293.706 191.578 168.769 211.828 171.754 167.611 164.509 214.962 156.207 151.021 139.284 127.78 124.526 121.094 129.396 112.586 111.674 104.402 91.4441 83.2422 75.0424 67.9001 65.3953
threshold=1.9215168746203966 0.0013294219970703127 1.0000000180025095e-35 -0.78596492009053986 0.94112156169282823 -0.092278194331280386 0.83883633498205235 0.021980676328502421 2.7139357681532803 -0.89890516226080752 -0.12394947641488391 1.0000000180025095e-35 -0.32757186039013525 -0.15266412652305153 -0.99315158270694859 3.5950835232605161 311.10253552508595 -0.69229152991467713 -0.23860182472008959 -1.0000000180025095e-35 4.1523478001307232 -0.48212966589926098 0.90000000000000013 0.019721794128417975 0.036113739013671882 1.6206872225398012 -0.8014893980230603 2.810827573375323 0.48687123763002166 -1.0000000180025095e-35
decision_type=2 2 2 2 2 2 2 2 2 2 2 2 2 2 2 2 2 2 2 2 2 2 2 2 2 2 2 2 2 2
left_child=1 2 3 -1 5 9 7 23 15 25 11 13 -6 14 -11 24 27 -16 -19 -12 21 -7 -14 29 -4 -5 -20 -2 -21 -3
right_child=16 6 8 4 12 20 -8 -9 -10 10 19 -13 22 -15 17 -17 -18 18 26 28 -22 -23 -24 -25 -26 -27 -28 -29 -30 -31
leaf_value=-0.056960746291010014 0.03104755747283338 0.045745606912675957 -0.050728956985721926 -0.047680993267960721 -0.033341526834030605 0.018409972993854808 0.057976093993193492 -0.058907124324290898 0.054352807061298185 0.049026155597999395 0.029904634175605904 -0.05905962591718486 0.038708994257275912 0.050610134430695931 0.042094981215233557 0.024826192015009872 -0.058252936820721961 0.0087957487000790528 0.0012695635147274614 -0.045226052367103448 0.058252935801516907 -0.04397166750275204 -0.059473281922816409 -0.059360859748667234 0.042420308208342576 0.006044987244520141 -0.05362153193014179 0.055669361094165939 0.059453678510273576 -0.020002360558116987
leaf_weight=122.83062961697578 142.54745355248451 119.33436848223209 604.01095819473267 97.969392597675323 41.331800222396851 33.5811747610569 148.5491873472929 42.615305617451668 17.602752804756165 88.528513804078102 28.172115415334702 27.416369572281837 185.0354797244072 108.30771636962891 47.078208222985268 26.87861268222332 11.74412566423416 108.11309471726418 36.09967152774334 114.84389972686768 12.44888389110565 274.95235374569893 11.144522726535795 11.446458369493483 11.026789009571074 40.216323867440224 79.89350900053978 509.95755083858967 5.8614689111709586 15.368681162595747
leaf_count=808 367 232 3802 600 228 107 206 283 28 159 75 182 417 186 100 78 78 393 143 693 17 1648 74 76 23 151 511 759 8 75
internal_value=-3.88968e-09 -0.0130577 -0.020112 -0.00967035 -0.00533871 -0.0111292 0.0313479 0.0103928 -0.0432877 -0.00196058 0.00449162 0.013921 0.0215639 0.0181962 0.00843651 -0.0459652 0.0483714 -0.00481403 -0.0146682 -0.0268877 -0.0334807 -0.037182 0.0331315 0.0305998 -0.0490589 -0.0320451 -0.0365382 0.0502904 -0.0401428 0.0382442
internal_weight=3124.91 2460.66 2123.34 1463.83 1340.99 1103.48 337.314 188.765 659.519 782.5 644.315 495.437 237.512 468.021 359.713 641.916 664.249 271.184 224.106 148.877 320.982 308.534 196.18 146.15 615.038 138.186 115.993 652.505 120.705 134.703
internal_count=12507 11303 10431 6500 5692 4973 872 666 3931 3201 2450 1674 719 1492 1306 3903 1204 1147 1047 776 1772 1755 491 383 3825 751 654 1126 701 307
is_linear=0
shrinkage=0.03


end of trees

feature_importances:
gps_speed_residual__q90=4
attitude_error_mag__q75=4
attitude_error_mag__lag1_autocorrelation=4
control_strain__diff_std=4
gps_speed_residual__std=3
attitude_error_mag__diff_abs_max=3
timeout_flags_bit_count__min=3
gps_speed_residual__diff_std=2
attitude_error_mag__min=2
attitude_error_mag__median=2
attitude_error_mag__q90=2
attitude_error_mag__range=2
control_strain__q90=2
timeout_flags_bit_count__mean=2
battery_missing__diff_mean=2
gps_speed_residual__mean=1
gps_speed_residual__diff_abs_max=1
gps_speed_residual__lag1_autocorrelation=1
gps_speed_residual__missing_fraction=1
gps_speed_residual__stale_fraction=1
alt_baro_residual__missing_fraction=1
alt_local_residual__max=1
alt_local_residual__q10=1
alt_local_residual__q90=1
alt_local_residual__diff_abs_max=1
attitude_error_mag__q25=1
control_strain__std=1
control_strain__q75=1
control_strain__lag1_autocorrelation=1
timeout_flags_bit_count__max=1
battery_missing__mean=1
battery_missing__q75=1
battery_missing__lag1_autocorrelation=1
gps_health_missing__std=1

parameters:
[boosting: gbdt]
[objective: binary]
[metric: average_precision,binary_logloss]
[tree_learner: serial]
[device_type: cpu]
[data_sample_strategy: bagging]
[data: ]
[valid: ]
[num_iterations: 500]
[learning_rate: 0.03]
[num_leaves: 31]
[num_threads: 20]
[seed: 0]
[deterministic: 0]
[force_col_wise: 0]
[force_row_wise: 0]
[histogram_pool_size: -1]
[max_depth: -1]
[min_data_in_leaf: 20]
[min_sum_hessian_in_leaf: 0.001]
[bagging_fraction: 0.8]
[pos_bagging_fraction: 1]
[neg_bagging_fraction: 1]
[bagging_freq: 0]
[bagging_seed: 7719]
[bagging_by_query: 0]
[feature_fraction: 0.8]
[feature_fraction_bynode: 1]
[feature_fraction_seed: 2437]
[extra_trees: 0]
[extra_seed: 11797]
[early_stopping_round: 0]
[early_stopping_min_delta: 0]
[first_metric_only: 0]
[max_delta_step: 0]
[lambda_l1: 0]
[lambda_l2: 0]
[linear_lambda: 0]
[min_gain_to_split: 0]
[drop_rate: 0.1]
[max_drop: 50]
[skip_drop: 0.5]
[xgboost_dart_mode: 0]
[uniform_drop: 0]
[drop_seed: 21238]
[top_rate: 0.2]
[other_rate: 0.1]
[min_data_per_group: 100]
[max_cat_threshold: 32]
[cat_l2: 10]
[cat_smooth: 10]
[max_cat_to_onehot: 4]
[top_k: 20]
[monotone_constraints: ]
[monotone_constraints_method: basic]
[monotone_penalty: 0]
[feature_contri: ]
[forcedsplits_filename: ]
[refit_decay_rate: 0.9]
[cegb_tradeoff: 1]
[cegb_penalty_split: 0]
[cegb_penalty_feature_lazy: ]
[cegb_penalty_feature_coupled: ]
[path_smooth: 0]
[interaction_constraints: ]
[verbosity: -1]
[saved_feature_importance_type: 0]
[use_quantized_grad: 0]
[num_grad_quant_bins: 4]
[quant_train_renew_leaf: 0]
[stochastic_rounding: 1]
[linear_tree: 0]
[max_bin: 255]
[max_bin_by_feature: ]
[min_data_in_bin: 3]
[bin_construct_sample_cnt: 200000]
[data_random_seed: 38]
[is_enable_sparse: 1]
[enable_bundle: 1]
[use_missing: 1]
[zero_as_missing: 0]
[feature_pre_filter: 1]
[pre_partition: 0]
[two_round: 0]
[header: 0]
[label_column: ]
[weight_column: ]
[group_column: ]
[ignore_column: ]
[categorical_feature: ]
[forcedbins_filename: ]
[precise_float_parser: 0]
[parser_config_file: ]
[objective_seed: 8855]
[num_class: 1]
[is_unbalance: 0]
[scale_pos_weight: 1]
[sigmoid: 1]
[boost_from_average: 1]
[reg_sqrt: 0]
[alpha: 0.9]
[fair_c: 1]
[poisson_max_delta_step: 0.7]
[tweedie_variance_power: 1.5]
[lambdarank_truncation_level: 30]
[lambdarank_norm: 1]
[label_gain: ]
[lambdarank_position_bias_regularization: 0]
[eval_at: ]
[multi_error_top_k: 1]
[auc_mu_weights: ]
[num_machines: 1]
[local_listen_port: 12400]
[time_out: 120]
[machine_list_filename: ]
[machines: ]
[gpu_platform_id: -1]
[gpu_device_id: -1]
[gpu_use_dp: 0]
[num_gpu: 1]

end of parameters

pandas_categorical:[]
