tree
version=v4
num_class=1
num_tree_per_iteration=1
label_index=0
max_feature_idx=139
objective=binary sigmoid:1
feature_names=xtrack_error__mean xtrack_error__std xtrack_error__min xtrack_error__max xtrack_error__median xtrack_error__q10 xtrack_error__q25 xtrack_error__q75 xtrack_error__q90 xtrack_error__range xtrack_error__first xtrack_error__last xtrack_error__last_minus_first xtrack_error__linear_slope xtrack_error__diff_mean xtrack_error__diff_std xtrack_error__diff_abs_max xtrack_error__lag1_autocorrelation xtrack_error__missing_fraction xtrack_error__stale_fraction alt_error__mean alt_error__std alt_error__min alt_error__max alt_error__median alt_error__q10 alt_error__q25 alt_error__q75 alt_error__q90 alt_error__range alt_error__first alt_error__last alt_error__last_minus_first alt_error__linear_slope alt_error__diff_mean alt_error__diff_std alt_error__diff_abs_max alt_error__lag1_autocorrelation alt_error__missing_fraction alt_error__stale_fraction gps_speed_residual__mean gps_speed_residual__std gps_speed_residual__min gps_speed_residual__max gps_speed_residual__median gps_speed_residual__q10 gps_speed_residual__q25 gps_speed_residual__q75 gps_speed_residual__q90 gps_speed_residual__range gps_speed_residual__first gps_speed_residual__last gps_speed_residual__last_minus_first gps_speed_residual__linear_slope gps_speed_residual__diff_mean gps_speed_residual__diff_std gps_speed_residual__diff_abs_max gps_speed_residual__lag1_autocorrelation gps_speed_residual__missing_fraction gps_speed_residual__stale_fraction roll_error__mean roll_error__std roll_error__min roll_error__max roll_error__median roll_error__q10 roll_error__q25 roll_error__q75 roll_error__q90 roll_error__range roll_error__first roll_error__last roll_error__last_minus_first roll_error__linear_slope roll_error__diff_mean roll_error__diff_std roll_error__diff_abs_max roll_error__lag1_autocorrelation roll_error__missing_fraction roll_error__stale_fraction pitch_error__mean pitch_error__std pitch_error__min pitch_error__max pitch_error__median pitch_error__q10 pitch_error__q25 pitch_error__q75 pitch_error__q90 pitch_error__range pitch_error__first pitch_error__last pitch_error__last_minus_first pitch_error__linear_slope pitch_error__diff_mean pitch_error__diff_std pitch_error__diff_abs_max pitch_error__lag1_autocorrelation pitch_error__missing_fraction pitch_error__stale_fraction airspeed_error__mean airspeed_error__std airspeed_error__min airspeed_error__max airspeed_error__median airspeed_error__q10 airspeed_error__q25 airspeed_error__q75 airspeed_error__q90 airspeed_error__range airspeed_error__first airspeed_error__last airspeed_error__last_minus_first airspeed_error__linear_slope airspeed_error__diff_mean airspeed_error__diff_std airspeed_error__diff_abs_max airspeed_error__lag1_autocorrelation airspeed_error__missing_fraction airspeed_error__stale_fraction path_dev_mag__mean path_dev_mag__std path_dev_mag__min path_dev_mag__max path_dev_mag__median path_dev_mag__q10 path_dev_mag__q25 path_dev_mag__q75 path_dev_mag__q90 path_dev_mag__range path_dev_mag__first path_dev_mag__last path_dev_mag__last_minus_first path_dev_mag__linear_slope path_dev_mag__diff_mean path_dev_mag__diff_std path_dev_mag__diff_abs_max path_dev_mag__lag1_autocorrelation path_dev_mag__missing_fraction path_dev_mag__stale_fraction
feature_infos=[-20.104847516562153:6.5354296591204744] [-0.52699424996611099:105.45283889820783] [-14.745428486412976:3.203718606087822] [-26.94700915861786:14.981271319317459] [-28.843973087723008:10.966980507324278] [-16.014156861140314:3.8486249098259382] [-15.442943767068943:4.7558618523702076] [-37.229255094725445:15.71425768969238] [-35.753708139469154:15.418083455548194] [-0.61054342606793988:75.51698666815966] [-14.48099850450906:6.6800997770666077] [-42.825314933531686:18.985977561664654] [-1371.3829061387073:1872.9724880082147] [-11693.937659550937:2929.2253131736779] [-15350.657868351964:2634.5494318411038] [-0.46245618467350746:330.65904548350852] [-0.50779103366880007:255.94489220172792] [-169.50919508754336:1.3897312973953537] [0:1] [0:1] [-5.2352346225744579:2.5380196253373772] [-0.6999417168297668:65.066045810180952] [-4.6642944675283395:2.4081125432431407] [-5.1512855936639523:2.6589594879128424] [-5.241829934996578:2.5161419153539275] [-4.8134479338696528:2.432669589584755] [-4.830950104741329:2.4066742063598086] [-5.3175087239724359:2.5047678590416145] [-5.2550883999864952:2.6017876231781454] [-0.70897801689194817:48.696592651277093] [-4.8801319272835704:2.3944282765156233] [-5.4544362103192059:2.7270187748730819] [-306.55504429942141:1769.4413597253422] [-781.80217975416986:4501.4918107211943] [-845.59515171715248:7070.6749050046383] [-0.82046391471631841:157.31079455357985] [-0.82608927760820872:254.2180188272373] [-112.42185417604873:1.743789845436317] [0:1] [0:1] [-7.0875733291613763:76.211274866224812] [-0.043612989540579454:22.17642821958966] [-2.0892571900630514:0.30844108962592609] [-0.41599010960891819:24.447830494456223] [-5.1566844751756955:6.0477948202566383] [-2.1540927787876631:0.54919118711858839] [-2.745275559942189:1.4895556722167123] [-1.3764290333554499:43.170667532991438] [-0.73641813221862429:37.663771884449822] [-0.039399928735880115:12.683473013921049] [-14.40621155747194:196.09709558104555] [-15.499629785697879:16.577516075364422] [-280.88685674568006:28.224246561400779] [-2735.0409511787766:160.09942843822748] [-2287.8981116759542:168.3025133113394] [-0.015128581458373796:8.663010072005294] [-0.016352335856726151:9.3144397791119289] [-1.1804874482825085:1.352040988187837] [0:1] [0:1] [-17.190433753762044:7.680466404497504] [-0.82408935983593112:10.418493314694986] [-7.365550617113775:3.7936964231060561] [-16.272980345675329:10.467135605776626] [-13.600741274871959:5.9409364942652259] [-10.022289742875616:4.7429897294025229] [-17.993617255136169:7.9357596459586155] [-9.6451286954245017:5.7084260382684358] [-11.746066176898955:6.9073581795754508] [-0.76734705785945367:6.4690901642453902] [-6.4337032004338548:4.9815996106264668] [-6.6151478343833627:5.9030968287670191] [-1722.0542254010468:1610.0718380928972] [-2930.7925237550025:14115.854960163162] [-3500.4493789337002:12580.872035071028] [-1.0170860444799865:25.094657728066903] [-1.000210618881932:20.11803303616178] [-59.145967225741778:2.2430218160686386] [0:1] [0:1] [-133.34632464585866:351.40956457195784] [-1.029970889163708:9.17878302452017] [-6.3401774386455516:9.2925049243217419] [-4.281188935508629:14.051767844193781] [-114.2195876880667:300.52584235188056] [-8.827832630144032:13.340146290078026] [-9.2760942698109918:22.865047980202572] [-15.291447152650074:40.687951726825993] [-8.5100860591087244:25.418343697799074] [-0.9901370178103126:5.4267112042469483] [-133.93558979320886:347.62323517580165] [-239.46445983706661:349.47082858680881] [-718.58223809222261:620.83804380754816] [-1894.0560636340256:3839.1226702900212] [-2090.4843097395683:3817.5351824116246] [-1.396284668441657:8.1366453132505168] [-1.3452763904182297:6.9923683657342011] [-69.418178703243498:2.2906010918824755] [0:1] [0:1] [-1:23.955875396739998] [0:1693.7462183055509] [-1:23.9001235962] [-1:24.812286377] [-1:24.060153961200001] [-1:23.9001235962] [-1:23.9001235962] [-1:24.598327636699999] [-1:24.726702880879998] [0:1253.6718459025492] [-1:24.812286377] [-1:23.9001235962] [-12.2962999344:11.09819793698] [-4.4547553232324981:3.1935113448404939] [-0.93496799468750025:0.70114755632499959] [0:423.7888470589545] [0:408.26587756409583] [-0.99066478385731893:0.25933521614268074] [0:1] [0:1] [-0.83872701101245262:228.8711446887996] [-0.073723917451901003:13849.638070100387] [-0.5691946508593384:222.5430926075272] [-1.0532069263502331:232.98643059541925] [-0.85496302878908836:226.53453892623648] [-0.60208239498760086:223.00833298734003] [-0.66723608093426667:223.8485128731997] [-1.0391978662396699:233.15319616424867] [-1.0382537002580419:231.72944447208775] [-0.066473781775372109:8027.1194026306011] [-0.99617111537352587:228.76414260310293] [-0.74441499900650521:226.73487488088185] [-80081.281526227263:387.13483565067645] [-108436.44748280343:355.82553871733165] [-81682.94115260159:376.07446026953301] [-0.026431187627203739:20904.84669639817] [-0.028288909427696102:52180.042097196871] [-95.65327133890743:0.38434869802022953] [0:1] [0:1]
tree_sizes=3442 3449 3442 3454

Tree=0
num_leaves=31
num_cat=0
split_feature=131 128 120 43 120 122 46 121 22 13 102 100 83 128 43 1 126 7 55 66 122 80 43 109 120 75 20 35 134 19
split_gain=3407.14 1171.24 288.798 247.137 253.671 124.104 101.629 77.9711 63.4116 61.5665 55.3767 44.5561 37.748 43.007 37.6983 36.8432 35.1542 23.3728 41.154 56.3425 63.7074 39.4655 38.4733 33.3415 18.2651 15.6731 36.2577 15.5115 14.0097 11.8295
threshold=-0.39753875584308118 0.13367807709253751 0.11294685814754882 -0.1086483016998569 -0.62224419321489699 1.0000000180025095e-35 -0.97627464276918896 13.193587244685817 -0.56609142722984185 24.733791899605119 15.126920700096779 -1.0000000180025095e-35 1.242942935635923 0.65103047109700707 1.1705080033922763 9.4298071997430686 0.023539590829024987 0.092676827991502134 -0.0015804352843190414 -0.027733299066521142 -0.25153871703504432 -0.084543720717693949 0.43510939101779361 259.58935676964478 -0.49754929902950179 0.16079559532567952 -0.37135788146336068 -0.070742205531776903 -208.96780207896532 0.8928571428571429
decision_type=2 2 2 2 2 2 2 2 2 2 2 2 2 2 2 2 2 2 2 2 2 2 2 2 2 2 2 2 2 2
left_child=3 2 5 4 -1 6 8 -3 -2 12 17 -8 13 14 -9 -12 -7 18 -5 22 21 -21 23 -20 -22 29 -27 -13 -29 -10
right_child=1 7 -4 10 -6 16 11 9 25 -11 15 27 -14 -15 -16 -17 -18 -19 19 20 24 -23 -24 -25 -26 26 -28 28 -30 -31
leaf_value=-0.059999988019081144 -0.04657331683875067 0.058945843728679344 -0.059907471790364063 0.060000011980918852 0.060000011980918852 0.058643386675030947 0.026407263914183868 0.030636031948259469 0.060000011980918838 0.060000011980918852 -0.059999988019081157 -0.0020044273542091221 0.060000011980918852 -0.059999988019081144 -0.043380311570749182 0.048304012562310025 -0.0099405536235688506 0.059019048194837227 0.048304012562310046 0.048304012562309998 0.060000011980918838 -0.046512201263369461 0.054623830815020986 -0.05999998801908113 -0.0051532611932836566 -0.045801273862945378 0.055329500204006309 -0.0077330795027788779 -0.0584227352613702 0.006844331708524715
leaf_weight=36.72721229493618 13.599736437201498 84.177159175276756 657.8996709138155 132.89163219928741 27.897098362445831 21.803340092301372 7.044130563735961 19.13910494744778 15.216599106788637 20.03518882393837 6.4087752997875196 5.2475047856569281 7.3546895682811728 12.571059241890906 9.1557733714580518 5.0579624474048615 9.727060988545416 391.98849482834339 5.0579624474048597 5.0579624474048641 17.24547898769379 18.050818130373955 99.03336888551712 5.1763185113668442 4.9938948005437842 6.4301311820745468 6.3331310003995878 5.2403861582279196 77.180269464850426 5.0081320554018012
leaf_count=149 55 332 2669 524 110 86 28 76 60 79 26 21 29 51 37 20 39 1546 20 20 68 73 391 21 20 26 25 21 313 20
internal_value=1.23403e-08 -0.0368152 -0.0508414 0.0479036 -0.00819825 -0.0163304 -0.0283391 0.0396252 0.00793748 0.0157979 0.0531507 -0.0461831 -0.0025677 -0.0138281 0.00668552 -0.0122272 0.0374854 0.054254 0.0477572 0.0372346 0.00912343 -0.0257592 0.0489012 -0.00647424 0.0453697 0.0304103 0.00437982 -0.0520157 -0.0551998 0.0468374
internal_weight=1738.75 983.163 830.73 755.587 64.6243 172.83 141.3 152.433 46.5877 68.2558 690.963 94.7123 48.2206 40.8659 28.2949 11.4667 31.5304 679.496 287.507 154.616 45.3482 23.1088 109.268 10.2343 22.2394 32.988 12.7633 87.6682 82.4207 20.2247
internal_count=6955 3967 3363 2988 259 694 569 604 186 272 2729 383 193 164 113 46 125 2683 1137 613 181 93 432 41 88 131 51 355 334 80
is_linear=0
shrinkage=1


Tree=1
num_leaves=31
num_cat=0
split_feature=131 123 127 48 120 122 46 121 22 13 102 123 20 49 15 100 124 57 75 20 124 1 3 22 20 86 95 134 57 89
split_gain=3208.53 1125.12 265.462 230.735 247.615 113.936 106.656 72.8692 64.7913 59.3964 52.2595 47.4783 44.8534 41.9404 35.0688 34.0154 28.0941 25.0571 19.9551 35.6236 18.4564 36.3504 24.6076 28.8602 51.2443 13.969 9.95239 11.144 9.87842 6.98723
threshold=-0.39753875584308118 0.12020812527576603 1.0000000180025095e-35 -0.17976603584528669 -0.66548367573133926 1.0000000180025095e-35 -0.97627464276918896 13.193587244685817 -0.56609142722984185 24.733791899605119 15.126920700096779 0.57498693063591244 -0.43161261094289921 1.2578088890969916 18.24537521751289 -1.0000000180025095e-35 -0.053059227279453239 1.0979946303499295 0.16079559532567952 -0.37135788146336068 -0.51704943278399995 7.2177134688072631 -0.0063740393989981494 -0.26383204320927334 -0.61133096639786599 -0.33184635227531628 -0.22866787024543253 -182.07584212017466 -0.27430126423156093 0.40526375234179568
decision_type=2 2 2 2 2 2 2 2 2 2 2 2 2 2 2 2 2 2 2 2 2 2 2 2 2 2 2 2 2 2
left_child=3 2 5 4 -1 6 8 -3 -2 11 17 12 -9 -14 -12 -8 -7 20 -10 -20 22 28 23 24 -5 -13 -17 -28 -22 -26
right_child=1 7 -4 10 -6 16 15 9 18 -11 14 25 13 -15 -16 26 -18 -19 19 -21 21 -23 -24 -25 29 -27 27 -29 -30 -31
leaf_value=-0.058258019882356758 -0.044428421047359695 0.056555281378966378 -0.058222673245170997 0.051707923628492206 0.058253174645428951 0.056916312016647382 0.021551168941474366 -0.060420120730624131 0.056761402989925394 0.058312527310155841 -0.058501605611258389 0.00082919453213597862 0.053806584761093831 -0.029504665202286326 0.047200739764652978 -0.017155349260051508 -0.0072167507645785481 0.0022984579517592802 -0.043884505751663389 0.058385201668683745 -0.039278675454170901 0.053265989005940581 0.056174331792120683 0.058469878719782972 -0.011306326733089674 -0.058475703572227158 -0.01064712486128962 -0.057036605077023482 0.017882752322350624 -0.059532277786484684
leaf_weight=37.186893045902252 12.853291034698485 84.59661877155304 662.2323067933321 12.397014051675798 29.392305254936218 20.771460577845577 6.2822055816650382 5.4213977754116049 17.478257194161419 21.031469464302063 6.403166711330412 4.9965152144432095 22.280467435717586 7.1944078654050818 5.0548571944236755 7.2171186208724967 8.7316121459007245 8.7489614486694318 6.1803980767726898 6.0819833278655988 5.942181721329689 23.032080188393593 589.84377099573612 21.034521609544754 4.9830172061920148 12.560983940958975 4.9858756065368643 71.443500190973282 5.0193852037191373 5.9116110801696777
leaf_count=151 52 334 2689 49 116 82 25 22 69 83 26 20 88 29 20 29 35 35 25 24 24 91 2329 83 20 51 20 290 20 24
internal_value=-7.54763e-09 -0.035741 -0.0498014 0.0465061 -0.00682255 -0.0153819 -0.0272519 0.0375718 0.0118541 0.0157179 0.051664 -0.0013605 0.0188847 0.0334715 -0.0118696 -0.0457741 0.0379357 0.0527395 0.0361783 0.00683995 0.0534 0.0318644 0.0545543 0.0329972 0.00999296 -0.0415987 -0.0508305 -0.0540104 -0.013104 -0.0374746
internal_weight=1737.29 982.34 824.258 754.95 66.5792 162.026 132.523 158.082 42.5939 73.4852 688.371 52.4538 34.8963 29.4749 11.458 89.9287 29.5031 676.913 29.7406 12.2624 668.164 33.9936 634.17 44.3262 23.2916 17.5575 83.6465 76.4294 10.9616 10.8946
internal_count=6955 3967 3340 2988 267 651 534 627 170 293 2721 210 139 117 46 364 117 2675 118 49 2640 135 2505 176 93 71 339 310 44 44
is_linear=0
shrinkage=0.03


Tree=2
num_leaves=31
num_cat=0
split_feature=131 123 127 47 120 122 121 45 22 13 102 123 20 49 80 42 124 69 104 127 0 24 23 76 11 96 4 124 80 132
split_gain=3026.2 1061.29 250.675 233.1 234.205 107.414 68.8018 67.881 80.1544 56.0477 49.7334 44.7449 42.244 39.5252 33.4212 28.8148 26.5295 25.3172 18.2115 45.9549 33.3496 25.7306 74.8543 46.752 15.2554 13.6007 11.7872 10.5222 10.0979 9.88016
threshold=-0.39753875584308118 0.12020812527576603 1.0000000180025095e-35 -0.32444808408105036 -0.66548367573133926 1.0000000180025095e-35 13.193587244685817 -0.83388666527347921 -0.56609142722984185 24.733791899605119 15.126920700096779 0.57498693063591244 -0.43161261094289921 1.2578088890969916 -6.1924301026343391 -0.9108873553288056 -0.053059227279453239 1.4402172912825164 -1.0000000180025095e-35 -0.69218597180990116 -1.278236256265789 -0.32501483398981174 -0.59378113294207446 1.0333618211851701 0.23735352431975973 1.2802019682496362 -0.40387666823446072 -0.85135944981826628 1.7037235973971609 25.930082624789875
decision_type=2 2 2 2 2 2 2 2 2 2 2 2 2 2 2 2 2 2 2 2 2 2 2 2 2 2 2 2 2 2
left_child=3 2 5 4 -1 7 -3 8 -2 11 18 12 -8 -14 -12 17 -7 24 -5 21 -21 22 27 -24 -10 -13 -9 -20 -17 -23
right_child=1 6 -4 10 -6 16 9 26 15 -11 14 25 13 -15 -16 28 -18 -19 19 20 -22 29 23 -25 -26 -27 -28 -29 -30 -31
leaf_value=-0.055340503144062567 -0.048992333327145143 0.054994776782434016 -0.056623698876403152 0.056585114014912535 0.05668781084634527 0.055344957390262614 -0.058637287213952262 -0.01105311194962167 0.0032657776271246036 0.056708841833217213 0.046176824372895754 -0.057096992729004391 0.052273645759527927 -0.028638888929649955 -0.057111880646517149 -0.042479673101400391 -0.0070007826265106815 -0.029389302887433567 0.019985447773630271 0.057086888761387872 -0.035689206415322285 0.05447963549782027 -0.050409360191218548 0.057288529718900812 0.054993356668379824 0.0014573795855588802 -0.054675455542302048 0.056203955189628077 0.011996241723812215 0.012922878444486511
leaf_weight=39.320469453930855 26.1099484115839 84.390022799372673 660.52826246619225 330.12113508582115 29.317696243524551 20.721059635281566 5.4186622202396384 6.2220178544521323 6.7412033826112774 20.978168189525604 5.0458422303199768 12.535796463489534 22.246277764439586 7.1896095871925345 6.3897490799427015 7.896564379334448 8.7309545278549177 5.2010754346847525 8.528713643550871 5.3113938868045798 10.152369529008864 248.86779153347015 12.819508925080301 5.0593835413455954 21.485266864299774 4.9917834699153891 53.599320277571678 47.016584917902946 5.0024256110191345 5.2577868402004233
leaf_count=160 106 334 2689 1306 116 82 22 25 27 83 20 51 88 29 26 32 35 21 34 21 41 985 52 20 85 20 218 186 20 21
internal_value=-5.50907e-08 -0.0347532 -0.0484277 0.0452167 -0.0074894 -0.0149501 0.0365225 -0.0264881 -0.00695664 0.0152729 0.0505013 -0.00132155 0.0183407 0.0325111 -0.0115368 0.016735 0.0368628 0.0314323 0.0515552 0.0467143 -0.00382307 0.0491002 0.0334575 -0.0199329 0.0426395 -0.0404209 -0.0501383 0.0506428 -0.0213531 0.0536198
internal_weight=1733.2 979.988 822.238 753.208 68.6382 161.71 157.75 132.258 72.4365 73.3603 684.57 52.3821 34.8545 29.4359 11.4356 46.3265 29.452 33.4275 673.135 343.014 15.4638 327.55 73.4242 17.8789 28.2265 17.5276 59.8213 55.5453 12.899 254.126
internal_count=6955 3967 3340 2988 276 651 627 534 291 293 2712 210 139 117 46 185 117 133 2666 1360 62 1298 292 72 112 71 243 220 52 1006
is_linear=0
shrinkage=0.03


Tree=3
num_leaves=31
num_cat=0
split_feature=131 128 120 47 120 122 46 121 22 1 102 128 43 100 128 126 19 7 44 43 48 125 116 23 35 75 20 134 129 85
split_gain=2858.42 983.531 243.622 220.133 221.259 104.248 86.5531 65.688 53.3088 51.5393 46.9939 45.7858 43.6668 37.6634 31.8874 29.5983 18.1666 17.3821 35.94 57.8524 21.3062 18.358 18.3156 31.6235 13.5585 13.3726 31.6084 12.5292 11.0188 50.6693
threshold=-0.39753875584308118 0.13367807709253751 0.11294685814754882 -0.32444808408105036 -0.66548367573133926 1.0000000180025095e-35 -0.97627464276918896 13.193587244685817 -0.56609142722984185 3.7857219052903424 15.126920700096779 0.65103047109700707 1.1705080033922763 -1.0000000180025095e-35 -0.076108454585657806 0.023539590829024987 0.78310104529616742 0.092676827991502134 -0.44143492590773237 0.32487622232167096 0.63639285675718626 -0.26826493600533002 80.359193063077356 -0.46561689497980252 -0.070742205531776903 0.16079559532567952 -0.37135788146336068 -208.96780207896532 1.1200674631051284 -1.0000000180025095e-35
decision_type=2 2 2 2 2 2 2 2 2 2 2 2 2 2 2 2 2 2 2 2 2 2 2 2 2 2 2 2 2 2
left_child=3 2 5 4 -1 6 8 -3 -2 11 17 12 16 -8 -12 -7 -9 18 19 -5 22 28 23 -21 -15 -10 -27 -26 -20 -30
right_child=1 7 -4 10 -6 15 13 9 25 -11 14 -13 -14 24 -16 -17 -18 -19 21 20 -22 -23 -24 -25 27 26 -28 -29 29 -31
leaf_value=-0.053888015430607984 -0.042554365343591957 0.054235551252841956 -0.055109588648833065 -0.058740364912818192 0.055217078919317618 0.054007891351277995 0.024266401337943576 -0.011673949734358965 0.043430660251572273 0.047275007400294361 -0.055819468138816199 -0.05573662753311958 -0.04076103118873118 -0.0011425114853781217 0.045224376045311751 -0.0090212647477074005 0.054311209773792016 0.054321641186151744 0.0544614439875033 -0.042739418209828538 0.051170801170775597 -0.0025109362007145184 0.049599670865864053 0.035905094851165088 -0.0059927466427631146 -0.042782689548230335 0.051820201683903069 -0.053970408560887202 0.055519456266418708 -0.047897008472550337
leaf_weight=39.171046286821365 13.53203611075878 83.568374499678612 652.91796523332596 6.6411485075950614 29.197363764047623 21.648858025670055 7.0316132307052603 4.9670757651329085 20.112033233046532 26.401693075895309 6.3691566586494446 12.003600373864172 9.1266956627368909 5.2432132065296164 5.0313484072685224 9.7142926007509214 15.39008454978466 387.90083250403404 185.06555823981762 8.8878250569105166 32.22287218272686 5.7282031774520865 9.3114856481552106 9.5421017557382601 5.233125388622283 6.410576343536377 6.3047168105840665 76.674184784293175 19.90283685922623 5.4264579862356177
leaf_count=160 55 332 2669 27 116 86 28 20 80 105 26 49 37 21 20 39 61 1541 735 36 128 23 37 38 21 26 25 313 79 22
internal_value=-8.02446e-08 -0.0338406 -0.0467437 0.044027 -0.00729367 -0.0149688 -0.026005 0.0364282 0.00755148 0.0145083 0.0491715 -0.00634372 0.0137653 -0.0425225 -0.0112261 0.0344855 0.0382111 0.0501982 0.044541 0.0252737 0.0345784 0.0504788 0.0153055 -0.00202119 -0.0479112 0.028206 0.00412495 -0.0509051 0.0519215 0.0333639
internal_weight=1726.68 976.28 824.823 750.398 68.3684 171.905 140.541 151.458 46.3594 67.8891 682.03 41.4875 29.4839 94.1821 11.4005 31.3632 20.3572 670.629 282.728 66.6054 59.9643 216.123 27.7414 18.4299 87.1505 32.8273 12.7153 81.9073 210.395 25.3293
internal_count=6955 3967 3363 2988 276 694 569 604 186 272 2712 167 118 383 46 125 81 2666 1125 266 239 859 111 74 355 131 51 334 836 101
is_linear=0
shrinkage=0.03


end of trees

feature_importances:
path_dev_mag__mean=7
alt_error__mean=6
alt_error__min=5
gps_speed_residual__max=5
path_dev_mag__min=5
path_dev_mag__q90=5
airspeed_error__min=4
path_dev_mag__std=4
path_dev_mag__max=4
path_dev_mag__median=4
path_dev_mag__last=4
xtrack_error__std=3
xtrack_error__linear_slope=3
gps_speed_residual__q25=3
roll_error__diff_std=3
pitch_error__mean=3
airspeed_error__mean=3
path_dev_mag__q75=3
path_dev_mag__diff_mean=3
xtrack_error__q75=2
xtrack_error__stale_fraction=2
alt_error__max=2
alt_error__diff_std=2
gps_speed_residual__q75=2
gps_speed_residual__q90=2
gps_speed_residual__range=2
gps_speed_residual__lag1_autocorrelation=2
path_dev_mag__q25=2
xtrack_error__mean=1
xtrack_error__max=1
xtrack_error__median=1
xtrack_error__last=1
xtrack_error__diff_std=1
alt_error__median=1
gps_speed_residual__min=1
gps_speed_residual__median=1
gps_speed_residual__q10=1
gps_speed_residual__diff_std=1
roll_error__q25=1
roll_error__range=1
roll_error__diff_abs_max=1
pitch_error__max=1
pitch_error__q10=1
pitch_error__q25=1
pitch_error__range=1
pitch_error__diff_std=1
pitch_error__diff_abs_max=1
airspeed_error__median=1
airspeed_error__range=1
airspeed_error__diff_abs_max=1
path_dev_mag__q10=1
path_dev_mag__range=1
path_dev_mag__last_minus_first=1

parameters:
[boosting: gbdt]
[objective: binary]
[metric: average_precision,binary_logloss]
[tree_learner: serial]
[device_type: cpu]
[data_sample_strategy: bagging]
[data: ]
[valid: ]
[num_iterations: 500]
[learning_rate: 0.03]
[num_leaves: 31]
[num_threads: 20]
[seed: 1]
[deterministic: 0]
[force_col_wise: 0]
[force_row_wise: 0]
[histogram_pool_size: -1]
[max_depth: -1]
[min_data_in_leaf: 20]
[min_sum_hessian_in_leaf: 0.001]
[bagging_fraction: 0.8]
[pos_bagging_fraction: 1]
[neg_bagging_fraction: 1]
[bagging_freq: 0]
[bagging_seed: 18467]
[bagging_by_query: 0]
[feature_fraction: 0.8]
[feature_fraction_bynode: 1]
[feature_fraction_seed: 26500]
[extra_trees: 0]
[extra_seed: 15724]
[early_stopping_round: 0]
[early_stopping_min_delta: 0]
[first_metric_only: 0]
[max_delta_step: 0]
[lambda_l1: 0]
[lambda_l2: 0]
[linear_lambda: 0]
[min_gain_to_split: 0]
[drop_rate: 0.1]
[max_drop: 50]
[skip_drop: 0.5]
[xgboost_dart_mode: 0]
[uniform_drop: 0]
[drop_seed: 6334]
[top_rate: 0.2]
[other_rate: 0.1]
[min_data_per_group: 100]
[max_cat_threshold: 32]
[cat_l2: 10]
[cat_smooth: 10]
[max_cat_to_onehot: 4]
[top_k: 20]
[monotone_constraints: ]
[monotone_constraints_method: basic]
[monotone_penalty: 0]
[feature_contri: ]
[forcedsplits_filename: ]
[refit_decay_rate: 0.9]
[cegb_tradeoff: 1]
[cegb_penalty_split: 0]
[cegb_penalty_feature_lazy: ]
[cegb_penalty_feature_coupled: ]
[path_smooth: 0]
[interaction_constraints: ]
[verbosity: -1]
[saved_feature_importance_type: 0]
[use_quantized_grad: 0]
[num_grad_quant_bins: 4]
[quant_train_renew_leaf: 0]
[stochastic_rounding: 1]
[linear_tree: 0]
[max_bin: 255]
[max_bin_by_feature: ]
[min_data_in_bin: 3]
[bin_construct_sample_cnt: 200000]
[data_random_seed: 41]
[is_enable_sparse: 1]
[enable_bundle: 1]
[use_missing: 1]
[zero_as_missing: 0]
[feature_pre_filter: 1]
[pre_partition: 0]
[two_round: 0]
[header: 0]
[label_column: ]
[weight_column: ]
[group_column: ]
[ignore_column: ]
[categorical_feature: ]
[forcedbins_filename: ]
[precise_float_parser: 0]
[parser_config_file: ]
[objective_seed: 19169]
[num_class: 1]
[is_unbalance: 0]
[scale_pos_weight: 1]
[sigmoid: 1]
[boost_from_average: 1]
[reg_sqrt: 0]
[alpha: 0.9]
[fair_c: 1]
[poisson_max_delta_step: 0.7]
[tweedie_variance_power: 1.5]
[lambdarank_truncation_level: 30]
[lambdarank_norm: 1]
[label_gain: ]
[lambdarank_position_bias_regularization: 0]
[eval_at: ]
[multi_error_top_k: 1]
[auc_mu_weights: ]
[num_machines: 1]
[local_listen_port: 12400]
[time_out: 120]
[machine_list_filename: ]
[machines: ]
[gpu_platform_id: -1]
[gpu_device_id: -1]
[gpu_use_dp: 0]
[num_gpu: 1]

end of parameters

pandas_categorical:[]
