tree
version=v4
num_class=1
num_tree_per_iteration=1
label_index=0
max_feature_idx=139
objective=binary sigmoid:1
feature_names=xtrack_error__mean xtrack_error__std xtrack_error__min xtrack_error__max xtrack_error__median xtrack_error__q10 xtrack_error__q25 xtrack_error__q75 xtrack_error__q90 xtrack_error__range xtrack_error__first xtrack_error__last xtrack_error__last_minus_first xtrack_error__linear_slope xtrack_error__diff_mean xtrack_error__diff_std xtrack_error__diff_abs_max xtrack_error__lag1_autocorrelation xtrack_error__missing_fraction xtrack_error__stale_fraction alt_error__mean alt_error__std alt_error__min alt_error__max alt_error__median alt_error__q10 alt_error__q25 alt_error__q75 alt_error__q90 alt_error__range alt_error__first alt_error__last alt_error__last_minus_first alt_error__linear_slope alt_error__diff_mean alt_error__diff_std alt_error__diff_abs_max alt_error__lag1_autocorrelation alt_error__missing_fraction alt_error__stale_fraction gps_speed_residual__mean gps_speed_residual__std gps_speed_residual__min gps_speed_residual__max gps_speed_residual__median gps_speed_residual__q10 gps_speed_residual__q25 gps_speed_residual__q75 gps_speed_residual__q90 gps_speed_residual__range gps_speed_residual__first gps_speed_residual__last gps_speed_residual__last_minus_first gps_speed_residual__linear_slope gps_speed_residual__diff_mean gps_speed_residual__diff_std gps_speed_residual__diff_abs_max gps_speed_residual__lag1_autocorrelation gps_speed_residual__missing_fraction gps_speed_residual__stale_fraction roll_error__mean roll_error__std roll_error__min roll_error__max roll_error__median roll_error__q10 roll_error__q25 roll_error__q75 roll_error__q90 roll_error__range roll_error__first roll_error__last roll_error__last_minus_first roll_error__linear_slope roll_error__diff_mean roll_error__diff_std roll_error__diff_abs_max roll_error__lag1_autocorrelation roll_error__missing_fraction roll_error__stale_fraction pitch_error__mean pitch_error__std pitch_error__min pitch_error__max pitch_error__median pitch_error__q10 pitch_error__q25 pitch_error__q75 pitch_error__q90 pitch_error__range pitch_error__first pitch_error__last pitch_error__last_minus_first pitch_error__linear_slope pitch_error__diff_mean pitch_error__diff_std pitch_error__diff_abs_max pitch_error__lag1_autocorrelation pitch_error__missing_fraction pitch_error__stale_fraction airspeed_error__mean airspeed_error__std airspeed_error__min airspeed_error__max airspeed_error__median airspeed_error__q10 airspeed_error__q25 airspeed_error__q75 airspeed_error__q90 airspeed_error__range airspeed_error__first airspeed_error__last airspeed_error__last_minus_first airspeed_error__linear_slope airspeed_error__diff_mean airspeed_error__diff_std airspeed_error__diff_abs_max airspeed_error__lag1_autocorrelation airspeed_error__missing_fraction airspeed_error__stale_fraction path_dev_mag__mean path_dev_mag__std path_dev_mag__min path_dev_mag__max path_dev_mag__median path_dev_mag__q10 path_dev_mag__q25 path_dev_mag__q75 path_dev_mag__q90 path_dev_mag__range path_dev_mag__first path_dev_mag__last path_dev_mag__last_minus_first path_dev_mag__linear_slope path_dev_mag__diff_mean path_dev_mag__diff_std path_dev_mag__diff_abs_max path_dev_mag__lag1_autocorrelation path_dev_mag__missing_fraction path_dev_mag__stale_fraction
feature_infos=[-84.928935198826935:35.980315182336483] [-1.003346916765586:91.233073418445017] [-58.854188111418203:9.8297632016900014] [-61.149263558412173:55.975254748180348] [-93.533345009004577:53.16183535379993] [-49.597339467153397:13.094659232619884] [-61.328975624501339:23.725180839141316] [-103.69977006701846:64.58618302180605] [-91.016261384572928:61.054965142842427] [-0.97482284272517827:61.700469107679446] [-38.358423853825791:18.887305206173295] [-69.173445572505159:47.380290309937386] [-94.913389902180043:124.42537074136182] [-630.21705092171692:302.3330164709069] [-885.18332725341895:325.83694065896668] [-1.0704414001434259:285.71530454286551] [-1.2063463187086345:270.81260631689651] [-86.649257059681361:1.0279692693495508] [0:1] [0:1] [-4.7234007139632288:4.6307978798609115] [-1.1256916002745518:27.121552712034394] [-6.1960413729731894:5.5061260035849111] [-4.3112933355186218:4.8597048464934351] [-4.7238653553183401:4.5519256730381752] [-5.6939223321012182:5.0355077738102008] [-5.0525527233791472:4.561686117759324] [-4.4229703626520251:4.6384160403949339] [-4.3447491686796917:4.7330686150109775] [-1.1977403226121104:20.697339629431504] [-5.605627988809383:4.7481895591426824] [-4.4024836482213976:5.2036298399447647] [-12.415801384110042:35.526350219716903] [-17.724252557714944:143.3525300864909] [-18.891180766865194:255.7960636275094] [-1.4293982976631976:173.90645364455366] [-1.4012703873181678:162.75112682452541] [-100.62234156594008:1.2338408547460509] [0:1] [0:1] [-4.8537928114436193:6.9640198567159208] [-1.8261765428676755:4.3862264343159829] [-1.6979873189984045:1.4404532520228561] [-1.5178020877331322:3.8734270681768934] [-4.238566224580099:4.070452040269342] [-1.656354786975655:1.4144813395400531] [-2.2843010787531632:1.3889253815002831] [-1.8839378729651548:3.144146348575203] [-1.6181800725218658:4.0272883855237831] [-1.6253302380054291:1.8342488689794454] [-3.9677147250461915:9.0649308297754541] [-4.0981490311912339:5.6406620762887956] [-6.6417327698100781:4.2835731396215166] [-104.19656165948436:61.879182501998379] [-51.453016999788495:31.40261920066348] [-1.6854959003395507:3.4762209990644539] [-1.5067498827675139:2.1179030686832281] [-1.7428901340764598:3.6962010448141682] [0:1] [0:1] [-16.524084111177878:11.770845049518304] [-1.2172204400516138:7.5351501448736897] [-7.8539192106090701:3.0999722179461764] [-4.7215127872585771:5.7635207129208199] [-21.914774607643622:15.676161242518548] [-11.452790337268764:3.5946556678370909] [-18.484185216892023:6.866438712505877] [-9.0509653855211489:8.9078510204667829] [-6.1776540529476787:5.9002529173661635] [-1.2263856140284146:5.3723862264709981] [-11.08287129481292:8.9079081140451049] [-11.503408996179679:12.071686012420798] [-19.979639879970929:18.358131761539283] [-16.752718889295718:90.539626632540191] [-32.329584526947194:101.00959591550233] [-1.6410974092185755:23.944196988722666] [-1.5463555788104524:15.510782103921244] [-34.210376963725928:1.346246432046126] [0:1] [0:1] [-12.532063381590534:34.403615729741936] [-1.3848731397203797:8.2180759985336671] [-4.691516968058445:12.32232792269215] [-3.160629179035825:9.1828629108743822] [-11.385890672279645:30.622011664234329] [-5.4504298588168973:15.532582415119238] [-8.0001271427349128:22.451623497908216] [-12.650077815501339:33.390743825916879] [-4.4321325512992695:12.194714716594302] [-1.4906954391349749:5.0985715610143618] [-7.0456125107489553:17.133727037331319] [-6.9758482957068981:16.60550696059579] [-11.959073333129107:10.19657388882975] [-49.65094143661161:61.826334460653428] [-38.505392077931297:50.457022005452906] [-2.1158786951330368:7.9442389593342631] [-1.9764155258300811:9.6709155657945125] [-41.488633990206829:1.4787370207588317] [0:1] [0:1] [-1.0014306479581496:23.694323632114514] [-0.58763072049348308:880.47668271703674] [-1:22.183465957599999] [-1.0101012436486605:25.062921327174415] [-1:23.742783546449999] [-1:22.53333091735] [-1:23.018750190750001] [-1:24.463784217825001] [-1.0090819453894755:24.92967925591644] [-1:1252.6718459025492] [-1:24.812286377] [-1:22.183465957599999] [-11.656579971399999:10.467704772979999] [-24758.466186107999:8070.0352012799904] [-0.7882655007499999:0.2616926193245] [-0.60485837890913385:211.28956515056811] [-1:407.26587756409583] [-0.96535536854261317:0.34581478788586195] [0:1] [0:1] [-0.049401543394133614:2.7607053862384632] [-0.23390860826803836:40.024328814098574] [-0.029800896485189073:3.8705227473076418] [-0.095591029366855984:2.2401491985200432] [-0.034825988039737736:2.7653914942043647] [-0.028497783147263398:3.7717287574800338] [-0.032155088855903423:3.5476540898046927] [-0.061214898694461617:2.2944238212939787] [-0.082550748543986155:2.2688381668393012] [-0.25572214586893027:27.371049197568144] [-0.045975875035851238:2.3625117779717901] [-0.050233441093736231:3.0777663322145457] [-168.48941501688705:78.947240692039344] [-188.41647613572297:64.906739882040711] [-200.2554992931999:75.194377961926492] [-0.43562520061516147:107.11491969865516] [-0.29595212745808896:158.24546229355275] [-65.393009462164159:0.57233514410586739] [0:1] [0:1]
tree_sizes=3435

Tree=0
num_leaves=31
num_cat=0
split_feature=122 31 6 102 46 101 46 75 46 25 76 23 100 137 5 55 123 43 65 0 121 82 33 46 132 48 45 23 45 1
split_gain=1898.35 470.425 188.287 154.388 89.417 84.382 50.2655 58.1903 40.2817 31.558 21.8609 20.9318 19.1456 29.1086 18.5673 17.4992 16.1389 33.2915 7.81704 7.48127 7.23602 3.87171 3.81129 2.92055 2.5361 7.97737 1.03506 0.868996 0.460284 0.331734
threshold=-0.0028291892520113794 0.21047602890636449 -4.9026761180317306 15.643654823302541 1.0608227452466086 0.39192634597896553 -0.21113856595227654 -0.21191508501172324 0.62011963486102639 -0.25339444607267508 4.6286299494286602 -0.059887513037378867 -0.92071532397907474 -0.092708324294962036 -10.014600131716888 -0.03140240506821395 1.1706817657464428 0.40261617661782717 -1.0000000180025095e-35 2.0232876828563282 -0.20758050269355949 -1.4606938375336178 2.3813636169550034 1.0079765611556366 -0.32626457169083206 -0.37300145425241643 -0.39091198633968632 -0.28849367431728568 -0.32926412073469208 -0.79344807363885128
decision_type=2 2 2 2 2 2 2 2 2 2 2 2 2 2 2 2 2 2 2 2 2 2 2 2 2 2 2 2 2 2
left_child=8 2 5 10 6 18 7 9 14 -4 29 -7 13 -8 -1 -9 22 -18 -2 -5 -6 -17 23 24 25 -14 -23 -11 -26 -3
right_child=1 3 4 19 20 11 12 15 -10 27 -12 -13 16 -15 -16 21 17 -19 -20 -21 -22 26 -24 -25 28 -27 -28 -29 -30 -31
leaf_value=0.0028606040038609039 -0.014282441948281608 0.051343880074505077 -0.026210107764388417 -0.017224539801519723 0.059999998651329593 0.0599999986513296 0.043081940176614701 -0.0084844052734119966 -0.031762209445732811 0.059999998651329593 0.0046842989524130347 -0.0084844052734119896 -0.017224539801519723 -0.056252242835934038 0.0599999986513296 -0.031189986374446178 0.028777690779683889 -0.060000001348670395 -0.060000001348670409 -0.060000001348670395 0.0090229984152049893 -0.060000001348670409 -0.034428666440261345 -0.040550602378792468 -0.051604821558129461 -0.060000001348670395 -0.04783283801183244 0.042234095846002385 -0.060000001348670395 0.0599999986513296
leaf_weight=5.2022290080785742 5.5022666752338418 4.2925159484148017 8.1889936476945895 5.2926415055990246 5.8695047497749329 22.639518320560455 4.3925285041332245 9.7659824490547162 4.4541408270597449 6.0791299194097519 7.3888932019472113 4.8829912245273617 5.2926415055990246 6.7120174020528776 316.95325648784637 6.1119420677423468 5.9503171890974071 10.527682662010191 8.6698563098907435 12.075871288776396 4.3733283877372724 26.319206655025479 5.9023168981075278 7.7601432502269736 5.9927293956279746 15.172248542308806 8.2698060870170611 4.1829033344984037 306.23171037435532 55.550669953227043
leaf_count=21 21 20 30 20 28 108 20 38 16 29 30 19 20 22 1512 22 26 34 28 39 18 85 21 27 20 49 28 19 989 265
internal_value=-1.38913e-09 -0.0326043 -0.0437821 0.0327696 -0.049396 0.0172244 -0.0514229 -0.02788 0.0578385 0.0177104 0.0533681 0.0478496 -0.0557619 -0.0169595 0.0590773 -0.0445482 -0.0569495 -0.0279418 -0.0422504 -0.0469652 0.0382346 -0.0532015 -0.0583295 -0.0587439 -0.0591683 -0.0489374 -0.057091 0.0527584 -0.0598389 0.0593791
internal_weight=906 579.39 494.79 84.6006 453.095 41.6946 442.852 68.918 326.61 18.451 67.2321 27.5225 373.934 11.1045 322.155 50.4669 362.83 16.478 14.1721 17.3685 10.2428 40.701 346.352 340.449 332.689 20.4649 34.589 10.262 312.224 59.8432
internal_count=3624 2075 1701 374 1525 176 1479 251 1549 78 315 127 1228 42 1533 173 1186 60 49 59 46 135 1126 1105 1078 69 113 48 1009 285
is_linear=0
shrinkage=1


end of trees

feature_importances:
gps_speed_residual__q25=4
alt_error__max=2
gps_speed_residual__q10=2
xtrack_error__mean=1
xtrack_error__std=1
xtrack_error__q10=1
xtrack_error__q25=1
alt_error__q10=1
alt_error__last=1
alt_error__linear_slope=1
gps_speed_residual__max=1
gps_speed_residual__q90=1
gps_speed_residual__diff_std=1
roll_error__q10=1
roll_error__diff_std=1
roll_error__diff_abs_max=1
pitch_error__min=1
airspeed_error__mean=1
airspeed_error__std=1
airspeed_error__min=1
path_dev_mag__std=1
path_dev_mag__min=1
path_dev_mag__max=1
path_dev_mag__last_minus_first=1
path_dev_mag__lag1_autocorrelation=1

parameters:
[boosting: gbdt]
[objective: binary]
[metric: average_precision,binary_logloss]
[tree_learner: serial]
[device_type: cpu]
[data_sample_strategy: bagging]
[data: ]
[valid: ]
[num_iterations: 500]
[learning_rate: 0.03]
[num_leaves: 31]
[num_threads: 20]
[seed: 4]
[deterministic: 0]
[force_col_wise: 0]
[force_row_wise: 0]
[histogram_pool_size: -1]
[max_depth: -1]
[min_data_in_leaf: 20]
[min_sum_hessian_in_leaf: 0.001]
[bagging_fraction: 0.8]
[pos_bagging_fraction: 1]
[neg_bagging_fraction: 1]
[bagging_freq: 0]
[bagging_seed: 17945]
[bagging_by_query: 0]
[feature_fraction: 0.8]
[feature_fraction_bynode: 1]
[feature_fraction_seed: 386]
[extra_trees: 0]
[extra_seed: 27504]
[early_stopping_round: 0]
[early_stopping_min_delta: 0]
[first_metric_only: 0]
[max_delta_step: 0]
[lambda_l1: 0]
[lambda_l2: 0]
[linear_lambda: 0]
[min_gain_to_split: 0]
[drop_rate: 0.1]
[max_drop: 50]
[skip_drop: 0.5]
[xgboost_dart_mode: 0]
[uniform_drop: 0]
[drop_seed: 27159]
[top_rate: 0.2]
[other_rate: 0.1]
[min_data_per_group: 100]
[max_cat_threshold: 32]
[cat_l2: 10]
[cat_smooth: 10]
[max_cat_to_onehot: 4]
[top_k: 20]
[monotone_constraints: ]
[monotone_constraints_method: basic]
[monotone_penalty: 0]
[feature_contri: ]
[forcedsplits_filename: ]
[refit_decay_rate: 0.9]
[cegb_tradeoff: 1]
[cegb_penalty_split: 0]
[cegb_penalty_feature_lazy: ]
[cegb_penalty_feature_coupled: ]
[path_smooth: 0]
[interaction_constraints: ]
[verbosity: -1]
[saved_feature_importance_type: 0]
[use_quantized_grad: 0]
[num_grad_quant_bins: 4]
[quant_train_renew_leaf: 0]
[stochastic_rounding: 1]
[linear_tree: 0]
[max_bin: 255]
[max_bin_by_feature: ]
[min_data_in_bin: 3]
[bin_construct_sample_cnt: 200000]
[data_random_seed: 51]
[is_enable_sparse: 1]
[enable_bundle: 1]
[use_missing: 1]
[zero_as_missing: 0]
[feature_pre_filter: 1]
[pre_partition: 0]
[two_round: 0]
[header: 0]
[label_column: ]
[weight_column: ]
[group_column: ]
[ignore_column: ]
[categorical_feature: ]
[forcedbins_filename: ]
[precise_float_parser: 0]
[parser_config_file: ]
[objective_seed: 17345]
[num_class: 1]
[is_unbalance: 0]
[scale_pos_weight: 1]
[sigmoid: 1]
[boost_from_average: 1]
[reg_sqrt: 0]
[alpha: 0.9]
[fair_c: 1]
[poisson_max_delta_step: 0.7]
[tweedie_variance_power: 1.5]
[lambdarank_truncation_level: 30]
[lambdarank_norm: 1]
[label_gain: ]
[lambdarank_position_bias_regularization: 0]
[eval_at: ]
[multi_error_top_k: 1]
[auc_mu_weights: ]
[num_machines: 1]
[local_listen_port: 12400]
[time_out: 120]
[machine_list_filename: ]
[machines: ]
[gpu_platform_id: -1]
[gpu_device_id: -1]
[gpu_use_dp: 0]
[num_gpu: 1]

end of parameters

pandas_categorical:[]
